{"learner":{"attributes":{"best_iteration":"468","best_score":"0.5143036821534573","scikit_learn":"{\"_estimator_type\": \"classifier\"}"},"feature_names":["return_1d","return_5d","price_to_ma5","ma5_to_ma20","rsi","macd_diff","stoch_k","bb_pct","atr_pct","volume_ratio","return_lag1","return_lag2","return_lag3","rsi_lag1","finbert_score_mean","finbert_pos_mean","finbert_neg_mean","news_count","sentiment_lag1","sentiment_lag2","spy_return_1d","spy_return_5d","spy_ma_ratio"],"feature_types":["float","float","float","float","float","float","float","float","float","float","float","float","float","float","float","float","float","float","float","float","float","float","float"],"gradient_booster":{"model":{"cats":{"enc":[],"feature_segments":[],"sorted_idx":[]},"gbtree_model_param":{"num_parallel_tree":"1","num_trees":"569"},"iteration_indptr":[0,1,2,3,4,5,6,7,8,9,10,11,12,13,14,15,16,17,18,19,20,21,22,23,24,25,26,27,28,29,30,31,32,33,34,35,36,37,38,39,40,41,42,43,44,45,46,47,48,49,50,51,52,53,54,55,56,57,58,59,60,61,62,63,64,65,66,67,68,69,70,71,72,73,74,75,76,77,78,79,80,81,82,83,84,85,86,87,88,89,90,91,92,93,94,95,96,97,98,99,100,101,102,103,104,105,106,107,108,109,110,111,112,113,114,115,116,117,118,119,120,121,122,123,124,125,126,127,128,129,130,131,132,133,134,135,136,137,138,139,140,141,142,143,144,145,146,147,148,149,150,151,152,153,154,155,156,157,158,159,160,161,162,163,164,165,166,167,168,169,170,171,172,173,174,175,176,177,178,179,180,181,182,183,184,185,186,187,188,189,190,191,192,193,194,195,196,197,198,199,200,201,202,203,204,205,206,207,208,209,210,211,212,213,214,215,216,217,218,219,220,221,222,223,224,225,226,227,228,229,230,231,232,233,234,235,236,237,238,239,240,241,242,243,244,245,246,247,248,249,250,251,252,253,254,255,256,257,258,259,260,261,262,263,264,265,266,267,268,269,270,271,272,273,274,275,276,277,278,279,280,281,282,283,284,285,286,287,288,289,290,291,292,293,294,295,296,297,298,299,300,301,302,303,304,305,306,307,308,309,310,311,312,313,314,315,316,317,318,319,320,321,322,323,324,325,326,327,328,329,330,331,332,333,334,335,336,337,338,339,340,341,342,343,344,345,346,347,348,349,350,351,352,353,354,355,356,357,358,359,360,361,362,363,364,365,366,367,368,369,370,371,372,373,374,375,376,377,378,379,380,381,382,383,384,385,386,387,388,389,390,391,392,393,394,395,396,397,398,399,400,401,402,403,404,405,406,407,408,409,410,411,412,413,414,415,416,417,418,419,420,421,422,423,424,425,426,427,428,429,430,431,432,433,434,435,436,437,438,439,440,441,442,443,444,445,446,447,448,449,450,451,452,453,454,455,456,457,458,459,460,461,462,463,464,465,466,467,468,469,470,471,472,473,474,475,476,477,478,479,480,481,482,483,484,485,486,487,488,489,490,491,492,493,494,495,496,497,498,499,500,501,502,503,504,505,506,507,508,509,510,511,512,513,514,515,516,517,518,519,520,521,522,523,524,525,526,527,528,529,530,531,532,533,534,535,536,537,538,539,540,541,542,543,544,545,546,547,548,549,550,551,552,553,554,555,556,557,558,559,560,561,562,563,564,565,566,567,568,569],"tree_info":[0,0,0,0,0,0,0,0,0,0,0,0,0,0,0,0,0,0,0,0,0,0,0,0,0,0,0,0,0,0,0,0,0,0,0,0,0,0,0,0,0,0,0,0,0,0,0,0,0,0,0,0,0,0,0,0,0,0,0,0,0,0,0,0,0,0,0,0,0,0,0,0,0,0,0,0,0,0,0,0,0,0,0,0,0,0,0,0,0,0,0,0,0,0,0,0,0,0,0,0,0,0,0,0,0,0,0,0,0,0,0,0,0,0,0,0,0,0,0,0,0,0,0,0,0,0,0,0,0,0,0,0,0,0,0,0,0,0,0,0,0,0,0,0,0,0,0,0,0,0,0,0,0,0,0,0,0,0,0,0,0,0,0,0,0,0,0,0,0,0,0,0,0,0,0,0,0,0,0,0,0,0,0,0,0,0,0,0,0,0,0,0,0,0,0,0,0,0,0,0,0,0,0,0,0,0,0,0,0,0,0,0,0,0,0,0,0,0,0,0,0,0,0,0,0,0,0,0,0,0,0,0,0,0,0,0,0,0,0,0,0,0,0,0,0,0,0,0,0,0,0,0,0,0,0,0,0,0,0,0,0,0,0,0,0,0,0,0,0,0,0,0,0,0,0,0,0,0,0,0,0,0,0,0,0,0,0,0,0,0,0,0,0,0,0,0,0,0,0,0,0,0,0,0,0,0,0,0,0,0,0,0,0,0,0,0,0,0,0,0,0,0,0,0,0,0,0,0,0,0,0,0,0,0,0,0,0,0,0,0,0,0,0,0,0,0,0,0,0,0,0,0,0,0,0,0,0,0,0,0,0,0,0,0,0,0,0,0,0,0,0,0,0,0,0,0,0,0,0,0,0,0,0,0,0,0,0,0,0,0,0,0,0,0,0,0,0,0,0,0,0,0,0,0,0,0,0,0,0,0,0,0,0,0,0,0,0,0,0,0,0,0,0,0,0,0,0,0,0,0,0,0,0,0,0,0,0,0,0,0,0,0,0,0,0,0,0,0,0,0,0,0,0,0,0,0,0,0,0,0,0,0,0,0,0,0,0,0,0,0,0,0,0,0,0,0,0,0,0,0,0,0,0,0,0,0,0,0,0,0,0,0,0,0,0,0,0,0,0,0,0,0,0,0,0,0,0,0,0,0,0,0,0,0,0,0,0,0,0,0,0,0,0,0,0,0,0,0,0,0,0,0,0,0,0,0,0,0,0,0,0,0,0,0,0,0,0,0,0,0,0,0,0,0,0,0,0,0,0,0,0,0,0,0,0,0,0,0,0],"trees":[{"base_weights":[-1.0014683E-3,9.033458E-3,-1.4686512E-2,3.801834E-2,-2.0927209E-1,-2.458582E-3,1.0518115E-3,-3.7112471E-3,-1.03319195E-4],"categories":[],"categories_nodes":[],"categories_segments":[],"categories_sizes":[],"default_left":[0,0,0,0,0,0,0,0,0],"id":0,"left_children":[1,-1,3,5,7,-1,-1,-1,-1],"loss_changes":[1.8244148E1,0E0,1.5361307E1,2.2297892E1,1.0087697E1,0E0,0E0,0E0,0E0],"parents":[2147483647,0,0,2,2,3,3,4,4],"right_children":[2,-1,4,6,8,-1,-1,-1,-1],"split_conditions":[9.3790895E-1,9.033458E-3,1.0235151E0,-8.506915E-3,8.211529E-3,-2.458582E-3,1.0518115E-3,-3.7112471E-3,-1.03319195E-4],"split_indices":[22,0,22,20,12,0,0,0,0],"split_type":[0,0,0,0,0,0,0,0,0],"sum_hessian":[1.5059102E3,1.9965664E1,1.4859445E3,1.1684905E3,3.1745404E2,2.2111972E2,9.473707E2,1.7270299E2,1.4475105E2],"tree_param":{"num_deleted":"0","num_feature":"23","num_nodes":"9","size_leaf_vector":"1"}},{"base_weights":[1.3230266E-2,1.1553446E-1,-6.991579E-2,-4.2543385E-2,2.8212366E-1,-2.5394455E-1,1.1346782E-1,-3.6635976E-3,2.2397845E-3,1.0328592E-2,1.8690466E-3,-2.9512548E-3,2.6233585E-3,-1.0012807E-2,1.7003854E-3],"categories":[],"categories_nodes":[],"categories_segments":[],"categories_sizes":[],"default_left":[0,0,0,0,0,0,0,0,0,0,0,0,0,0,0],"id":1,"left_children":[1,3,5,7,9,11,13,-1,-1,-1,-1,-1,-1,-1,-1],"loss_changes":[1.2876165E1,1.8052994E1,2.8175121E1,3.0368465E1,2.2803034E1,9.032576E0,2.617717E1,0E0,0E0,0E0,0E0,0E0,0E0,0E0,0E0],"parents":[2147483647,0,0,1,1,2,2,3,3,4,4,5,5,6,6],"right_children":[2,4,6,8,10,12,14,-1,-1,-1,-1,-1,-1,-1,-1],"split_conditions":[1.665978E-3,-1.07328845E-2,2.7500086E-3,-7.6289224E-3,-9.149272E-3,3.777669E-2,2.86338E-3,-3.6635976E-3,2.2397845E-3,1.0328592E-2,1.8690466E-3,-2.9512548E-3,2.6233585E-3,-1.0012807E-2,1.7003854E-3],"split_indices":[21,21,20,20,21,21,21,0,0,0,0,0,0,0,0],"split_type":[0,0,0,0,0,0,0,0,0,0,0,0,0,0,0],"sum_hessian":[1.5071597E3,6.780773E2,8.290824E2,3.4715085E2,3.3092642E2,4.1479007E2,4.1429236E2,1.57238E2,1.8991284E2,3.4440624E1,2.964858E2,3.8583893E2,2.8951128E1,1.7968962E1,3.963234E2],"tree_param":{"num_deleted":"0","num_feature":"23","num_nodes":"15","size_leaf_vector":"1"}},{"base_weights":[1.37324575E-2,7.309343E-2,-2.0382471E-1,-1.8337089E-1,1.3660273E-1,-2.92676E-1,1.4009577E-1,-3.4844782E-4,-4.983566E-3,3.748516E-3,7.327425E-4,-3.7224584E-3,1.4739177E-3,5.5650137E-3,-2.884758E-3],"categories":[],"categories_nodes":[],"categories_segments":[],"categories_sizes":[],"default_left":[0,0,0,0,0,0,0,0,0,0,0,0,0,0,0],"id":2,"left_children":[1,3,5,7,9,11,13,-1,-1,-1,-1,-1,-1,-1,-1],"loss_changes":[1.931877E1,1.925752E1,9.936172E0,1.062903E1,1.4040155E1,9.18939E0,1.221406E1,0E0,0E0,0E0,0E0,0E0,0E0,0E0,0E0],"parents":[2147483647,0,0,1,1,2,2,3,3,4,4,5,5,6,6],"right_children":[2,4,6,8,10,12,14,-1,-1,-1,-1,-1,-1,-1,-1],"split_conditions":[1.0235151E0,-8.257137E-3,1.0627596E-2,-1.1648865E-2,-3.0702723E-3,3.9250933E-2,1.0370067E0,-3.4844782E-4,-4.983566E-3,3.748516E-3,7.327425E-4,-3.7224584E-3,1.4739177E-3,5.5650137E-3,-2.884758E-3],"split_indices":[22,20,20,20,20,21,22,0,0,0,0,0,0,0,0],"split_type":[0,0,0,0,0,0,0,0,0,0,0,0,0,0,0],"sum_hessian":[1.4966628E3,1.1786829E3,3.1797998E2,2.316366E2,9.4704626E2,2.5408849E2,6.389151E1,1.5999997E2,7.163661E1,1.9514711E2,7.518992E2,2.1640427E2,3.768422E1,3.269464E1,3.1196869E1],"tree_param":{"num_deleted":"0","num_feature":"23","num_nodes":"15","size_leaf_vector":"1"}},{"base_weights":[-7.3930626E-3,8.138503E-3,-1.9396005E-2,-6.6293246E-1,-5.52254E-3,-2.6934072E-3,-1.1543449E-2,2.5171085E-4,-2.69487E-3],"categories":[],"categories_nodes":[],"categories_segments":[],"categories_sizes":[],"default_left":[0,0,0,0,0,0,0,0,0],"id":3,"left_children":[1,-1,3,5,7,-1,-1,-1,-1],"loss_changes":[1.4527562E1,0E0,1.2976162E1,4.6045055E0,1.1988699E1,0E0,0E0,0E0,0E0],"parents":[2147483647,0,0,2,2,3,3,4,4],"right_children":[2,-1,4,6,8,-1,-1,-1,-1],"split_conditions":[9.3790895E-1,8.138503E-3,9.505791E-1,-2.9387674E-3,1.030894E0,-2.6934072E-3,-1.1543449E-2,2.5171085E-4,-2.69487E-3],"split_indices":[22,0,22,0,22,0,0,0,0],"split_type":[0,0,0,0,0,0,0,0,0],"sum_hessian":[1.5088763E3,1.921072E1,1.4896656E3,2.8701586E1,1.460964E3,1.8221184E1,1.0480403E1,1.3087039E3,1.5226018E2],"tree_param":{"num_deleted":"0","num_feature":"23","num_nodes":"9","size_leaf_vector":"1"}},{"base_weights":[1.8605765E-2,8.112993E-3,6.504384E-3,9.694495E-2,-7.745581E-2,1.9400155E-3,-1.4644704E-3,-4.763004E-3,-2.2737803E-4],"categories":[],"categories_nodes":[],"categories_segments":[],"categories_sizes":[],"default_left":[0,0,0,0,0,0,0,0,0],"id":4,"left_children":[1,-1,3,5,7,-1,-1,-1,-1],"loss_changes":[1.4150535E1,0E0,1.1404723E1,1.7212873E1,1.6651573E1,0E0,0E0,0E0,0E0],"parents":[2147483647,0,0,2,2,3,3,4,4],"right_children":[2,-1,4,6,8,-1,-1,-1,-1],"split_conditions":[9.3790895E-1,8.112993E-3,4.6072088E-4,1.0177526E0,1.8499891E1,1.9400155E-3,-1.4644704E-3,-4.763004E-3,-2.2737803E-4],"split_indices":[22,0,12,22,6,0,0,0,0],"split_type":[0,0,0,0,0,0,0,0,0],"sum_hessian":[1.5168644E3,2.020112E1,1.4966632E3,7.232432E2,7.7342004E2,5.1881665E2,2.044266E2,9.034439E1,6.830756E2],"tree_param":{"num_deleted":"0","num_feature":"23","num_nodes":"9","size_leaf_vector":"1"}},{"base_weights":[5.368334E-3,7.193729E-2,-1.349437E-1,8.216584E-3,5.610735E-2,-6.1812735E-1,-9.601071E-2,-5.0569503E-3,7.6516304E-4,-1.0008088E-2,-7.363387E-4,-5.127958E-4,-5.4434356E-3],"categories":[],"categories_nodes":[],"categories_segments":[],"categories_sizes":[],"default_left":[0,0,0,0,0,0,0,0,0,0,0,0,0],"id":5,"left_children":[1,3,5,-1,7,9,11,-1,-1,-1,-1,-1,-1],"loss_changes":[1.4253828E1,1.1806888E1,8.737008E0,0E0,1.1568228E1,6.648449E0,8.802036E0,0E0,0E0,0E0,0E0,0E0,0E0],"parents":[2147483647,0,0,1,1,2,2,4,4,5,5,6,6],"right_children":[2,4,6,-1,8,10,12,-1,-1,-1,-1,-1,-1],"split_conditions":[1.0179092E0,9.3790895E-1,1.0188353E0,8.216584E-3,-4.989012E-2,2.1914016E-1,1.0449742E0,-5.0569503E-3,7.6516304E-4,-1.0008088E-2,-7.363387E-4,-5.127958E-4,-5.4434356E-3],"split_indices":[22,22,22,0,10,5,22,0,0,0,0,0,0],"split_type":[0,0,0,0,0,0,0,0,0,0,0,0,0],"sum_hessian":[1.5253304E3,1.0375964E3,4.877341E2,1.8696901E1,1.0188995E3,3.3192883E1,4.545412E2,3.3190872E1,9.857086E2,1.7969292E1,1.5223593E1,4.1634552E2,3.8195683E1],"tree_param":{"num_deleted":"0","num_feature":"23","num_nodes":"13","size_leaf_vector":"1"}},{"base_weights":[-4.932381E-3,3.0134348E-2,-2.8009868E-1,-1.9346091E-1,7.603634E-2,-5.86968E-1,-1.7595625E-1,-2.3287522E-4,-5.8548534E-3,-1.0609058E-4,2.2595678E-3,-9.693373E-4,-8.111102E-3,2.0841009E-3,-2.738808E-3],"categories":[],"categories_nodes":[],"categories_segments":[],"categories_sizes":[],"default_left":[0,0,0,0,0,0,0,0,0,0,0,0,0,0,0],"id":6,"left_children":[1,3,5,7,9,11,13,-1,-1,-1,-1,-1,-1,-1,-1],"loss_changes":[1.4650499E1,1.3660617E1,4.901251E0,1.4738352E1,1.4530655E1,3.941389E0,5.127105E0,0E0,0E0,0E0,0E0,0E0,0E0,0E0,0E0],"parents":[2147483647,0,0,1,1,2,2,3,3,4,4,5,5,6,6],"right_children":[2,4,6,8,10,12,14,-1,-1,-1,-1,-1,-1,-1,-1],"split_conditions":[1.0305394E0,-8.506915E-3,-5.8307784E-4,-1.1648865E-2,9.9484867E-1,-6.475049E-3,-1.0658836E-2,-2.3287522E-4,-5.8548534E-3,-1.0609058E-4,2.2595678E-3,-9.693373E-4,-8.111102E-3,2.0841009E-3,-2.738808E-3],"split_indices":[22,20,20,20,9,20,10,0,0,0,0,0,0,0,0],"split_type":[0,0,0,0,0,0,0,0,0,0,0,0,0,0,0],"sum_hessian":[1.5016129E3,1.3318484E3,1.6976463E2,2.2389606E2,1.1079523E3,3.944911E1,1.3031552E2,1.584911E2,6.540496E1,7.012142E2,4.067381E2,1.3980246E1,2.5468863E1,2.4964428E1,1.053511E2],"tree_param":{"num_deleted":"0","num_feature":"23","num_nodes":"15","size_leaf_vector":"1"}},{"base_weights":[6.51131E-3,5.6799598E-2,-1.7866448E-1,-1.2756461E-1,1.1046763E-1,-3.5993442E-1,5.455168E-2,-3.8203287E-3,2.601412E-3,5.147125E-3,7.4426935E-4,-4.102276E-3,2.3065298E-3,1.6623953E-3,-6.1413143E-3],"categories":[],"categories_nodes":[],"categories_segments":[],"categories_sizes":[],"default_left":[0,0,0,0,0,0,0,0,0,0,0,0,0,0,0],"id":7,"left_children":[1,3,5,7,9,11,13,-1,-1,-1,-1,-1,-1,-1,-1],"loss_changes":[1.4214574E1,1.196738E1,1.3943894E1,2.7004257E1,1.330115E1,5.7592087E0,1.0644674E1,0E0,0E0,0E0,0E0,0E0,0E0,0E0,0E0],"parents":[2147483647,0,0,1,1,2,2,3,3,4,4,5,5,6,6],"right_children":[2,4,6,8,10,12,14,-1,-1,-1,-1,-1,-1,-1,-1],"split_conditions":[1.0235151E0,-7.6289224E-3,1.0148795E0,-1.1533013E-2,9.680832E-1,3.9858785E-2,4.6584498E-2,-3.8203287E-3,2.601412E-3,5.147125E-3,7.4426935E-4,-4.102276E-3,2.3065298E-3,1.6623953E-3,-6.1413143E-3],"split_indices":[22,20,2,21,22,21,21,0,0,0,0,0,0,0,0],"split_type":[0,0,0,0,0,0,0,0,0,0,0,0,0,0,0],"sum_hessian":[1.5288146E3,1.2055181E3,3.232965E2,2.6908115E2,9.364369E2,1.8250198E2,1.4079453E2,1.6325117E2,1.0582997E2,7.334441E1,8.6309247E2,1.6952313E2,1.2978853E1,1.2257223E2,1.8222296E1],"tree_param":{"num_deleted":"0","num_feature":"23","num_nodes":"15","size_leaf_vector":"1"}},{"base_weights":[-5.995976E-3,5.0319687E-2,-2.3586468E-1,-1.4944628E-1,9.878567E-2,-1.0846615E-2,-1.8885006E-1,2.9247766E-4,-5.4805325E-3,3.4458674E-3,3.4564428E-4,-4.0649105E-5,-3.1482924E-3],"categories":[],"categories_nodes":[],"categories_segments":[],"categories_sizes":[],"default_left":[0,0,0,0,0,0,0,0,0,0,0,0,0],"id":8,"left_children":[1,3,5,7,9,-1,11,-1,-1,-1,-1,-1,-1],"loss_changes":[1.9671314E1,1.1750507E1,1.0899498E1,1.7077095E1,1.5249773E1,0E0,6.5102844E0,0E0,0E0,0E0,0E0,0E0,0E0],"parents":[2147483647,0,0,1,1,2,2,3,3,4,4,6,6],"right_children":[2,4,6,8,10,-1,12,-1,-1,-1,-1,-1,-1],"split_conditions":[1.0247395E0,-8.257137E-3,1.0250645E0,-1.1648865E-2,-3.0702723E-3,-1.0846615E-2,1.0305394E0,2.9247766E-4,-5.4805325E-3,3.4458674E-3,3.4564428E-4,-4.0649105E-5,-3.1482924E-3],"split_indices":[22,20,22,20,20,0,22,0,0,0,0,0,0],"split_type":[0,0,0,0,0,0,0,0,0,0,0,0,0],"sum_hessian":[1.5085824E3,1.2112296E3,2.9735278E2,2.3365834E2,9.775712E2,1.2731068E1,2.846217E2,1.6174675E2,7.19116E1,1.9908278E2,7.7848846E2,1.1782724E2,1.6679448E2],"tree_param":{"num_deleted":"0","num_feature":"23","num_nodes":"13","size_leaf_vector":"1"}},{"base_weights":[1.3042726E-2,7.2585925E-2,-1.9869149E-1,-1.2653976E-2,2.1574445E-1,-3.239556E-1,-2.0031162E-2,7.5541437E-3,-3.1328123E-4,2.6101666E-3,-6.637452E-4,-4.7574457E-4,-5.0422344E-3,1.8691631E-3,-2.247507E-3],"categories":[],"categories_nodes":[],"categories_segments":[],"categories_sizes":[],"default_left":[0,0,0,0,0,0,0,0,0,0,0,0,0,0,0],"id":9,"left_children":[1,3,5,7,9,11,13,-1,-1,-1,-1,-1,-1,-1,-1],"loss_changes":[1.8928316E1,1.44728985E1,7.1740847E0,1.0264677E1,5.7729435E0,9.218266E0,6.00475E0,0E0,0E0,0E0,0E0,0E0,0E0,0E0,0E0],"parents":[2147483647,0,0,1,1,2,2,3,3,4,4,5,5,6,6],"right_children":[2,4,6,8,10,12,14,-1,-1,-1,-1,-1,-1,-1,-1],"split_conditions":[1.0232576E0,2.4276222E-1,1.0167615E0,9.3790895E-1,2.1525363E-2,6.654149E-3,6.0994537E1,7.5541437E-3,-3.1328123E-4,2.6101666E-3,-6.637452E-4,-4.7574457E-4,-5.0422344E-3,1.8691631E-3,-2.247507E-3],"split_indices":[22,15,2,22,12,1,13,0,0,0,0,0,0,0,0],"split_type":[0,0,0,0,0,0,0,0,0,0,0,0,0,0,0],"sum_hessian":[1.5020872E3,1.1752603E3,3.26827E2,7.3559845E2,4.3966174E2,1.895222E2,1.3730478E2,1.495177E1,7.2064667E2,3.805207E2,5.914105E1,7.690907E1,1.1261313E2,6.715276E1,7.0152016E1],"tree_param":{"num_deleted":"0","num_feature":"23","num_nodes":"15","size_leaf_vector":"1"}},{"base_weights":[-1.1234233E-2,9.823691E-2,-1.0016399E-1,-1.0121963E-1,2.9964852E-1,-3.7651235E-1,2.6144765E-2,-3.6242646E-3,1.010907E-3,1.1100055E-2,2.2382906E-3,-4.3053175E-3,5.020602E-3,-9.492362E-3,6.998297E-4],"categories":[],"categories_nodes":[],"categories_segments":[],"categories_sizes":[],"default_left":[0,0,0,0,0,0,0,0,0,0,0,0,0,0,0],"id":10,"left_children":[1,3,5,7,9,11,13,-1,-1,-1,-1,-1,-1,-1,-1],"loss_changes":[1.4777334E1,2.7393906E1,2.9511063E1,1.821671E1,1.9668287E1,1.2965469E1,2.4367205E1,0E0,0E0,0E0,0E0,0E0,0E0,0E0,0E0],"parents":[2147483647,0,0,1,1,2,2,3,3,4,4,5,5,6,6],"right_children":[2,4,6,8,10,12,14,-1,-1,-1,-1,-1,-1,-1,-1],"split_conditions":[1.665978E-3,-1.07328845E-2,-1.870928E-5,-7.6289224E-3,-9.730671E-3,4.2515224E-1,2.86338E-3,-3.6242646E-3,1.010907E-3,1.1100055E-2,2.2382906E-3,-4.3053175E-3,5.020602E-3,-9.492362E-3,6.998297E-4],"split_indices":[21,21,20,20,21,18,21,0,0,0,0,0,0,0,0],"split_type":[0,0,0,0,0,0,0,0,0,0,0,0,0,0,0],"sum_hessian":[1.5138011E3,6.759211E2,8.3788E2,3.388614E2,3.370597E2,2.62832E2,5.7504803E2,1.4828993E2,1.9057147E2,2.5939882E1,3.111198E2,2.4910472E2,1.3727283E1,2.246649E1,5.5258154E2],"tree_param":{"num_deleted":"0","num_feature":"23","num_nodes":"15","size_leaf_vector":"1"}},{"base_weights":[-8.900496E-3,7.847592E-3,-1.9895907E-2,-5.376496E-1,1.6604188E-3,-7.6070433E-3,-0E0,1.113289E-3,-7.9508923E-4],"categories":[],"categories_nodes":[],"categories_segments":[],"categories_sizes":[],"default_left":[0,0,0,0,0,0,0,0,0],"id":11,"left_children":[1,-1,3,5,7,-1,-1,-1,-1],"loss_changes":[1.2904885E1,0E0,1.7020634E1,7.387951E0,1.2869296E1,0E0,0E0,0E0,0E0],"parents":[2147483647,0,0,2,2,3,3,4,4],"right_children":[2,-1,4,6,8,-1,-1,-1,-1],"split_conditions":[9.3790895E-1,7.847592E-3,-1.773849E-2,-1.5465552E-2,1.665978E-3,-7.6070433E-3,-0E0,1.113289E-3,-7.9508923E-4],"split_indices":[22,0,20,21,21,0,0,0,0],"split_type":[0,0,0,0,0,0,0,0,0],"sum_hessian":[1.5170413E3,1.8185387E1,1.4988558E3,5.892277E1,1.4399331E3,4.120022E1,1.7722553E1,6.1475287E2,8.2518024E2],"tree_param":{"num_deleted":"0","num_feature":"23","num_nodes":"9","size_leaf_vector":"1"}},{"base_weights":[2.662411E-3,8.171764E-3,-8.40155E-3,-2.4452563E-1,3.290542E-2,-4.911332E-4,-6.55516E-3,2.5892663E-3,-1.9155086E-4],"categories":[],"categories_nodes":[],"categories_segments":[],"categories_sizes":[],"default_left":[0,0,0,0,0,0,0,0,0],"id":12,"left_children":[1,-1,3,5,7,-1,-1,-1,-1],"loss_changes":[1.4066847E1,0E0,1.4709582E1,1.7631496E1,1.510774E1,0E0,0E0,0E0,0E0],"parents":[2147483647,0,0,2,2,3,3,4,4],"right_children":[2,-1,4,6,8,-1,-1,-1,-1],"split_conditions":[9.3790895E-1,8.171764E-3,-8.506915E-3,-1.1648865E-2,-3.0702723E-3,-4.911332E-4,-6.55516E-3,2.5892663E-3,-1.9155086E-4],"split_indices":[22,0,20,20,20,0,0,0,0],"split_type":[0,0,0,0,0,0,0,0,0],"sum_hessian":[1.5125479E3,1.8923164E1,1.4936248E3,2.2272444E2,1.2709003E3,1.5329387E2,6.943057E1,2.3823924E2,1.032661E3],"tree_param":{"num_deleted":"0","num_feature":"23","num_nodes":"9","size_leaf_vector":"1"}},{"base_weights":[-4.2873663E-3,1.0510869E-1,-7.120231E-2,1.935487E-1,-1.4866957E-1,-6.5241647E-1,-4.2979263E-2,-2.0493665E-3,2.3229858E-3,-2.988645E-3,2.8296246E-3,-4.3215505E-3,-8.823337E-3,1.1961244E-3,-1.0181159E-3],"categories":[],"categories_nodes":[],"categories_segments":[],"categories_sizes":[],"default_left":[0,0,0,0,0,0,0,0,0,0,0,0,0,0,0],"id":13,"left_children":[1,3,5,7,9,11,13,-1,-1,-1,-1,-1,-1,-1,-1],"loss_changes":[1.113027E1,1.2988506E1,1.5140509E1,6.73065E0,9.791497E0,7.538204E-1,8.688532E0,0E0,0E0,0E0,0E0,0E0,0E0,0E0,0E0],"parents":[2147483647,0,0,1,1,2,2,3,3,4,4,5,5,6,6],"right_children":[2,4,6,8,10,12,14,-1,-1,-1,-1,-1,-1,-1,-1],"split_conditions":[-4.472432E-3,1.0177526E0,-3.234938E-3,6.46178E-1,2.0040067E-2,4.1132845E-2,-9.841461E-3,-2.0493665E-3,2.3229858E-3,-2.988645E-3,2.8296246E-3,-4.3215505E-3,-8.823337E-3,1.1961244E-3,-1.0181159E-3],"split_indices":[12,22,12,9,11,18,11,0,0,0,0,0,0,0,0],"split_type":[0,0,0,0,0,0,0,0,0,0,0,0,0,0,0],"sum_hessian":[1.5187518E3,5.731396E2,9.456123E2,4.2683527E2,1.463043E2,4.092247E1,9.046898E2,3.5924473E1,3.909108E2,1.09852516E2,3.6451782E1,2.4952152E1,1.5970318E1,2.3756886E2,6.67121E2],"tree_param":{"num_deleted":"0","num_feature":"23","num_nodes":"15","size_leaf_vector":"1"}},{"base_weights":[-9.258436E-3,8.576254E-3,-2.2224063E-2,-1.00959195E-2,-6.263648E-1,-3.4179825E-3,1.0278209E-4,-1.0352684E-2,-2.2821254E-3],"categories":[],"categories_nodes":[],"categories_segments":[],"categories_sizes":[],"default_left":[0,0,0,0,0,0,0,0,0],"id":14,"left_children":[1,-1,3,5,7,-1,-1,-1,-1],"loss_changes":[1.6724594E1,0E0,1.0673394E1,1.01420355E1,3.5702848E0,0E0,0E0,0E0,0E0],"parents":[2147483647,0,0,2,2,3,3,4,4],"right_children":[2,-1,4,6,8,-1,-1,-1,-1],"split_conditions":[9.3790895E-1,8.576254E-3,4.939319E-2,-3.650313E-2,1.030894E0,-3.4179825E-3,1.0278209E-4,-1.0352684E-2,-2.2821254E-3],"split_indices":[22,0,21,10,22,0,0,0,0],"split_type":[0,0,0,0,0,0,0,0,0],"sum_hessian":[1.5197654E3,1.9907257E1,1.4998582E3,1.4731458E3,2.6712399E1,8.484297E1,1.3883027E3,1.0979871E1,1.5732528E1],"tree_param":{"num_deleted":"0","num_feature":"23","num_nodes":"9","size_leaf_vector":"1"}},{"base_weights":[3.458322E-3,-4.3250358E-1,2.4664752E-2,4.21284E-3,-7.817031E-1,4.312949E-2,-2.1414699E-1,-1.3374755E-2,-4.7934623E-3,3.5954546E-4,7.0929676E-3,-2.9564062E-3,2.7529416E-3],"categories":[],"categories_nodes":[],"categories_segments":[],"categories_sizes":[],"default_left":[0,0,0,0,0,0,0,0,0,0,0,0,0],"id":15,"left_children":[1,3,5,-1,7,9,11,-1,-1,-1,-1,-1,-1],"loss_changes":[1.3796425E1,2.1455963E1,6.30429E0,0E0,6.2441673E0,6.0040636E0,4.2449746E0,0E0,0E0,0E0,0E0,0E0,0E0],"parents":[2147483647,0,0,1,1,2,2,4,4,5,5,6,6],"right_children":[2,4,6,-1,8,10,12,-1,-1,-1,-1,-1,-1],"split_conditions":[-1.773849E-2,9.591446E-1,7.190153E1,4.21284E-3,-2.3504816E-2,7.357855E1,3.1915026E0,-1.3374755E-2,-4.7934623E-3,3.5954546E-4,7.0929676E-3,-2.9564062E-3,2.7529416E-3],"split_indices":[20,22,13,0,20,4,5,0,0,0,0,0,0],"split_type":[0,0,0,0,0,0,0,0,0,0,0,0,0],"sum_hessian":[1.5100297E3,6.715195E1,1.4428777E3,1.8957193E1,4.8194756E1,1.342787E3,1.0009072E2,1.3985978E1,3.420878E1,1.3313066E3,1.1480308E1,8.73587E1,1.2732024E1],"tree_param":{"num_deleted":"0","num_feature":"23","num_nodes":"13","size_leaf_vector":"1"}},{"base_weights":[1.2938272E-2,1.4449167E-1,-9.275026E-2,-3.2430965E-2,3.3187386E-1,-7.3926395E-1,-5.62561E-2,-3.174417E-3,1.8054387E-3,9.5573375E-3,2.4980449E-3,-1.1903335E-2,4.980475E-4,-2.0241365E-3,8.960284E-4],"categories":[],"categories_nodes":[],"categories_segments":[],"categories_sizes":[],"default_left":[0,0,0,0,0,0,0,0,0,0,0,0,0,0,0],"id":16,"left_children":[1,3,5,7,9,11,13,-1,-1,-1,-1,-1,-1,-1,-1],"loss_changes":[2.0766365E1,2.2269728E1,1.898931E1,2.1021864E1,1.5573509E1,1.6063387E1,1.680683E1,0E0,0E0,0E0,0E0,0E0,0E0,0E0,0E0],"parents":[2147483647,0,0,1,1,2,2,3,3,4,4,5,5,6,6],"right_children":[2,4,6,8,10,12,14,-1,-1,-1,-1,-1,-1,-1,-1],"split_conditions":[1.665978E-3,-1.07328845E-2,3.0327628E-3,-8.04483E-3,-9.149272E-3,2.4958414E-1,2.7500086E-3,-3.174417E-3,1.8054387E-3,9.5573375E-3,2.4980449E-3,-1.1903335E-2,4.980475E-4,-2.0241365E-3,8.960284E-4],"split_indices":[21,21,21,20,21,15,20,0,0,0,0,0,0,0,0],"split_type":[0,0,0,0,0,0,0,0,0,0,0,0,0,0,0],"sum_hessian":[1.4877986E3,6.6457745E2,8.232211E2,3.4130728E2,3.232702E2,4.1196045E1,7.820251E2,1.4655229E2,1.9475499E2,3.4399E1,2.8887122E2,2.5968054E1,1.5227989E1,3.919376E2,3.9008746E2],"tree_param":{"num_deleted":"0","num_feature":"23","num_nodes":"15","size_leaf_vector":"1"}},{"base_weights":[-1.2555165E-2,7.6639876E-3,-2.4019161E-2,8.566409E-2,-8.7858E-2,1.7765036E-3,-1.3888899E-3,-2.6944126E-3,-4.28866E-4],"categories":[],"categories_nodes":[],"categories_segments":[],"categories_sizes":[],"default_left":[0,0,0,0,0,0,0,0,0],"id":17,"left_children":[1,-1,3,5,7,-1,-1,-1,-1],"loss_changes":[1.3038333E1,0E0,1.0367761E1,1.1264654E1,7.4832997E0,0E0,0E0,0E0,0E0],"parents":[2147483647,0,0,2,2,3,3,4,4],"right_children":[2,-1,4,6,8,-1,-1,-1,-1],"split_conditions":[9.3790895E-1,7.6639876E-3,2.4974316E-2,1.0200822E0,-1.5039113E-1,1.7765036E-3,-1.3888899E-3,-2.6944126E-3,-4.28866E-4],"split_indices":[22,0,8,22,18,0,0,0,0],"split_type":[0,0,0,0,0,0,0,0,0],"sum_hessian":[1.4955161E3,1.9147743E1,1.4763683E3,5.4002344E2,9.363449E2,3.8496866E2,1.5505475E2,1.8167712E2,7.546678E2],"tree_param":{"num_deleted":"0","num_feature":"23","num_nodes":"9","size_leaf_vector":"1"}},{"base_weights":[-7.167498E-3,9.181929E-3,-1.9999886E-2,-8.873334E-3,-9.635923E-3,3.1733114E-4,-1.6074373E-3],"categories":[],"categories_nodes":[],"categories_segments":[],"categories_sizes":[],"default_left":[0,0,0,0,0,0,0],"id":18,"left_children":[1,-1,3,-1,5,-1,-1],"loss_changes":[1.7719767E1,0E0,1.3095015E1,0E0,9.409934E0,0E0,0E0],"parents":[2147483647,0,0,2,2,4,4],"right_children":[2,-1,4,-1,6,-1,-1],"split_conditions":[9.3790895E-1,9.181929E-3,-6.647449E-2,-8.873334E-3,1.0235151E0,3.1733114E-4,-1.6074373E-3],"split_indices":[22,0,12,0,22,0,0],"split_type":[0,0,0,0,0,0,0],"sum_hessian":[1.5249705E3,1.8395252E1,1.5065752E3,1.5221817E1,1.4913534E3,1.1694596E3,3.218938E2],"tree_param":{"num_deleted":"0","num_feature":"23","num_nodes":"7","size_leaf_vector":"1"}},{"base_weights":[8.409071E-3,-2.1196805E-1,4.8965063E-2,-0E0,-6.7057633E-1,2.2273819E-1,-6.0759827E-2,-1.9526836E-3,5.64055E-3,-1.5184882E-3,-8.960077E-3,2.7419415E-3,-3.9316593E-3,-1.0299605E-2,-1.547154E-4],"categories":[],"categories_nodes":[],"categories_segments":[],"categories_sizes":[],"default_left":[0,0,0,0,0,0,0,0,0,0,0,0,0,0,0],"id":19,"left_children":[1,3,5,7,9,11,13,-1,-1,-1,-1,-1,-1,-1,-1],"loss_changes":[1.3437024E1,2.276958E1,2.449568E1,1.8036667E1,7.8498E0,1.5914249E1,3.384929E1,0E0,0E0,0E0,0E0,0E0,0E0,0E0,0E0],"parents":[2147483647,0,0,1,1,2,2,3,3,4,4,5,5,6,6],"right_children":[2,4,6,8,10,12,14,-1,-1,-1,-1,-1,-1,-1,-1],"split_conditions":[-8.506915E-3,-1.1648865E-2,1.665978E-3,-1.3778579E-2,9.052545E-1,1.4534815E-2,2.86338E-3,-1.9526836E-3,5.64055E-3,-1.5184882E-3,-8.960077E-3,2.7419415E-3,-3.9316593E-3,-1.0299605E-2,-1.547154E-4],"split_indices":[20,20,21,20,9,20,21,0,0,0,0,0,0,0,0],"split_type":[0,0,0,0,0,0,0,0,0,0,0,0,0,0,0],"sum_hessian":[1.5082207E3,2.3118784E2,1.2770328E3,1.5925223E2,7.193561E1,4.952284E2,7.818045E2,1.1907114E2,4.0181095E1,2.3477652E1,4.845796E1,4.5881772E2,3.641067E1,3.246683E1,7.4933765E2],"tree_param":{"num_deleted":"0","num_feature":"23","num_nodes":"15","size_leaf_vector":"1"}},{"base_weights":[7.91539E-3,1.3868621E-1,-9.611406E-2,1.7787872E-1,-5.9253055E-1,-3.4978777E-1,2.279751E-2,2.375717E-4,3.5353424E-3,-1.4951729E-3,-1.0407679E-2,-4.01494E-3,4.123759E-3,-7.6044844E-3,5.743458E-4],"categories":[],"categories_nodes":[],"categories_segments":[],"categories_sizes":[],"default_left":[0,0,0,0,0,0,0,0,0,0,0,0,0,0,0],"id":20,"left_children":[1,3,5,7,9,11,13,-1,-1,-1,-1,-1,-1,-1,-1],"loss_changes":[2.0558792E1,1.9231548E1,2.5480442E1,1.7093739E1,5.834318E0,1.0932793E1,1.524308E1,0E0,0E0,0E0,0E0,0E0,0E0,0E0,0E0],"parents":[2147483647,0,0,1,1,2,2,3,3,4,4,5,5,6,6],"right_children":[2,4,6,8,10,12,14,-1,-1,-1,-1,-1,-1,-1,-1],"split_conditions":[1.665978E-3,1.018346E0,-1.870928E-5,-1.07328845E-2,9.3165436E-4,4.2515224E-1,2.86338E-3,2.375717E-4,3.5353424E-3,-1.4951729E-3,-1.0407679E-2,-4.01494E-3,4.123759E-3,-7.6044844E-3,5.743458E-4],"split_indices":[21,22,20,21,10,18,21,0,0,0,0,0,0,0,0],"split_type":[0,0,0,0,0,0,0,0,0,0,0,0,0,0,0],"sum_hessian":[1.5057053E3,6.6894464E2,8.367607E2,6.369993E2,3.1945278E1,2.67157E2,5.696037E2,3.4202283E2,2.9497653E2,1.7968658E1,1.397662E1,2.5168484E2,1.5472175E1,2.1736336E1,5.478673E2],"tree_param":{"num_deleted":"0","num_feature":"23","num_nodes":"15","size_leaf_vector":"1"}},{"base_weights":[1.1758058E-3,3.2399386E-2,-2.71885E-1,-1.6201542E-1,7.240261E-2,1.8540117E-1,-3.7645674E-1,-7.18633E-6,-5.3997124E-3,2.8022814E-3,1.4844477E-4,-8.013167E-4,5.8075986E-3,-6.651842E-3,-2.3337803E-3],"categories":[],"categories_nodes":[],"categories_segments":[],"categories_sizes":[],"default_left":[0,0,0,0,0,0,0,0,0,0,0,0,0,0,0],"id":21,"left_children":[1,3,5,7,9,11,13,-1,-1,-1,-1,-1,-1,-1,-1],"loss_changes":[1.2862904E1,1.0618265E1,7.6284065E0,1.386871E1,1.345824E1,3.411519E0,4.502552E0,0E0,0E0,0E0,0E0,0E0,0E0,0E0,0E0],"parents":[2147483647,0,0,1,1,2,2,3,3,4,4,5,5,6,6],"right_children":[2,4,6,8,10,12,14,-1,-1,-1,-1,-1,-1,-1,-1],"split_conditions":[1.0313745E0,-8.506915E-3,6.654149E-3,-1.1648865E-2,9.915003E-1,6.518379E-3,8.0864215E-1,-7.18633E-6,-5.3997124E-3,2.8022814E-3,1.4844477E-4,-8.013167E-4,5.8075986E-3,-6.651842E-3,-2.3337803E-3],"split_indices":[22,20,1,20,22,10,9,0,0,0,0,0,0,0,0],"split_type":[0,0,0,0,0,0,0,0,0,0,0,0,0,0,0],"sum_hessian":[1.5186575E3,1.3660482E3,1.5260919E2,2.2994096E2,1.1361073E3,2.722565E1,1.25383545E2,1.6349457E2,6.6446396E1,2.4284416E2,8.932631E2,1.6484327E1,1.0741323E1,3.7969593E1,8.7413956E1],"tree_param":{"num_deleted":"0","num_feature":"23","num_nodes":"15","size_leaf_vector":"1"}},{"base_weights":[-1.3551487E-2,4.90433E-2,-1.3996156E-1,2.5329063E-2,6.0512835E-1,-1.6798793E-1,8.62096E-3,6.8497793E-3,1.09278E-4,9.02669E-3,-1.1886635E-3,-1.296267E-3,-7.074424E-3],"categories":[],"categories_nodes":[],"categories_segments":[],"categories_sizes":[],"default_left":[0,0,0,0,0,0,0,0,0,0,0,0,0],"id":22,"left_children":[1,3,5,7,9,11,-1,-1,-1,-1,-1,-1,-1],"loss_changes":[1.1963075E1,1.2907452E1,1.4023906E1,8.822067E0,9.256895E0,9.536455E0,0E0,0E0,0E0,0E0,0E0,0E0,0E0],"parents":[2147483647,0,0,1,1,2,2,3,3,4,4,5,5],"right_children":[2,4,6,8,10,12,-1,-1,-1,-1,-1,-1,-1],"split_conditions":[1.0179092E0,5.246628E-1,2.3907807E-2,9.3790895E-1,1.1475309E0,4.0594494E-1,8.62096E-3,6.8497793E-3,1.09278E-4,9.02669E-3,-1.1886635E-3,-1.296267E-3,-7.074424E-3],"split_indices":[22,15,20,22,9,14,0,0,0,0,0,0,0],"split_type":[0,0,0,0,0,0,0,0,0,0,0,0,0],"sum_hessian":[1.5024194E3,1.00302014E3,4.9939932E2,9.648638E2,3.8156364E1,4.8791656E2,1.1482765E1,1.7883097E1,9.469807E2,2.7182276E1,1.0974088E1,4.58705E2,2.9211578E1],"tree_param":{"num_deleted":"0","num_feature":"23","num_nodes":"13","size_leaf_vector":"1"}},{"base_weights":[-9.797502E-3,7.616037E-1,-2.1535657E-2,1.0884871E-2,2.6858728E-3,-5.0412273E-1,8.579108E-4,-2.578386E-3,-1.2565026E-2,5.3690927E-4,-1.95766E-3],"categories":[],"categories_nodes":[],"categories_segments":[],"categories_sizes":[],"default_left":[0,0,0,0,0,0,0,0,0,0,0],"id":23,"left_children":[1,3,5,-1,-1,7,9,-1,-1,-1,-1],"loss_changes":[1.3517588E1,2.3387575E0,1.6568161E1,0E0,0E0,1.1184872E1,1.4948605E1,0E0,0E0,0E0,0E0],"parents":[2147483647,0,0,1,1,2,2,5,5,6,6],"right_children":[2,4,6,-1,-1,8,10,-1,-1,-1,-1],"split_conditions":[9.3790895E-1,1.2520054E-1,-1.773849E-2,1.0884871E-2,2.6858728E-3,-1.9603165E-2,1.0247395E0,-2.578386E-3,-1.2565026E-2,5.3690927E-4,-1.95766E-3],"split_indices":[22,15,20,0,0,20,22,0,0,0,0],"split_type":[0,0,0,0,0,0,0,0,0,0,0],"sum_hessian":[1.5281031E3,2.035063E1,1.5077526E3,1.0174722E1,1.0175908E1,6.594411E1,1.4418083E3,5.2205204E1,1.3738906E1,1.1395951E3,3.0221335E2],"tree_param":{"num_deleted":"0","num_feature":"23","num_nodes":"11","size_leaf_vector":"1"}},{"base_weights":[9.686852E-3,1.2760937E-1,-8.68522E-2,1.5183945E-1,-6.6461507E-3,-8.62368E-1,-4.2258766E-2,2.0749893E-3,-2.6669628E-3,-2.1722259E-3,-1.02925645E-2,-3.7700366E-3,3.2319143E-4],"categories":[],"categories_nodes":[],"categories_segments":[],"categories_sizes":[],"default_left":[0,0,0,0,0,0,0,0,0,0,0,0,0],"id":24,"left_children":[1,3,5,7,-1,9,11,-1,-1,-1,-1,-1,-1],"loss_changes":[1.7174372E1,1.3009255E1,2.8051577E1,1.5516753E1,0E0,3.6905212E0,1.9771626E1,0E0,0E0,0E0,0E0,0E0,0E0],"parents":[2147483647,0,0,1,1,2,2,3,3,5,5,6,6],"right_children":[2,4,6,8,-1,10,12,-1,-1,-1,-1,-1,-1],"split_conditions":[1.665978E-3,1.8396E-2,3.0327628E-3,1.0134325E0,-6.6461507E-3,1.0076516E0,1.0053387E0,2.0749893E-3,-2.6669628E-3,-2.1722259E-3,-1.02925645E-2,-3.7700366E-3,3.2319143E-4],"split_indices":[21,20,21,22,0,22,22,0,0,0,0,0,0],"split_type":[0,0,0,0,0,0,0,0,0,0,0,0,0],"sum_hessian":[1.502887E3,6.785605E2,8.243265E2,6.6060376E2,1.7956675E1,4.2218765E1,7.8210767E2,5.850088E2,7.559502E1,1.0238546E1,3.1980219E1,1.4224251E2,6.398652E2],"tree_param":{"num_deleted":"0","num_feature":"23","num_nodes":"13","size_leaf_vector":"1"}},{"base_weights":[7.13171E-3,2.1302799E-2,-6.757846E-1,3.6021343E-3,5.391362E-1,-1.9416782E-3,-9.5804185E-3,6.8982644E-4,-1.7650148E-3,1.0309919E-2,1.7285813E-3],"categories":[],"categories_nodes":[],"categories_segments":[],"categories_sizes":[],"default_left":[0,0,0,0,0,0,0,0,0,0,0],"id":25,"left_children":[1,3,5,7,9,-1,-1,-1,-1,-1,-1],"loss_changes":[1.4281999E1,1.3277917E1,3.1261988E0,1.684114E1,7.6756763E0,0E0,0E0,0E0,0E0,0E0,0E0],"parents":[2147483647,0,0,1,1,2,2,3,3,4,4],"right_children":[2,4,6,8,10,-1,-1,-1,-1,-1,-1],"split_conditions":[4.939319E-2,3.9858785E-2,9.592378E-3,1.0198652E0,4.2219844E-2,-1.9416782E-3,-9.5804185E-3,6.8982644E-4,-1.7650148E-3,1.0309919E-2,1.7285813E-3],"split_indices":[21,21,20,22,21,0,0,0,0,0,0],"split_type":[0,0,0,0,0,0,0,0,0,0,0],"sum_hessian":[1.5046077E3,1.476636E3,2.7971676E1,1.4307107E3,4.5925312E1,1.2237697E1,1.5733978E1,1.0526073E3,3.781033E2,1.7470474E1,2.8454836E1],"tree_param":{"num_deleted":"0","num_feature":"23","num_nodes":"11","size_leaf_vector":"1"}},{"base_weights":[3.098761E-2,7.239841E-3,2.0893281E-2,-4.0128624E-1,4.0319465E-2,-1.7110565E-3,-1.0891246E-2,1.0658306E-3,-8.38065E-4],"categories":[],"categories_nodes":[],"categories_segments":[],"categories_sizes":[],"default_left":[0,0,0,0,0,0,0,0,0],"id":26,"left_children":[1,-1,3,5,7,-1,-1,-1,-1],"loss_changes":[1.0129438E1,0E0,1.2045199E1,9.20171E0,1.1744135E1,0E0,0E0,0E0,0E0],"parents":[2147483647,0,0,2,2,3,3,4,4],"right_children":[2,-1,4,6,8,-1,-1,-1,-1],"split_conditions":[9.3790895E-1,7.239841E-3,-1.773849E-2,-1.9603165E-2,1.0179092E0,-1.7110565E-3,-1.0891246E-2,1.0658306E-3,-8.38065E-4],"split_indices":[22,0,20,20,22,0,0,0,0],"split_type":[0,0,0,0,0,0,0,0,0],"sum_hessian":[1.5035936E3,1.884534E1,1.4847483E3,6.2452263E1,1.422296E3,4.9209167E1,1.3243093E1,9.3008746E2,4.922085E2],"tree_param":{"num_deleted":"0","num_feature":"23","num_nodes":"9","size_leaf_vector":"1"}},{"base_weights":[-1.997588E-2,2.3852725E-2,-1.9317773E-1,-1.970265E-1,7.843379E-2,-1.0079588E-2,-1.4906599E-1,-1.1052542E-4,-5.885889E-3,5.0315564E-3,4.4888313E-4,-2.6178511E-3,1.046521E-3],"categories":[],"categories_nodes":[],"categories_segments":[],"categories_sizes":[],"default_left":[0,0,0,0,0,0,0,0,0,0,0,0,0],"id":27,"left_children":[1,3,5,7,9,-1,11,-1,-1,-1,-1,-1,-1],"loss_changes":[1.165185E1,1.4614034E1,1.0262734E1,1.7121225E1,1.360261E1,0E0,8.627394E0,0E0,0E0,0E0,0E0,0E0,0E0],"parents":[2147483647,0,0,1,1,2,2,3,3,4,4,6,6],"right_children":[2,4,6,8,10,-1,12,-1,-1,-1,-1,-1,-1],"split_conditions":[1.0247395E0,-8.257137E-3,1.0250645E0,-1.1648865E-2,-2.8416172E-2,-1.0079588E-2,1.3409992E0,-1.1052542E-4,-5.885889E-3,5.0315564E-3,4.4888313E-4,-2.6178511E-3,1.046521E-3],"split_indices":[22,20,22,20,21,0,5,0,0,0,0,0,0],"split_type":[0,0,0,0,0,0,0,0,0,0,0,0,0],"sum_hessian":[1.5205497E3,1.212552E3,3.0799765E2,2.3741165E2,9.751403E2,1.2991864E1,2.950058E2,1.6322212E2,7.418954E1,6.824034E1,9.0689996E2,2.0558002E2,8.942577E1],"tree_param":{"num_deleted":"0","num_feature":"23","num_nodes":"13","size_leaf_vector":"1"}},{"base_weights":[1.3901877E-2,-7.304601E-2,1.14411145E-1,-3.3553587E-3,-3.5647124E-1,-3.3590257E-1,1.5907985E-1,9.863431E-4,-1.3113455E-3,-1.188097E-2,-2.266801E-3,-8.346014E-4,-8.5445335E-3,2.9405898E-3,1.7153192E-5],"categories":[],"categories_nodes":[],"categories_segments":[],"categories_sizes":[],"default_left":[0,0,0,0,0,0,0,0,0,0,0,0,0,0,0],"id":28,"left_children":[1,3,5,7,9,11,13,-1,-1,-1,-1,-1,-1,-1,-1],"loss_changes":[1.3163939E1,1.5696632E1,1.4101745E1,8.495916E0,1.5724415E1,7.6112237E0,1.3430967E1,0E0,0E0,0E0,0E0,0E0,0E0,0E0,0E0],"parents":[2147483647,0,0,1,1,2,2,3,3,4,4,5,5,6,6],"right_children":[2,4,6,8,10,12,14,-1,-1,-1,-1,-1,-1,-1,-1],"split_conditions":[1.2230999E-3,-8.225392E-4,9.801694E-1,3.1311924E-3,-5.8307784E-4,9.7423506E-1,1.0179092E0,9.863431E-4,-1.3113455E-3,-1.188097E-2,-2.266801E-3,-8.346014E-4,-8.5445335E-3,2.9405898E-3,1.7153192E-5],"split_indices":[20,20,22,11,20,22,22,0,0,0,0,0,0,0,0],"split_type":[0,0,0,0,0,0,0,0,0,0,0,0,0,0,0],"sum_hessian":[1.5000527E3,8.0191187E2,6.981408E2,6.466875E2,1.5522441E2,6.0815456E1,6.373254E2,3.577138E2,2.889737E2,1.8233652E1,1.3699075E2,4.311312E1,1.7702335E1,3.404179E2,2.9690744E2],"tree_param":{"num_deleted":"0","num_feature":"23","num_nodes":"15","size_leaf_vector":"1"}},{"base_weights":[1.0892436E-3,7.564455E-1,-1.0066667E-2,1.06812455E-2,2.8917547E-3,-2.3762664E-1,3.1528622E-2,-6.896092E-4,-6.2128785E-3,2.492112E-3,-1.8652643E-4],"categories":[],"categories_nodes":[],"categories_segments":[],"categories_sizes":[],"default_left":[0,0,0,0,0,0,0,0,0,0,0],"id":29,"left_children":[1,3,5,-1,-1,7,9,-1,-1,-1,-1],"loss_changes":[1.3058118E1,1.9893436E0,1.4154873E1,0E0,0E0,1.4534702E1,1.3819379E1,0E0,0E0,0E0,0E0],"parents":[2147483647,0,0,1,1,2,2,5,5,6,6],"right_children":[2,4,6,-1,-1,8,10,-1,-1,-1,-1],"split_conditions":[9.3790895E-1,9.271393E-2,-8.506915E-3,1.06812455E-2,2.8917547E-3,-1.1648865E-2,-3.0702723E-3,-6.896092E-4,-6.2128785E-3,2.492112E-3,-1.8652643E-4],"split_indices":[22,15,20,0,0,20,20,0,0,0,0],"split_type":[0,0,0,0,0,0,0,0,0,0,0],"sum_hessian":[1.5015206E3,2.0560991E1,1.4809597E3,1.014935E1,1.0411642E1,2.2926872E2,1.2516909E3,1.6180048E2,6.746824E1,2.3487073E2,1.01682025E3],"tree_param":{"num_deleted":"0","num_feature":"23","num_nodes":"11","size_leaf_vector":"1"}},{"base_weights":[-2.3540905E-2,8.146518E-2,-1.1049833E-1,-9.525322E-2,2.7055168E-1,-8.2859355E-1,-6.8997204E-2,7.2954065E-4,-3.560258E-3,1.1837602E-2,1.9518905E-3,-1.0949542E-2,-2.6794663E-3,-2.0978088E-3,5.6027324E-4],"categories":[],"categories_nodes":[],"categories_segments":[],"categories_sizes":[],"default_left":[0,0,0,0,0,0,0,0,0,0,0,0,0,0,0],"id":30,"left_children":[1,3,5,7,9,11,13,-1,-1,-1,-1,-1,-1,-1,-1],"loss_changes":[1.3972968E1,2.3199879E1,2.442797E1,1.584601E1,2.1923319E1,5.4482937E0,1.4104097E1,0E0,0E0,0E0,0E0,0E0,0E0,0E0,0E0],"parents":[2147483647,0,0,1,1,2,2,3,3,4,4,5,5,6,6],"right_children":[2,4,6,8,10,12,14,-1,-1,-1,-1,-1,-1,-1,-1],"split_conditions":[1.665978E-3,-1.07328845E-2,3.0327628E-3,-1.6884867E-3,-9.730671E-3,7.70148E-2,2.783956E-3,7.2954065E-4,-3.560258E-3,1.1837602E-2,1.9518905E-3,-1.0949542E-2,-2.6794663E-3,-2.0978088E-3,5.6027324E-4],"split_indices":[21,21,21,10,21,14,0,0,0,0,0,0,0,0,0],"split_type":[0,0,0,0,0,0,0,0,0,0,0,0,0,0,0],"sum_hessian":[1.5247067E3,6.881284E2,8.3657825E2,3.548434E2,3.33285E2,4.2976444E1,7.936018E2,2.1541588E2,1.3942755E2,2.265941E1,3.106256E2,2.7237957E1,1.5738488E1,3.7451883E2,4.1908298E2],"tree_param":{"num_deleted":"0","num_feature":"23","num_nodes":"15","size_leaf_vector":"1"}},{"base_weights":[1.354926E-2,8.310975E-3,1.408942E-3,-1.3456984E-1,5.8186967E-2,1.7221026E-4,-2.8702144E-3,1.2224936E-3,-1.155303E-3],"categories":[],"categories_nodes":[],"categories_segments":[],"categories_sizes":[],"default_left":[0,0,0,0,0,0,0,0,0],"id":31,"left_children":[1,-1,3,5,7,-1,-1,-1,-1],"loss_changes":[1.4449456E1,0E0,1.1393796E1,1.0177866E1,1.1684685E1,0E0,0E0,0E0,0E0],"parents":[2147483647,0,0,2,2,3,3,4,4],"right_children":[2,-1,4,6,8,-1,-1,-1,-1],"split_conditions":[9.3790895E-1,8.310975E-3,3.4032566E1,-4.6911733E-3,1.0247395E0,1.7221026E-4,-2.8702144E-3,1.2224936E-3,-1.155303E-3],"split_indices":[22,0,6,12,22,0,0,0,0],"split_type":[0,0,0,0,0,0,0,0,0],"sum_hessian":[1.495996E3,1.9313213E1,1.4766827E3,4.3156738E2,1.0451154E3,2.1549788E2,2.160695E2,7.6607697E2,2.790384E2],"tree_param":{"num_deleted":"0","num_feature":"23","num_nodes":"9","size_leaf_vector":"1"}},{"base_weights":[5.9723225E-3,1.9627085E-2,-6.557759E-1,-3.4868076E-1,3.789159E-2,-8.706547E-4,-9.308883E-3,-1.3491071E-3,-1.0623427E-2,2.6829755E-3,1.6219457E-4],"categories":[],"categories_nodes":[],"categories_segments":[],"categories_sizes":[],"default_left":[0,0,0,0,0,0,0,0,0,0,0],"id":32,"left_children":[1,3,5,7,9,-1,-1,-1,-1,-1,-1],"loss_changes":[1.3299665E1,9.80321E0,3.9802446E0,9.589783E0,6.888777E0,0E0,0E0,0E0,0E0,0E0,0E0],"parents":[2147483647,0,0,1,1,2,2,3,3,4,4],"right_children":[2,4,6,8,10,-1,-1,-1,-1,-1,-1],"split_conditions":[4.939319E-2,-1.773849E-2,9.592378E-3,-1.9603165E-2,-2.8416172E-2,-8.706547E-4,-9.308883E-3,-1.3491071E-3,-1.0623427E-2,2.6829755E-3,1.6219457E-4],"split_indices":[21,20,20,20,21,0,0,0,0,0,0],"split_type":[0,0,0,0,0,0,0,0,0,0,0],"sum_hessian":[1.5022026E3,1.474474E3,2.77286E1,6.666204E1,1.407812E3,1.0491347E1,1.7237251E1,5.366572E1,1.2996318E1,1.17094795E2,1.2907172E3],"tree_param":{"num_deleted":"0","num_feature":"23","num_nodes":"11","size_leaf_vector":"1"}},{"base_weights":[3.0292121E-3,1.0761431E-1,-8.0436036E-2,-1.345078E-1,2.2539148E-1,-2.616054E-1,1.05010815E-1,-3.430982E-3,4.2013247E-3,2.933049E-3,-2.6084983E-3,-4.9168156E-3,-8.797305E-4,-9.191985E-3,1.5122454E-3],"categories":[],"categories_nodes":[],"categories_segments":[],"categories_sizes":[],"default_left":[0,0,0,0,0,0,0,0,0,0,0,0,0,0,0],"id":33,"left_children":[1,3,5,7,9,11,13,-1,-1,-1,-1,-1,-1,-1,-1],"loss_changes":[1.3244288E1,1.9364983E1,2.8366217E1,2.5803438E1,1.524346E1,1.6682005E1,1.9552572E1,0E0,0E0,0E0,0E0,0E0,0E0,0E0,0E0],"parents":[2147483647,0,0,1,1,2,2,3,3,4,4,5,5,6,6],"right_children":[2,4,6,8,10,12,14,-1,-1,-1,-1,-1,-1,-1,-1],"split_conditions":[1.665978E-3,-7.6289224E-3,2.8613324E-3,-1.1533013E-2,1.2266648E-2,1.0151169E0,2.86338E-3,-3.430982E-3,4.2013247E-3,2.933049E-3,-2.6084983E-3,-4.9168156E-3,-8.797305E-4,-9.191985E-3,1.5122454E-3],"split_indices":[21,20,20,21,20,22,21,0,0,0,0,0,0,0,0],"split_type":[0,0,0,0,0,0,0,0,0,0,0,0,0,0,0],"sum_hessian":[1.5116962E3,6.7336115E2,8.38335E2,2.1887543E2,4.5448572E2,4.2500647E2,4.1332855E2,1.6026637E2,5.860905E1,4.0038565E2,5.410008E1,1.7997832E2,2.4502814E2,1.5746557E1,3.9758197E2],"tree_param":{"num_deleted":"0","num_feature":"23","num_nodes":"15","size_leaf_vector":"1"}},{"base_weights":[2.624466E-2,5.44648E-2,-1.9513814E-1,-2.1668453E-2,1.5318508E-1,-2.5510466E-1,3.3721696E-3,2.9835987E-3,-1.021694E-3,-5.8659175E-3,2.278015E-3,-6.759005E-4,-5.3048176E-3],"categories":[],"categories_nodes":[],"categories_segments":[],"categories_sizes":[],"default_left":[0,0,0,0,0,0,0,0,0,0,0,0,0],"id":34,"left_children":[1,3,5,7,9,11,-1,-1,-1,-1,-1,-1,-1],"loss_changes":[9.301239E0,1.0076166E1,5.4828334E0,1.92943E1,3.2249664E1,7.511998E0,0E0,0E0,0E0,0E0,0E0,0E0,0E0],"parents":[2147483647,0,0,1,1,2,2,3,3,4,4,5,5],"right_children":[2,4,6,8,10,12,-1,-1,-1,-1,-1,-1,-1],"split_conditions":[1.0305394E0,1.2230999E-3,1.049355E0,-2.3478968E-2,-1.9240115E-2,1.0406899E-2,3.3721696E-3,2.9835987E-3,-1.021694E-3,-5.8659175E-3,2.278015E-3,-6.759005E-4,-5.3048176E-3],"split_indices":[22,20,22,21,21,11,0,0,0,0,0,0,0],"split_type":[0,0,0,0,0,0,0,0,0,0,0,0,0],"sum_hessian":[1.4946609E3,1.329015E3,1.6564587E2,7.4836835E2,5.806467E2,1.5065622E2,1.4989667E1,1.4807567E2,6.0029266E2,5.13288E1,5.2931793E2,9.218832E1,5.84679E1],"tree_param":{"num_deleted":"0","num_feature":"23","num_nodes":"13","size_leaf_vector":"1"}},{"base_weights":[-9.736684E-3,7.500082E-2,-8.072668E-2,-9.432883E-2,2.5144446E-1,-7.989366E-1,-5.0893873E-2,3.3961807E-4,-4.903266E-3,9.233562E-3,1.6311923E-3,-1.1083124E-2,-3.1480163E-3,-2.1067413E-5,-3.0519613E-3],"categories":[],"categories_nodes":[],"categories_segments":[],"categories_sizes":[],"default_left":[0,0,0,0,0,0,0,0,0,0,0,0,0,0,0],"id":35,"left_children":[1,3,5,7,9,11,13,-1,-1,-1,-1,-1,-1,-1,-1],"loss_changes":[9.129026E0,2.0696285E1,1.7247421E1,1.8110495E1,1.92834E1,3.41967E0,9.749986E0,0E0,0E0,0E0,0E0,0E0,0E0,0E0,0E0],"parents":[2147483647,0,0,1,1,2,2,3,3,4,4,5,5,6,6],"right_children":[2,4,6,8,10,12,14,-1,-1,-1,-1,-1,-1,-1,-1],"split_conditions":[1.665978E-3,-1.07328845E-2,2.86338E-3,-1.8249756E-2,-9.149272E-3,2.27001E-1,2.5192412E-2,3.3961807E-4,-4.903266E-3,9.233562E-3,1.6311923E-3,-1.1083124E-2,-3.1480163E-3,-2.1067413E-5,-3.0519613E-3],"split_indices":[21,21,21,21,21,15,12,0,0,0,0,0,0,0,0],"split_type":[0,0,0,0,0,0,0,0,0,0,0,0,0,0,0],"sum_hessian":[1.5130911E3,6.86496E2,8.2659503E2,3.4933893E2,3.37157E2,3.0240845E1,7.963542E2,2.642849E2,8.505402E1,3.631685E1,3.0084018E2,1.6247156E1,1.3993689E1,6.7150977E2,1.2484442E2],"tree_param":{"num_deleted":"0","num_feature":"23","num_nodes":"15","size_leaf_vector":"1"}},{"base_weights":[-2.898735E-5,3.380522E-2,-2.5997436E-1,-2.1686262E-1,8.195465E-2,-5.025483E-1,-4.1487027E-2,-4.934627E-4,-7.178037E-3,2.744158E-3,2.8913445E-4,-7.0556174E-3,7.487419E-4,2.4134214E-3,-2.8318027E-3],"categories":[],"categories_nodes":[],"categories_segments":[],"categories_sizes":[],"default_left":[0,0,0,0,0,0,0,0,0,0,0,0,0,0,0],"id":36,"left_children":[1,3,5,7,9,11,13,-1,-1,-1,-1,-1,-1,-1,-1],"loss_changes":[1.3396826E1,1.6077501E1,8.995554E0,1.7498783E1,1.1294181E1,1.0030121E1,6.6978807E0,0E0,0E0,0E0,0E0,0E0,0E0,0E0,0E0],"parents":[2147483647,0,0,1,1,2,2,3,3,4,4,5,5,6,6],"right_children":[2,4,6,8,10,12,14,-1,-1,-1,-1,-1,-1,-1,-1],"split_conditions":[1.0304543E0,-9.040349E-3,3.879488E-3,-1.1648865E-2,-3.0702723E-3,5.9808113E-2,2.6456024E-2,-4.934627E-4,-7.178037E-3,2.744158E-3,2.8913445E-4,-7.0556174E-3,7.487419E-4,2.4134214E-3,-2.8318027E-3],"split_indices":[22,20,20,20,20,1,21,0,0,0,0,0,0,0,0],"split_type":[0,0,0,0,0,0,0,0,0,0,0,0,0,0,0],"sum_hessian":[1.5063678E3,1.332719E3,1.7364883E2,2.1194301E2,1.1207759E3,7.997191E1,9.367693E1,1.6122424E2,5.0718777E1,2.3830547E2,8.8247046E2,5.948124E1,2.0490667E1,4.2213226E1,5.1463707E1],"tree_param":{"num_deleted":"0","num_feature":"23","num_nodes":"15","size_leaf_vector":"1"}},{"base_weights":[-6.95231E-3,7.6900554E-1,-1.920799E-2,1.0557196E-2,3.4135042E-3,-1.9929439E-1,2.4990216E-2,7.782601E-4,-4.0431614E-3,6.974923E-4,-2.4297123E-3],"categories":[],"categories_nodes":[],"categories_segments":[],"categories_sizes":[],"default_left":[0,0,0,0,0,0,0,0,0,0,0],"id":37,"left_children":[1,3,5,-1,-1,7,9,-1,-1,-1,-1],"loss_changes":[1.4098005E1,1.4044571E0,1.2018394E1,0E0,0E0,1.7134647E1,1.4365395E1,0E0,0E0,0E0,0E0],"parents":[2147483647,0,0,1,1,2,2,5,5,6,6],"right_children":[2,4,6,-1,-1,8,10,-1,-1,-1,-1],"split_conditions":[9.3790895E-1,-2.124808E-2,2.2046537E1,1.0557196E-2,3.4135042E-3,-1.0088283E-2,1.0304543E0,7.782601E-4,-4.0431614E-3,6.974923E-4,-2.4297123E-3],"split_indices":[22,10,6,0,0,12,22,0,0,0,0],"split_type":[0,0,0,0,0,0,0,0,0,0,0],"sum_hessian":[1.5167726E3,2.1029303E1,1.4957433E3,1.0130839E1,1.0898464E1,2.9560202E2,1.2001412E3,1.25189705E2,1.7041231E2,1.0312341E3,1.6890712E2],"tree_param":{"num_deleted":"0","num_feature":"23","num_nodes":"11","size_leaf_vector":"1"}},{"base_weights":[8.192373E-3,1.1370724E-1,-4.0801942E-2,2.1851954E-1,-1.7039995E-1,5.9456867E-3,-5.3628847E-2,3.1504798E-4,4.2892713E-3,2.1938505E-3,-2.382309E-3,-2.3197097E-4,-2.3103005E-3],"categories":[],"categories_nodes":[],"categories_segments":[],"categories_sizes":[],"default_left":[0,0,0,0,0,0,0,0,0,0,0,0,0],"id":38,"left_children":[1,3,5,7,9,-1,11,-1,-1,-1,-1,-1,-1],"loss_changes":[7.866315E0,1.4495144E1,8.198462E0,1.372497E1,3.5545301E0,0E0,5.333818E0,0E0,0E0,0E0,0E0,0E0,0E0],"parents":[2147483647,0,0,1,1,2,2,3,3,4,4,6,6],"right_children":[2,4,6,8,10,-1,12,-1,-1,-1,-1,-1,-1],"split_conditions":[2.3713157E-2,1.0203373E0,9.3790895E-1,7.324753E-4,-1.7500613E-3,5.9456867E-3,2.8239502E-2,3.1504798E-4,4.2892713E-3,2.1938505E-3,-2.382309E-3,-2.3197097E-4,-2.3103005E-3],"split_indices":[8,22,22,20,20,0,12,0,0,0,0,0,0],"split_type":[0,0,0,0,0,0,0,0,0,0,0,0,0],"sum_hessian":[1.5107941E3,4.8146588E2,1.0293282E3,3.5333557E2,1.2813031E2,1.7802618E1,1.0115256E3,1.895422E2,1.6379335E2,1.7237364E1,1.10892944E2,8.6775006E2,1.4377553E2],"tree_param":{"num_deleted":"0","num_feature":"23","num_nodes":"13","size_leaf_vector":"1"}},{"base_weights":[-2.948682E-3,8.690062E-2,-6.128253E-2,1.5978397E-1,-3.0069315E-1,-1.6176206E-1,9.398307E-2,-1.52129E-3,2.3560687E-3,3.1681359E-3,-6.7215404E-3,-0E0,-2.8389145E-3,3.293486E-3,-4.4807862E-4],"categories":[],"categories_nodes":[],"categories_segments":[],"categories_sizes":[],"default_left":[0,0,0,0,0,0,0,0,0,0,0,0,0,0,0],"id":39,"left_children":[1,3,5,7,9,11,13,-1,-1,-1,-1,-1,-1,-1,-1],"loss_changes":[7.811681E0,1.6532597E1,1.4237791E1,1.1802263E1,2.1728397E1,1.09416E1,1.18092375E1,0E0,0E0,0E0,0E0,0E0,0E0,0E0,0E0],"parents":[2147483647,0,0,1,1,2,2,3,3,4,4,5,5,6,6],"right_children":[2,4,6,8,10,12,14,-1,-1,-1,-1,-1,-1,-1,-1],"split_conditions":[-3.6929976E-3,2.258546E-2,2.7500086E-3,-7.58176E-3,-3.221226E-3,-3.9708875E-3,6.5620686E-3,-1.52129E-3,2.3560687E-3,3.1681359E-3,-6.7215404E-3,-0E0,-2.8389145E-3,3.293486E-3,-4.4807862E-4],"split_indices":[10,12,20,20,20,20,20,0,0,0,0,0,0,0,0],"split_type":[0,0,0,0,0,0,0,0,0,0,0,0,0,0,0],"sum_hessian":[1.4888334E3,5.823351E2,9.0649835E2,4.922396E2,9.009549E1,5.522491E2,3.5424924E2,9.4575775E1,3.9766382E2,3.344523E1,5.665026E1,2.3853699E2,3.137121E2,1.3172421E2,2.2252504E2],"tree_param":{"num_deleted":"0","num_feature":"23","num_nodes":"15","size_leaf_vector":"1"}},{"base_weights":[-5.084737E-3,7.660151E-3,-6.881557E-1,5.1928878E-2,-1.5913938E-1,-3.6795152E-4,-1.0224804E-2,-1.4203094E-3,1.1125765E-3,-3.0440232E-3,6.0289993E-4],"categories":[],"categories_nodes":[],"categories_segments":[],"categories_sizes":[],"default_left":[0,0,0,0,0,0,0,0,0,0,0],"id":40,"left_children":[1,3,5,7,9,-1,-1,-1,-1,-1,-1],"loss_changes":[1.3538007E1,1.0952535E1,5.598427E0,1.3595243E1,1.0048734E1,0E0,0E0,0E0,0E0,0E0,0E0],"parents":[2147483647,0,0,1,1,2,2,3,3,4,4],"right_children":[2,4,6,8,10,-1,-1,-1,-1,-1,-1],"split_conditions":[4.939319E-2,1.0235151E0,3.3429515E-2,-7.470275E-3,1.0161546E0,-3.6795152E-4,-1.0224804E-2,-1.4203094E-3,1.1125765E-3,-3.0440232E-3,6.0289993E-4],"split_indices":[21,22,8,20,2,0,0,0,0,0,0],"split_type":[0,0,0,0,0,0,0,0,0,0,0],"sum_hessian":[1.5127861E3,1.4863E3,2.648613E1,1.178026E3,3.0827405E2,1.0243847E1,1.6242283E1,2.7330652E2,9.047194E2,1.8638844E2,1.21885605E2],"tree_param":{"num_deleted":"0","num_feature":"23","num_nodes":"11","size_leaf_vector":"1"}},{"base_weights":[-1.2053029E-3,7.82406E-3,-5.0179654E-1,-7.992106E-3,4.7705212E-1,8.0689497E-4,-8.945534E-3,1.1364305E-4,-4.0679113E-3,6.879655E-3,-2.3580545E-3],"categories":[],"categories_nodes":[],"categories_segments":[],"categories_sizes":[],"default_left":[0,0,0,0,0,0,0,0,0,0,0],"id":41,"left_children":[1,3,5,7,9,-1,-1,-1,-1,-1,-1],"loss_changes":[7.073192E0,1.1246143E1,6.8972406E0,1.1286707E1,7.97976E0,0E0,0E0,0E0,0E0,0E0,0E0],"parents":[2147483647,0,0,1,1,2,2,3,3,4,4],"right_children":[2,4,6,8,10,-1,-1,-1,-1,-1,-1],"split_conditions":[4.939319E-2,3.9858785E-2,9.592378E-3,3.0735748E-2,1.8768227E-1,8.0689497E-4,-8.945534E-3,1.1364305E-4,-4.0679113E-3,6.879655E-3,-2.3580545E-3],"split_indices":[21,21,20,21,18,0,0,0,0,0,0],"split_type":[0,0,0,0,0,0,0,0,0,0,0],"sum_hessian":[1.5064786E3,1.4807399E3,2.573877E1,1.4333274E3,4.741249E1,1.049299E1,1.5245781E1,1.367636E3,6.569137E1,3.7182526E1,1.0229965E1],"tree_param":{"num_deleted":"0","num_feature":"23","num_nodes":"11","size_leaf_vector":"1"}},{"base_weights":[-1.711726E-2,2.981272E-2,-2.1048997E-1,-8.009188E-4,2.9087046E-1,-1.0935414E-2,-1.5867446E-1,1.7002778E-4,-4.332151E-3,5.385116E-3,-0E0,-3.7080045E-3,-5.844597E-4],"categories":[],"categories_nodes":[],"categories_segments":[],"categories_sizes":[],"default_left":[0,0,0,0,0,0,0,0,0,0,0,0,0],"id":42,"left_children":[1,3,5,7,9,-1,11,-1,-1,-1,-1,-1,-1],"loss_changes":[1.371743E1,9.791055E0,1.2539285E1,8.541265E0,9.295318E0,0E0,5.733884E0,0E0,0E0,0E0,0E0,0E0,0E0],"parents":[2147483647,0,0,1,1,2,2,3,3,4,4,6,6],"right_children":[2,4,6,8,10,-1,12,-1,-1,-1,-1,-1,-1],"split_conditions":[1.0247395E0,4.0819943E-1,1.0250645E0,1.9860818E0,2.6024696E-3,-1.0935414E-2,7.889723E-1,1.7002778E-4,-4.332151E-3,5.385116E-3,-0E0,-3.7080045E-3,-5.844597E-4],"split_indices":[22,15,22,5,21,0,9,0,0,0,0,0,0],"split_type":[0,0,0,0,0,0,0,0,0,0,0,0,0],"sum_hessian":[1.4982285E3,1.2049122E3,2.9331638E2,1.0785157E3,1.2639647E2,1.349378E1,2.798226E2,1.0366011E3,4.1914692E1,6.751291E1,5.8883556E1,8.645641E1,1.9336618E2],"tree_param":{"num_deleted":"0","num_feature":"23","num_nodes":"13","size_leaf_vector":"1"}},{"base_weights":[3.4906005E-3,7.526186E-3,-6.7929095E-3,1.9268628E-2,-2.511461E-1,-9.529232E-4,9.070433E-4,1.3970286E-3,-3.8497497E-3],"categories":[],"categories_nodes":[],"categories_segments":[],"categories_sizes":[],"default_left":[0,0,0,0,0,0,0,0,0],"id":43,"left_children":[1,-1,3,5,7,-1,-1,-1,-1],"loss_changes":[1.1955681E1,0E0,9.570925E0,1.0983319E1,7.8113546E0,0E0,0E0,0E0,0E0],"parents":[2147483647,0,0,2,2,3,3,4,4],"right_children":[2,-1,4,6,8,-1,-1,-1,-1],"split_conditions":[9.3790895E-1,7.526186E-3,1.0317551E0,-4.710498E-3,-5.7741717E-2,-9.529232E-4,9.070433E-4,1.3970286E-3,-3.8497497E-3],"split_indices":[22,0,22,0,14,0,0,0,0],"split_type":[0,0,0,0,0,0,0,0,0],"sum_hessian":[1.5002126E3,1.9018387E1,1.4811943E3,1.3382582E3,1.4293611E2,5.1103983E2,8.272183E2,3.5483166E1,1.0745295E2],"tree_param":{"num_deleted":"0","num_feature":"23","num_nodes":"9","size_leaf_vector":"1"}},{"base_weights":[1.5310887E-3,7.833398E-3,-8.95424E-3,5.031894E-2,-1.2063413E-1,1.3873534E-3,-5.5912737E-4,-9.694148E-4,-7.7623376E-3],"categories":[],"categories_nodes":[],"categories_segments":[],"categories_sizes":[],"default_left":[0,0,0,0,0,0,0,0,0],"id":44,"left_children":[1,-1,3,5,7,-1,-1,-1,-1],"loss_changes":[1.285472E1,0E0,9.97951E0,9.249277E0,7.5481415E0,0E0,0E0,0E0,0E0],"parents":[2147483647,0,0,2,2,3,3,4,4],"right_children":[2,-1,4,6,8,-1,-1,-1,-1],"split_conditions":[9.3790895E-1,7.833398E-3,3.4650076E-2,3.1311924E-3,4.939319E-2,1.3873534E-3,-5.5912737E-4,-9.694148E-4,-7.7623376E-3],"split_indices":[22,0,8,11,21,0,0,0,0],"split_type":[0,0,0,0,0,0,0,0,0],"sum_hessian":[1.5171785E3,1.8758701E1,1.4984198E3,9.7667786E2,5.2174194E2,5.352692E2,4.4140863E2,5.0649615E2,1.5245815E1],"tree_param":{"num_deleted":"0","num_feature":"23","num_nodes":"9","size_leaf_vector":"1"}},{"base_weights":[8.276336E-3,2.2304578E-2,-4.6874896E-1,-3.8934223E-2,8.7021604E-2,6.785714E-5,-6.9962794E-1,2.084281E-3,-7.322963E-4,-1.6427101E-3,1.3608099E-3,-9.521563E-3,-1.8909933E-3],"categories":[],"categories_nodes":[],"categories_segments":[],"categories_sizes":[],"default_left":[0,0,0,0,0,0,0,0,0,0,0,0,0],"id":45,"left_children":[1,3,5,7,9,-1,11,-1,-1,-1,-1,-1,-1],"loss_changes":[9.850095E0,5.8258204E0,4.9656773E0,6.314476E0,8.851501E0,0E0,2.806882E0,0E0,0E0,0E0,0E0,0E0,0E0],"parents":[2147483647,0,0,1,1,2,2,3,3,4,4,6,6],"right_children":[2,4,6,8,10,-1,12,-1,-1,-1,-1,-1,-1],"split_conditions":[1.0449742E0,9.141199E-4,3.4795597E-2,9.6536833E-1,3.0237286E1,6.785714E-5,2.1869177E-2,2.084281E-3,-7.322963E-4,-1.6427101E-3,1.3608099E-3,-9.521563E-3,-1.8909933E-3],"split_indices":[22,0,1,22,6,0,0,0,0,0,0,0,0],"split_type":[0,0,0,0,0,0,0,0,0,0,0,0,0],"sum_hessian":[1.5001918E3,1.460205E3,3.9986702E1,7.4670374E2,7.135013E2,1.2995609E1,2.6991093E1,8.790899E1,6.5879474E2,1.1411115E2,5.9939014E2,1.62458E1,1.0745294E1],"tree_param":{"num_deleted":"0","num_feature":"23","num_nodes":"13","size_leaf_vector":"1"}},{"base_weights":[-1.9120973E-2,7.7591306E-3,-3.0998161E-2,-1.5474372E-2,-5.616929E-1,-3.339948E-4,6.4226454E-3,-7.3867134E-4,-9.644973E-3],"categories":[],"categories_nodes":[],"categories_segments":[],"categories_sizes":[],"default_left":[0,0,0,0,0,0,0,0,0],"id":46,"left_children":[1,-1,3,5,7,-1,-1,-1,-1],"loss_changes":[1.3961618E1,0E0,1.1995392E1,1.6877771E1,7.4860716E0,0E0,0E0,0E0,0E0],"parents":[2147483647,0,0,2,2,3,3,4,4],"right_children":[2,-1,4,6,8,-1,-1,-1,-1],"split_conditions":[9.3790895E-1,7.7591306E-3,4.6584498E-2,3.9858785E-2,9.592378E-3,-3.339948E-4,6.4226454E-3,-7.3867134E-4,-9.644973E-3],"split_indices":[22,0,21,21,20,0,0,0,0],"split_type":[0,0,0,0,0,0,0,0,0],"sum_hessian":[1.5109008E3,1.972606E1,1.4911747E3,1.45171E3,3.9464684E1,1.4157848E3,3.5925224E1,1.9480467E1,1.9984217E1],"tree_param":{"num_deleted":"0","num_feature":"23","num_nodes":"9","size_leaf_vector":"1"}},{"base_weights":[-8.246896E-3,8.872649E-3,-1.7206056E-2,-1.8826255E-1,1.3170999E-2,-4.4214976E-5,-5.83623E-3,4.052661E-3,-1.5026862E-4],"categories":[],"categories_nodes":[],"categories_segments":[],"categories_sizes":[],"default_left":[0,0,0,0,0,0,0,0,0],"id":47,"left_children":[1,-1,3,5,7,-1,-1,-1,-1],"loss_changes":[1.1807453E1,0E0,7.936411E0,1.6436878E1,1.4373547E1,0E0,0E0,0E0,0E0],"parents":[2147483647,0,0,2,2,3,3,4,4],"right_children":[2,-1,4,6,8,-1,-1,-1,-1],"split_conditions":[9.342852E-1,8.872649E-3,-8.506915E-3,-1.1648865E-2,-6.612376E-3,-4.4214976E-5,-5.83623E-3,4.052661E-3,-1.5026862E-4],"split_indices":[22,0,20,20,20,0,0,0,0],"split_type":[0,0,0,0,0,0,0,0,0],"sum_hessian":[1.5201113E3,1.2562381E1,1.507549E3,2.2825952E2,1.2792894E3,1.5805267E2,7.020684E1,8.52241E1,1.1940653E3],"tree_param":{"num_deleted":"0","num_feature":"23","num_nodes":"9","size_leaf_vector":"1"}},{"base_weights":[-1.7386306E-2,2.6533421E-2,-1.8178375E-1,1.3959295E-1,-4.735164E-2,-2.1935673E-1,4.1510663E-3,-2.216179E-3,1.8644898E-3,-1.8791006E-3,7.3584024E-4,-4.3702438E-3,-1.1495072E-3],"categories":[],"categories_nodes":[],"categories_segments":[],"categories_sizes":[],"default_left":[0,0,0,0,0,0,0,0,0,0,0,0,0],"id":48,"left_children":[1,3,5,7,9,11,-1,-1,-1,-1,-1,-1,-1],"loss_changes":[1.1033955E1,1.0048383E1,7.312355E0,8.117795E0,1.235796E1,6.5618687E0,0E0,0E0,0E0,0E0,0E0,0E0,0E0],"parents":[2147483647,0,0,1,1,2,2,3,3,4,4,5,5],"right_children":[2,4,6,8,10,12,-1,-1,-1,-1,-1,-1,-1],"split_conditions":[1.0235151E0,-4.472432E-3,3.462111E0,-4.2740718E-2,1.0035976E0,7.842642E-1,4.1510663E-3,-2.216179E-3,1.8644898E-3,-1.8791006E-3,7.3584024E-4,-4.3702438E-3,-1.1495072E-3],"split_indices":[22,12,5,12,22,9,0,0,0,0,0,0,0],"split_type":[0,0,0,0,0,0,0,0,0,0,0,0,0],"sum_hessian":[1.5141E3,1.1938042E3,3.202959E2,4.7379214E2,7.20012E2,3.033061E2,1.69898E1,5.2321068E1,4.2147107E2,3.3439066E2,3.8562134E2,9.470424E1,2.0860184E2],"tree_param":{"num_deleted":"0","num_feature":"23","num_nodes":"13","size_leaf_vector":"1"}},{"base_weights":[-4.1249394E-3,6.8605673E-3,-1.4582559E-2,-3.7969315E-1,3.3895764E-3,1.4111634E-3,-6.080548E-3,5.3461664E-4,-1.559396E-3],"categories":[],"categories_nodes":[],"categories_segments":[],"categories_sizes":[],"default_left":[0,0,0,0,0,0,0,0,0],"id":49,"left_children":[1,-1,3,5,7,-1,-1,-1,-1],"loss_changes":[1.0619743E1,0E0,1.0001678E1,8.904918E0,1.1339512E1,0E0,0E0,0E0,0E0],"parents":[2147483647,0,0,2,2,3,3,4,4],"right_children":[2,-1,4,6,8,-1,-1,-1,-1],"split_conditions":[9.3790895E-1,6.8605673E-3,-1.7092345E-2,4.9065817E-2,1.0232576E0,1.4111634E-3,-6.080548E-3,5.3461664E-4,-1.559396E-3],"split_indices":[22,0,20,15,22,0,0,0,0],"split_type":[0,0,0,0,0,0,0,0,0],"sum_hessian":[1.5130999E3,1.9942106E1,1.4931577E3,6.9467476E1,1.4236903E3,2.074052E1,4.872696E1,1.086656E3,3.370343E2],"tree_param":{"num_deleted":"0","num_feature":"23","num_nodes":"9","size_leaf_vector":"1"}},{"base_weights":[-1.3333048E-2,7.238198E-2,-8.389795E-2,1.09325275E-1,-5.879807E-1,-3.5021228E-1,4.197453E-2,-5.357627E-4,2.973612E-3,-2.0913347E-3,-9.570794E-3,-2.114834E-3,-8.698687E-3,-9.494415E-3,8.477503E-4],"categories":[],"categories_nodes":[],"categories_segments":[],"categories_sizes":[],"default_left":[0,0,0,0,0,0,0,0,0,0,0,0,0,0,0],"id":50,"left_children":[1,3,5,7,9,11,13,-1,-1,-1,-1,-1,-1,-1,-1],"loss_changes":[9.112508E0,1.6400482E1,2.7966862E1,1.9860388E1,3.9741173E0,1.8375706E1,2.363204E1,0E0,0E0,0E0,0E0,0E0,0E0,0E0,0E0],"parents":[2147483647,0,0,1,1,2,2,3,3,4,4,5,5,6,6],"right_children":[2,4,6,8,10,12,14,-1,-1,-1,-1,-1,-1,-1,-1],"split_conditions":[1.665978E-3,1.018346E0,-1.870928E-5,-1.07328845E-2,3.414525E-2,-1.1608372E-3,2.86338E-3,-5.357627E-4,2.973612E-3,-2.0913347E-3,-9.570794E-3,-2.114834E-3,-8.698687E-3,-9.494415E-3,8.477503E-4],"split_indices":[21,22,20,21,8,20,21,0,0,0,0,0,0,0,0],"split_type":[0,0,0,0,0,0,0,0,0,0,0,0,0,0,0],"sum_hessian":[1.50162E3,6.748022E2,8.268178E2,6.4134863E2,3.345352E1,2.654983E2,5.613195E2,3.4298276E2,2.9836588E2,1.8723434E1,1.4730087E1,2.1253539E2,5.296291E1,2.0993162E1,5.4032635E2],"tree_param":{"num_deleted":"0","num_feature":"23","num_nodes":"15","size_leaf_vector":"1"}},{"base_weights":[-7.4830498E-3,4.536507E-3,-5.895329E-1,-4.8695427E-1,1.9681921E-2,-9.163623E-3,-1.0690542E-3,2.7672808E-5,-6.586442E-3,-5.720665E-4,8.6692855E-4],"categories":[],"categories_nodes":[],"categories_segments":[],"categories_sizes":[],"default_left":[0,0,0,0,0,0,0,0,0,0,0],"id":51,"left_children":[1,3,5,7,9,-1,-1,-1,-1,-1,-1],"loss_changes":[1.08045E1,1.0747097E1,4.220525E0,3.9564438E0,7.4000716E0,0E0,0E0,0E0,0E0,0E0,0E0],"parents":[2147483647,0,0,1,1,2,2,3,3,4,4],"right_children":[2,4,6,8,10,-1,-1,-1,-1,-1,-1],"split_conditions":[4.939319E-2,-4.989012E-2,5.209107E1,-2.6394667E-2,9.027852E-1,-9.163623E-3,-1.0690542E-3,2.7672808E-5,-6.586442E-3,-5.720665E-4,8.6692855E-4],"split_indices":[21,10,13,21,9,0,0,0,0,0,0],"split_type":[0,0,0,0,0,0,0,0,0,0,0],"sum_hessian":[1.4998126E3,1.4705702E3,2.9242468E1,4.11119E1,1.4294583E3,1.5746051E1,1.3496417E1,1.0426705E1,3.0685194E1,6.623299E2,7.671284E2],"tree_param":{"num_deleted":"0","num_feature":"23","num_nodes":"11","size_leaf_vector":"1"}},{"base_weights":[-1.2471002E-3,-2.175301E-1,3.859813E-2,-3.997859E-1,7.871997E-2,2.559045E-1,-1.0916033E-2,-1.9037271E-3,-8.475247E-3,1.063869E-2,-1.0170459E-3,8.034531E-3,1.1604357E-3,-1.6834195E-3,6.2482856E-4],"categories":[],"categories_nodes":[],"categories_segments":[],"categories_sizes":[],"default_left":[0,0,0,0,0,0,0,0,0,0,0,0,0,0,0],"id":52,"left_children":[1,3,5,7,9,11,13,-1,-1,-1,-1,-1,-1,-1,-1],"loss_changes":[1.3145266E1,1.305395E1,1.3872502E1,1.3081583E1,1.6896484E1,1.7656775E1,1.2095557E1,0E0,0E0,0E0,0E0,0E0,0E0,0E0,0E0],"parents":[2147483647,0,0,1,1,2,2,3,3,4,4,5,5,6,6],"right_children":[2,4,6,8,10,12,14,-1,-1,-1,-1,-1,-1,-1,-1],"split_conditions":[-8.506915E-3,-1.1533013E-2,-3.0702723E-3,-2.119612E-2,-7.258024E-3,-1.8380951E-2,1.2230999E-3,-1.9037271E-3,-8.475247E-3,1.063869E-2,-1.0170459E-3,8.034531E-3,1.1604357E-3,-1.6834195E-3,6.2482856E-4],"split_indices":[20,21,20,21,21,21,20,0,0,0,0,0,0,0,0],"split_type":[0,0,0,0,0,0,0,0,0,0,0,0,0,0,0],"sum_hessian":[1.5110239E3,2.356309E2,1.275393E3,1.4649475E2,8.913615E1,2.3700287E2,1.0383901E3,1.025145E2,4.398025E1,1.2710876E1,7.642527E1,4.556274E1,1.9144014E2,3.3153625E2,7.068538E2],"tree_param":{"num_deleted":"0","num_feature":"23","num_nodes":"15","size_leaf_vector":"1"}},{"base_weights":[7.825779E-3,1.08774826E-1,-5.301651E-2,6.7070544E-2,5.9195626E-1,-1.8881333E-1,5.4968223E-2,3.1677573E-3,-1.7077205E-4,8.256363E-3,-0E0,-3.71208E-3,-2.5124694E-4,-4.2716186E-3,1.0831171E-3],"categories":[],"categories_nodes":[],"categories_segments":[],"categories_sizes":[],"default_left":[0,0,0,0,0,0,0,0,0,0,0,0,0,0,0],"id":53,"left_children":[1,3,5,7,9,11,13,-1,-1,-1,-1,-1,-1,-1,-1],"loss_changes":[9.453341E0,1.1281161E1,1.4085761E1,1.1449352E1,5.857024E0,1.2482221E1,1.3595941E1,0E0,0E0,0E0,0E0,0E0,0E0,0E0,0E0],"parents":[2147483647,0,0,1,1,2,2,3,3,4,4,5,5,6,6],"right_children":[2,4,6,8,10,12,14,-1,-1,-1,-1,-1,-1,-1,-1],"split_conditions":[-4.2870957E-3,-5.6776456E-3,8.211529E-3,-1.1724077E-2,6.2433277E1,1.817431E-1,-2.8458713E-2,3.1677573E-3,-1.7077205E-4,8.256363E-3,-0E0,-3.71208E-3,-2.5124694E-4,-4.2716186E-3,1.0831171E-3],"split_indices":[12,12,12,10,4,15,10,0,0,0,0,0,0,0,0],"split_type":[0,0,0,0,0,0,0,0,0,0,0,0,0,0,0],"sum_hessian":[1.530721E3,5.781317E2,9.5258923E2,5.3524603E2,4.2885647E1,4.233439E2,5.292453E2,1.3501302E2,4.0023303E2,2.966537E1,1.3220276E1,1.9758696E2,2.2575696E2,5.0393063E1,4.7885226E2],"tree_param":{"num_deleted":"0","num_feature":"23","num_nodes":"15","size_leaf_vector":"1"}},{"base_weights":[1.5910633E-2,7.479386E-3,5.472169E-3,-1.843782E-1,4.082987E-2,-3.2914142E-4,-5.220063E-3,1.7962372E-3,-4.441612E-4],"categories":[],"categories_nodes":[],"categories_segments":[],"categories_sizes":[],"default_left":[0,0,0,0,0,0,0,0,0],"id":54,"left_children":[1,-1,3,5,7,-1,-1,-1,-1],"loss_changes":[1.1103929E1,0E0,9.912116E0,1.15165E1,1.4941436E1,0E0,0E0,0E0,0E0],"parents":[2147483647,0,0,2,2,3,3,4,4],"right_children":[2,-1,4,6,8,-1,-1,-1,-1],"split_conditions":[9.3790895E-1,7.479386E-3,-8.506915E-3,-1.1648865E-2,1.665978E-3,-3.2914142E-4,-5.220063E-3,1.7962372E-3,-4.441612E-4],"split_indices":[22,0,20,20,21,0,0,0,0],"split_type":[0,0,0,0,0,0,0,0,0],"sum_hessian":[1.501527E3,1.8450172E1,1.4830768E3,2.292997E2,1.2537771E3,1.6082675E2,6.847294E1,4.784449E2,7.7533215E2],"tree_param":{"num_deleted":"0","num_feature":"23","num_nodes":"9","size_leaf_vector":"1"}},{"base_weights":[1.1234269E-2,-1.3409874E-1,6.1072305E-2,1.0790294E-1,-2.4235629E-1,1.6749437E-1,-4.9304742E-2,-4.903126E-4,5.5681616E-3,-4.1041886E-3,-9.498224E-5,4.833382E-3,8.45058E-4,-5.7652676E-3,-2.1489963E-4],"categories":[],"categories_nodes":[],"categories_segments":[],"categories_sizes":[],"default_left":[0,0,0,0,0,0,0,0,0,0,0,0,0,0,0],"id":55,"left_children":[1,3,5,7,9,11,13,-1,-1,-1,-1,-1,-1,-1,-1],"loss_changes":[1.0995992E1,1.0243607E1,1.3425258E1,8.719905E0,1.0311108E1,1.4872768E1,7.84598E0,0E0,0E0,0E0,0E0,0E0,0E0,0E0,0E0],"parents":[2147483647,0,0,1,1,2,2,3,3,4,4,5,5,6,6],"right_children":[2,4,6,8,10,12,14,-1,-1,-1,-1,-1,-1,-1,-1],"split_conditions":[-1.1742627E-2,4.011945E1,1.5566783E-3,1.08922415E1,5.8238045E-3,-1.4093195E-2,9.810674E-1,-4.903126E-4,5.5681616E-3,-4.1041886E-3,-9.498224E-5,4.833382E-3,8.45058E-4,-5.7652676E-3,-2.1489963E-4],"split_indices":[0,4,12,6,12,10,2,0,0,0,0,0,0,0,0],"split_type":[0,0,0,0,0,0,0,0,0,0,0,0,0,0,0],"sum_hessian":[1.5189106E3,3.8443716E2,1.1344735E3,1.1739573E2,2.6704144E2,5.7936395E2,5.551095E2,8.74812E1,2.9914528E1,1.5296701E2,1.1407443E2,1.1729209E2,4.620719E2,2.494037E1,5.301691E2],"tree_param":{"num_deleted":"0","num_feature":"23","num_nodes":"15","size_leaf_vector":"1"}},{"base_weights":[5.605131E-3,9.1838606E-2,-6.4467594E-2,-6.363821E-2,2.5028005E-1,-2.5759092E-1,2.7196078E-2,5.383572E-4,-7.2029424E-3,7.4765068E-3,1.5838675E-3,-1.1998017E-3,-7.2871116E-3,-8.601098E-3,6.400723E-4],"categories":[],"categories_nodes":[],"categories_segments":[],"categories_sizes":[],"default_left":[0,0,0,0,0,0,0,0,0,0,0,0,0,0,0],"id":56,"left_children":[1,3,5,7,9,11,13,-1,-1,-1,-1,-1,-1,-1,-1],"loss_changes":[9.229457E0,1.7045444E1,1.4969176E1,2.7153574E1,1.49498825E1,1.7019913E1,1.8281933E1,0E0,0E0,0E0,0E0,0E0,0E0,0E0,0E0],"parents":[2147483647,0,0,1,1,2,2,3,3,4,4,5,5,6,6],"right_children":[2,4,6,8,10,12,14,-1,-1,-1,-1,-1,-1,-1,-1],"split_conditions":[1.665978E-3,-1.1810946E-2,-1.870928E-5,-1.6934114E-2,-9.149272E-3,-1.1608372E-3,2.86338E-3,5.383572E-4,-7.2029424E-3,7.4765068E-3,1.5838675E-3,-1.1998017E-3,-7.2871116E-3,-8.601098E-3,6.400723E-4],"split_indices":[21,21,20,21,21,20,21,0,0,0,0,0,0,0,0],"split_type":[0,0,0,0,0,0,0,0,0,0,0,0,0,0,0],"sum_hessian":[1.5211703E3,6.848674E2,8.363029E2,3.446788E2,3.4018854E2,2.6976913E2,5.6653375E2,2.9328546E2,5.1393353E1,4.99768E1,2.9021173E2,2.1154814E2,5.8221004E1,2.0244368E1,5.4628937E2],"tree_param":{"num_deleted":"0","num_feature":"23","num_nodes":"15","size_leaf_vector":"1"}},{"base_weights":[-2.5866402E-2,3.0407116E-2,-1.4236742E-1,2.6861373E-3,5.5575186E-1,-1.1435623E-1,-7.724745E-3,-1.8858868E-3,6.9985696E-4,3.254204E-3,9.868507E-3,-1.3717721E-3,6.543294E-3],"categories":[],"categories_nodes":[],"categories_segments":[],"categories_sizes":[],"default_left":[0,0,0,0,0,0,0,0,0,0,0,0,0],"id":57,"left_children":[1,3,5,7,9,11,-1,-1,-1,-1,-1,-1,-1],"loss_changes":[9.973242E0,1.454128E1,8.125785E0,1.2450754E1,3.6767788E0,8.297893E0,0E0,0E0,0E0,0E0,0E0,0E0,0E0],"parents":[2147483647,0,0,1,1,2,2,3,3,4,4,5,5],"right_children":[2,4,6,8,10,12,-1,-1,-1,-1,-1,-1,-1],"split_conditions":[1.0179092E0,1.0162178E0,5.097323E-1,-7.470275E-3,9.467949E-3,2.3907807E-2,-7.724745E-3,-1.8858868E-3,6.9985696E-4,3.254204E-3,9.868507E-3,-1.3717721E-3,6.543294E-3],"split_indices":[22,22,14,20,12,20,0,0,0,0,0,0,0],"split_type":[0,0,0,0,0,0,0,0,0,0,0,0,0],"sum_hessian":[1.5093973E3,1.01588184E3,4.9351547E2,9.677769E2,4.810491E1,4.7553235E2,1.7983139E1,2.49013E2,7.187639E2,3.439669E1,1.3708222E1,4.6404904E2,1.1483289E1],"tree_param":{"num_deleted":"0","num_feature":"23","num_nodes":"13","size_leaf_vector":"1"}},{"base_weights":[2.2653302E-2,7.6262928E-3,1.1743677E-2,-1.416381E-1,5.4567162E-2,-6.162289E-4,-9.762187E-3,6.6582346E-3,1.8466373E-4],"categories":[],"categories_nodes":[],"categories_segments":[],"categories_sizes":[],"default_left":[0,0,0,0,0,0,0,0,0],"id":58,"left_children":[1,-1,3,5,7,-1,-1,-1,-1],"loss_changes":[1.160245E1,0E0,9.617426E0,2.0631062E1,2.5053522E1,0E0,0E0,0E0,0E0],"parents":[2147483647,0,0,2,2,3,3,4,4],"right_children":[2,-1,4,6,8,-1,-1,-1,-1],"split_conditions":[9.3790895E-1,7.6262928E-3,-1.1810946E-2,1.1866545E-2,-8.287739E-3,-6.162289E-4,-9.762187E-3,6.6582346E-3,1.8466373E-4],"split_indices":[22,0,21,20,21,0,0,0,0],"split_type":[0,0,0,0,0,0,0,0,0],"sum_hessian":[1.4853971E3,1.8913248E1,1.4664838E3,3.165171E2,1.1499667E3,2.9133246E2,2.5184645E1,6.141164E1,1.088555E3],"tree_param":{"num_deleted":"0","num_feature":"23","num_nodes":"9","size_leaf_vector":"1"}},{"base_weights":[2.8113395E-2,-1.5096681E-1,6.239524E-2,-3.5428387E-1,1.6080157E-1,-4.7968975E-1,8.008152E-2,-1.0436296E-3,-7.4429004E-3,5.1452843E-3,-2.382023E-3,4.4274336E-4,-7.3923618E-3,1.9064781E-3,1.1035336E-4],"categories":[],"categories_nodes":[],"categories_segments":[],"categories_sizes":[],"default_left":[0,0,0,0,0,0,0,0,0,0,0,0,0,0,0],"id":59,"left_children":[1,3,5,7,9,11,13,-1,-1,-1,-1,-1,-1,-1,-1],"loss_changes":[9.33099E0,1.562135E1,1.217708E1,1.3918875E1,1.3984698E1,5.842841E0,9.3995285E0,0E0,0E0,0E0,0E0,0E0,0E0,0E0,0E0],"parents":[2147483647,0,0,1,1,2,2,3,3,4,4,5,5,6,6],"right_children":[2,4,6,8,10,12,14,-1,-1,-1,-1,-1,-1,-1,-1],"split_conditions":[-8.506915E-3,-1.1533013E-2,5.420484E-1,-2.3478968E-2,1.4749067E-3,1.3608636E-2,1.665978E-3,-1.0436296E-3,-7.4429004E-3,5.1452843E-3,-2.382023E-3,4.4274336E-4,-7.3923618E-3,1.9064781E-3,1.1035336E-4],"split_indices":[20,21,9,21,21,15,21,0,0,0,0,0,0,0,0],"split_type":[0,0,0,0,0,0,0,0,0,0,0,0,0,0,0],"sum_hessian":[1.5220481E3,2.4111716E2,1.280931E3,1.4674783E2,9.4369316E1,3.7927803E1,1.2430032E3,9.17625E1,5.4985348E1,5.038013E1,4.398918E1,1.2475353E1,2.5452448E1,4.736944E2,7.693088E2],"tree_param":{"num_deleted":"0","num_feature":"23","num_nodes":"15","size_leaf_vector":"1"}},{"base_weights":[-1.6204609E-2,8.080754E-2,-8.2883805E-2,2.6749313E-1,-2.0678071E-2,-4.8017338E-1,-3.544191E-2,-7.0695026E-4,4.0071127E-3,-4.3924972E-3,4.9179804E-4,-6.100458E-4,-1.3849038E-2,-1.9885208E-3,1.2000924E-3],"categories":[],"categories_nodes":[],"categories_segments":[],"categories_sizes":[],"default_left":[0,0,0,0,0,0,0,0,0,0,0,0,0,0,0],"id":60,"left_children":[1,3,5,7,9,11,13,-1,-1,-1,-1,-1,-1,-1,-1],"loss_changes":[9.92271E0,1.1916986E1,1.6894386E1,1.0173603E1,1.2022413E1,3.550915E1,2.0862148E1,0E0,0E0,0E0,0E0,0E0,0E0,0E0,0E0],"parents":[2147483647,0,0,1,1,2,2,3,3,4,4,5,5,6,6],"right_children":[2,4,6,8,10,12,14,-1,-1,-1,-1,-1,-1,-1,-1],"split_conditions":[-3.234938E-3,-4.472432E-3,-1.9240115E-2,-1.121798E-2,-3.3530995E-2,-2.4268052E-3,1.1504797E-3,-7.0695026E-4,4.0071127E-3,-4.3924972E-3,4.9179804E-4,-6.100458E-4,-1.3849038E-2,-1.9885208E-3,1.2000924E-3],"split_indices":[10,12,21,0,10,20,20,0,0,0,0,0,0,0,0],"split_type":[0,0,0,0,0,0,0,0,0,0,0,0,0,0,0],"sum_hessian":[1.5297281E3,6.199032E2,9.0982495E2,2.1889499E2,4.010082E2,9.3985596E1,8.1583936E2,6.1063744E1,1.5783125E2,5.6865513E1,3.441427E2,6.606477E1,2.7920826E1,3.9903354E2,4.1680582E2],"tree_param":{"num_deleted":"0","num_feature":"23","num_nodes":"15","size_leaf_vector":"1"}},{"base_weights":[-2.0600205E-2,-8.902328E-2,4.7786474E-2,1.4505447E-1,-1.5540002E-1,2.1658337E-1,-2.8526293E-2,-6.576921E-4,3.242864E-3,-2.6110576E-3,-3.7736836E-4,-1.8112757E-3,3.1892557E-3,-1.7565013E-3,4.3985734E-4],"categories":[],"categories_nodes":[],"categories_segments":[],"categories_sizes":[],"default_left":[0,0,0,0,0,0,0,0,0,0,0,0,0,0,0],"id":61,"left_children":[1,3,5,7,9,11,13,-1,-1,-1,-1,-1,-1,-1,-1],"loss_changes":[7.110011E0,1.1870766E1,9.825084E0,6.498974E0,7.235503E0,9.837981E0,5.621359E0,0E0,0E0,0E0,0E0,0E0,0E0,0E0,0E0],"parents":[2147483647,0,0,1,1,2,2,3,3,4,4,5,5,6,6],"right_children":[2,4,6,8,10,12,14,-1,-1,-1,-1,-1,-1,-1,-1],"split_conditions":[1.11906E-3,-4.730345E-2,1.006102E0,-8.04483E-3,1.1549579E-1,-1.3582501E0,8.497686E-2,-6.576921E-4,3.242864E-3,-2.6110576E-3,-3.7736836E-4,-1.8112757E-3,3.1892557E-3,-1.7565013E-3,4.3985734E-4],"split_indices":[0,1,2,20,5,5,16,0,0,0,0,0,0,0,0],"split_type":[0,0,0,0,0,0,0,0,0,0,0,0,0,0,0],"sum_hessian":[1.5112595E3,7.587818E2,7.5247766E2,1.6544305E2,5.9333875E2,2.3517274E2,5.1730493E2,7.532157E1,9.012148E1,3.0902792E2,2.843108E2,4.6816074E1,1.8835667E2,1.7212376E2,3.4518118E2],"tree_param":{"num_deleted":"0","num_feature":"23","num_nodes":"15","size_leaf_vector":"1"}},{"base_weights":[1.7256072E-2,6.371592E-2,-1.0245384E-1,7.787923E-2,-5.8986074E-1,-6.7292355E-2,-6.5941846E-1,-6.627164E-4,1.1374899E-3,-7.762184E-3,-2.6254551E-3,6.3723377E-3,-9.2352164E-4,-9.322574E-3,-2.0457744E-3],"categories":[],"categories_nodes":[],"categories_segments":[],"categories_sizes":[],"default_left":[0,0,0,0,0,0,0,0,0,0,0,0,0,0,0],"id":62,"left_children":[1,3,5,7,9,11,13,-1,-1,-1,-1,-1,-1,-1,-1],"loss_changes":[8.42656E0,9.986455E0,7.806095E0,5.6014524E0,4.603176E-1,6.902405E0,2.0246353E0,0E0,0E0,0E0,0E0,0E0,0E0,0E0,0E0],"parents":[2147483647,0,0,1,1,2,2,3,3,4,4,5,5,6,6],"right_children":[2,4,6,8,10,12,14,-1,-1,-1,-1,-1,-1,-1,-1],"split_conditions":[3.817709E-2,1.0449742E0,7.104575E1,2.5531803E1,8.0389315E-3,9.3790895E-1,4.169386E-2,-6.627164E-4,1.1374899E-3,-7.762184E-3,-2.6254551E-3,6.3723377E-3,-9.2352164E-4,-9.322574E-3,-2.0457744E-3],"split_indices":[8,22,13,6,11,22,8,0,0,0,0,0,0,0,0],"split_type":[0,0,0,0,0,0,0,0,0,0,0,0,0,0,0],"sum_hessian":[1.514239E3,1.0945518E3,4.1968723E2,1.0738086E3,2.0743229E1,3.977184E2,2.1968822E1,2.10845E2,8.6296356E2,1.0496499E1,1.024673E1,1.1297368E1,3.8642102E2,1.1732478E1,1.0236344E1],"tree_param":{"num_deleted":"0","num_feature":"23","num_nodes":"15","size_leaf_vector":"1"}},{"base_weights":[-1.847611E-2,6.5146293E-3,-2.8581053E-2,-3.3119708E-1,-1.2903531E-2,5.4061986E-3,-5.03583E-3,5.3356023E-4,-9.740416E-4],"categories":[],"categories_nodes":[],"categories_segments":[],"categories_sizes":[],"default_left":[0,0,0,0,0,0,0,0,0],"id":63,"left_children":[1,-1,3,5,7,-1,-1,-1,-1],"loss_changes":[9.875218E0,0E0,6.839103E0,1.1230523E1,7.9291573E0,0E0,0E0,0E0,0E0],"parents":[2147483647,0,0,2,2,3,3,4,4],"right_children":[2,-1,4,6,8,-1,-1,-1,-1],"split_conditions":[9.3790895E-1,6.5146293E-3,-1.7092345E-2,-2.1189306E-2,1.0133393E0,5.4061986E-3,-5.03583E-3,5.3356023E-4,-9.740416E-4],"split_indices":[22,0,20,12,22,0,0,0,0],"split_type":[0,0,0,0,0,0,0,0,0],"sum_hessian":[1.4972433E3,1.9626436E1,1.4776168E3,6.922644E1,1.4083904E3,1.0244367E1,5.8982075E1,7.864952E2,6.218952E2],"tree_param":{"num_deleted":"0","num_feature":"23","num_nodes":"9","size_leaf_vector":"1"}},{"base_weights":[-1.3126461E-2,-7.997458E-2,9.18649E-2,1.6098155E-2,-1.9724627E-1,7.843537E-1,5.099037E-2,-1.168498E-3,1.6504994E-3,-2.4502736E-4,-3.5173842E-3,4.1180938E-3,1.0151715E-2,1.1048774E-3,-3.7369288E-3],"categories":[],"categories_nodes":[],"categories_segments":[],"categories_sizes":[],"default_left":[0,0,0,0,0,0,0,0,0,0,0,0,0,0,0],"id":64,"left_children":[1,3,5,7,9,11,13,-1,-1,-1,-1,-1,-1,-1,-1],"loss_changes":[1.0481815E1,1.0413757E1,1.5877285E1,1.0020516E1,1.0865961E1,1.1524601E0,1.3825167E1,0E0,0E0,0E0,0E0,0E0,0E0,0E0,0E0],"parents":[2147483647,0,0,1,1,2,2,3,3,4,4,5,5,6,6],"right_children":[2,4,6,8,10,12,14,-1,-1,-1,-1,-1,-1,-1,-1],"split_conditions":[2.7500086E-3,3.1311924E-3,3.2094833E-3,-5.3028907E-3,-3.6712142E-3,1.8969272E-1,2.6720848E-2,-1.168498E-3,1.6504994E-3,-2.4502736E-4,-3.5173842E-3,4.1180938E-3,1.0151715E-2,1.1048774E-3,-3.7369288E-3],"split_indices":[20,11,20,0,20,15,12,0,0,0,0,0,0,0,0],"split_type":[0,0,0,0,0,0,0,0,0,0,0,0,0,0,0],"sum_hessian":[1.4902141E3,9.136995E2,5.7651465E2,5.0084946E2,4.1285004E2,2.942308E1,5.4709155E2,2.6309576E2,2.3775371E2,1.9753372E2,2.1531633E2,1.42147255E1,1.5208355E1,4.8219403E2,6.489752E1],"tree_param":{"num_deleted":"0","num_feature":"23","num_nodes":"15","size_leaf_vector":"1"}},{"base_weights":[-4.5305777E-2,-2.5782332E-1,-5.0757807E-3,-7.4075714E-2,-6.4021534E-1,1.21101454E-1,-8.085966E-2,-3.6858795E-3,1.5417379E-3,-4.7321683E-3,-1.1645292E-2,1.8011401E-3,-3.8927807E-3,-2.5054046E-3,7.1172987E-4],"categories":[],"categories_nodes":[],"categories_segments":[],"categories_sizes":[],"default_left":[0,0,0,0,0,0,0,0,0,0,0,0,0,0,0],"id":65,"left_children":[1,3,5,7,9,11,13,-1,-1,-1,-1,-1,-1,-1,-1],"loss_changes":[1.2899161E1,1.6455257E1,1.2294571E1,1.13577585E1,4.8169765E0,1.4517058E1,2.0943373E1,0E0,0E0,0E0,0E0,0E0,0E0,0E0,0E0],"parents":[2147483647,0,0,1,1,2,2,3,3,4,4,5,5,6,6],"right_children":[2,4,6,8,10,12,14,-1,-1,-1,-1,-1,-1,-1,-1],"split_conditions":[-8.506915E-3,-1.1648865E-2,1.3007269E-3,-1.7092345E-2,7.4049095E-3,1.2266648E-2,2.7500086E-3,-3.6858795E-3,1.5417379E-3,-4.7321683E-3,-1.1645292E-2,1.8011401E-3,-3.8927807E-3,-2.5054046E-3,7.1172987E-4],"split_indices":[20,20,21,20,21,20,20,0,0,0,0,0,0,0,0],"split_type":[0,0,0,0,0,0,0,0,0,0,0,0,0,0,0],"sum_hessian":[1.5224291E3,2.3862599E2,1.2838031E3,1.6367271E2,7.495328E1,4.788097E2,8.0499335E2,7.188273E1,9.178999E1,6.0456184E1,1.4497095E1,4.3122342E2,4.758628E1,3.8135883E2,4.2363455E2],"tree_param":{"num_deleted":"0","num_feature":"23","num_nodes":"15","size_leaf_vector":"1"}},{"base_weights":[-2.1941528E-2,8.7562345E-2,-9.053643E-2,1.3607681E-1,-3.011527E-1,-5.928894E-1,-6.892334E-2,-1.5768283E-3,1.785438E-3,-5.084967E-3,2.1994372E-3,-7.7255177E-3,-1.6677087E-3,-9.7311876E-4,1.8666516E-3],"categories":[],"categories_nodes":[],"categories_segments":[],"categories_sizes":[],"default_left":[0,0,0,0,0,0,0,0,0,0,0,0,0,0,0],"id":66,"left_children":[1,3,5,7,9,11,13,-1,-1,-1,-1,-1,-1,-1,-1],"loss_changes":[1.1415658E1,1.0987459E1,9.758627E0,6.5604296E0,7.2970157E0,2.1378183E0,6.531866E0,0E0,0E0,0E0,0E0,0E0,0E0,0E0,0E0],"parents":[2147483647,0,0,1,1,2,2,3,3,4,4,5,5,6,6],"right_children":[2,4,6,8,10,12,14,-1,-1,-1,-1,-1,-1,-1,-1],"split_conditions":[-4.2870957E-3,1.0300958E0,-3.234938E-3,-2.529593E-2,2.8239502E-2,5.8399113E1,4.0819943E-1,-1.5768283E-3,1.785438E-3,-5.084967E-3,2.1994372E-3,-7.7255177E-3,-1.6677087E-3,-9.7311876E-4,1.8666516E-3],"split_indices":[12,5,12,0,11,13,15,0,0,0,0,0,0,0,0],"split_type":[0,0,0,0,0,0,0,0,0,0,0,0,0,0,0],"sum_hessian":[1.5154673E3,5.806632E2,9.3480414E2,5.185327E2,6.213049E1,3.5424923E1,8.993792E2,6.3320675E1,4.5521204E2,4.51666E1,1.6963894E1,2.2949469E1,1.2475452E1,8.123457E2,8.703348E1],"tree_param":{"num_deleted":"0","num_feature":"23","num_nodes":"15","size_leaf_vector":"1"}},{"base_weights":[-5.7457867E-3,-1.8201794E-1,2.6366908E-2,4.741015E-2,-7.209727E-1,5.0365284E-2,-2.6745194E-1,-1.2025612E-3,5.853518E-3,-2.229099E-3,-9.387587E-3,7.770102E-4,-2.725248E-3,-5.4401527E-3,7.3102413E-4],"categories":[],"categories_nodes":[],"categories_segments":[],"categories_sizes":[],"default_left":[0,0,0,0,0,0,0,0,0,0,0,0,0,0,0],"id":67,"left_children":[1,3,5,7,9,11,13,-1,-1,-1,-1,-1,-1,-1,-1],"loss_changes":[8.654193E0,2.9571194E1,8.940636E0,1.5406148E1,6.72406E0,1.0414642E1,9.296608E0,0E0,0E0,0E0,0E0,0E0,0E0,0E0,0E0],"parents":[2147483647,0,0,1,1,2,2,3,3,4,4,5,5,6,6],"right_children":[2,4,6,8,10,12,14,-1,-1,-1,-1,-1,-1,-1,-1],"split_conditions":[-8.506915E-3,-1.1648865E-2,7.190153E1,-1.3778579E-2,-2.122573E-2,7.736726E-2,5.9808113E-2,-1.2025612E-3,5.853518E-3,-2.229099E-3,-9.387587E-3,7.770102E-4,-2.725248E-3,-5.4401527E-3,7.3102413E-4],"split_indices":[20,20,13,20,0,1,1,0,0,0,0,0,0,0,0],"split_type":[0,0,0,0,0,0,0,0,0,0,0,0,0,0,0],"sum_hessian":[1.51141E3,2.3387325E2,1.2775369E3,1.6467076E2,6.9202484E1,1.1841753E3,9.3361534E1,1.2601706E2,3.8653706E1,2.2983519E1,4.6218964E1,1.0945762E3,8.959912E1,5.1672077E1,4.1689457E1],"tree_param":{"num_deleted":"0","num_feature":"23","num_nodes":"15","size_leaf_vector":"1"}},{"base_weights":[-8.479936E-3,1.0548979E-2,-1.8865118E-2,2.6621867E-2,-1.844156E-1,-2.0040844E-3,8.2618784E-4,-2.595606E-3,1.7452004E-3],"categories":[],"categories_nodes":[],"categories_segments":[],"categories_sizes":[],"default_left":[0,0,0,0,0,0,0,0,0],"id":68,"left_children":[1,-1,3,5,7,-1,-1,-1,-1],"loss_changes":[1.6292135E1,0E0,1.1431993E1,1.4988735E1,8.961026E0,0E0,0E0,0E0,0E0],"parents":[2147483647,0,0,2,2,3,3,4,4],"right_children":[2,-1,4,6,8,-1,-1,-1,-1],"split_conditions":[9.342852E-1,1.0548979E-2,1.0235151E0,-8.257137E-3,3.9250933E-2,-2.0040844E-3,8.2618784E-4,-2.595606E-3,1.7452004E-3],"split_indices":[22,0,22,20,21,0,0,0,0],"split_type":[0,0,0,0,0,0,0,0,0],"sum_hessian":[1.5165897E3,1.2256927E1,1.5043328E3,1.1790365E3,3.252963E2,2.304852E2,9.485513E2,2.70593E2,5.4703304E1],"tree_param":{"num_deleted":"0","num_feature":"23","num_nodes":"9","size_leaf_vector":"1"}},{"base_weights":[1.8324263E-2,4.9066216E-2,-2.213569E-1,7.256214E-3,3.7705366E-2,-4.3103403E-1,7.580315E-2,-1.4499202E-3,1.0045548E-3,-8.813491E-3,-2.410852E-3,6.401131E-3,-1.051165E-3],"categories":[],"categories_nodes":[],"categories_segments":[],"categories_sizes":[],"default_left":[0,0,0,0,0,0,0,0,0,0,0,0,0],"id":69,"left_children":[1,3,5,-1,7,9,11,-1,-1,-1,-1,-1,-1],"loss_changes":[1.1078571E1,9.892865E0,1.0862249E1,0E0,1.519136E1,7.671091E0,7.6734695E0,0E0,0E0,0E0,0E0,0E0,0E0],"parents":[2147483647,0,0,1,1,2,2,4,4,5,5,6,6],"right_children":[2,4,6,-1,8,10,12,-1,-1,-1,-1,-1,-1],"split_conditions":[1.0304543E0,9.3790895E-1,2.3673126E-2,7.256214E-3,-1.07328845E-2,-5.8307784E-4,-8.8305496E-2,-1.4499202E-3,1.0045548E-3,-8.813491E-3,-2.410852E-3,6.401131E-3,-1.051165E-3],"split_indices":[22,22,18,0,21,20,14,0,0,0,0,0,0],"split_type":[0,0,0,0,0,0,0,0,0,0,0,0,0],"sum_hessian":[1.5102953E3,1.3418622E3,1.6843306E2,1.9357262E1,1.322505E3,9.9211006E1,6.922205E1,3.3539902E2,9.8710596E2,2.6492535E1,7.2718475E1,1.6243643E1,5.297841E1],"tree_param":{"num_deleted":"0","num_feature":"23","num_nodes":"13","size_leaf_vector":"1"}},{"base_weights":[1.3070172E-3,6.020252E-3,-7.060494E-3,-1.3866037E-1,2.9506342E-2,-1.2511224E-4,-5.4907613E-3,8.533448E-3,-2.8516185E-6],"categories":[],"categories_nodes":[],"categories_segments":[],"categories_sizes":[],"default_left":[0,0,0,0,0,0,0,0,0],"id":70,"left_children":[1,-1,3,5,7,-1,-1,-1,-1],"loss_changes":[7.978941E0,0E0,7.3131986E0,1.6839573E1,2.9332708E1,0E0,0E0,0E0,0E0],"parents":[2147483647,0,0,2,2,3,3,4,4],"right_children":[2,-1,4,6,8,-1,-1,-1,-1],"split_conditions":[9.3790895E-1,6.020252E-3,-1.1533013E-2,-1.8249756E-2,-9.149272E-3,-1.2511224E-4,-5.4907613E-3,8.533448E-3,-2.8516185E-6],"split_indices":[22,0,21,21,21,0,0,0,0],"split_type":[0,0,0,0,0,0,0,0,0],"sum_hessian":[1.5244962E3,1.981482E1,1.5046814E3,3.289429E2,1.1757384E3,2.5411502E2,7.482788E1,3.9689224E1,1.1360492E3],"tree_param":{"num_deleted":"0","num_feature":"23","num_nodes":"9","size_leaf_vector":"1"}},{"base_weights":[1.8843567E-2,3.0838082E-2,-6.0787237E-1,7.431677E-2,-1.2959804E-1,-1.0092328E-2,-1.2040448E-3,2.7078213E-3,2.90988E-4,-1.8000046E-3,5.6459517E-3],"categories":[],"categories_nodes":[],"categories_segments":[],"categories_sizes":[],"default_left":[0,0,0,0,0,0,0,0,0,0,0],"id":71,"left_children":[1,3,5,7,9,-1,-1,-1,-1,-1,-1],"loss_changes":[1.1028984E1,1.0281088E1,4.571228E0,1.0177522E1,1.0955257E1,0E0,0E0,0E0,0E0,0E0,0E0],"parents":[2147483647,0,0,1,1,2,2,3,3,4,4],"right_children":[2,4,6,8,10,-1,-1,-1,-1,-1,-1],"split_conditions":[4.939319E-2,1.0232576E0,1.0317551E0,-1.4202173E-1,4.1357327E-2,-1.0092328E-2,-1.2040448E-3,2.7078213E-3,2.90988E-4,-1.8000046E-3,5.6459517E-3],"split_indices":[21,22,22,19,10,0,0,0,0,0,0],"split_type":[0,0,0,0,0,0,0,0,0,0,0],"sum_hessian":[1.4985691E3,1.4730757E3,2.5493324E1,1.1622834E3,3.1079233E2,1.2244937E1,1.3248388E1,2.1352304E2,9.487604E2,2.9180713E2,1.898521E1],"tree_param":{"num_deleted":"0","num_feature":"23","num_nodes":"11","size_leaf_vector":"1"}},{"base_weights":[-7.510694E-3,-1.8057738E-1,2.4216358E-2,-2.9058965E-2,-5.1921713E-1,2.7486297E-1,-3.247471E-2,-2.6700413E-3,3.989561E-3,-8.261934E-3,-1.940936E-3,7.826135E-3,1.0494265E-3,1.1549865E-4,-3.7152898E-3],"categories":[],"categories_nodes":[],"categories_segments":[],"categories_sizes":[],"default_left":[0,0,0,0,0,0,0,0,0,0,0,0,0,0,0],"id":72,"left_children":[1,3,5,7,9,11,13,-1,-1,-1,-1,-1,-1,-1,-1],"loss_changes":[8.457929E0,1.1951643E1,1.8436007E1,1.7273386E1,6.424797E0,2.0043154E1,1.5866179E1,0E0,0E0,0E0,0E0,0E0,0E0,0E0,0E0],"parents":[2147483647,0,0,1,1,2,2,3,3,4,4,5,5,6,6],"right_children":[2,4,6,8,10,12,14,-1,-1,-1,-1,-1,-1,-1,-1],"split_conditions":[-8.506915E-3,-1.1648865E-2,-3.0702723E-3,-1.1533013E-2,-1.0315686E-2,-1.6934114E-2,2.616478E-2,-2.6700413E-3,3.989561E-3,-8.261934E-3,-1.940936E-3,7.826135E-3,1.0494265E-3,1.1549865E-4,-3.7152898E-3],"split_indices":[20,20,20,21,20,21,12,0,0,0,0,0,0,0,0],"split_type":[0,0,0,0,0,0,0,0,0,0,0,0,0,0,0],"sum_hessian":[1.522524E3,2.3686026E2,1.2856638E3,1.6616206E2,7.069819E1,2.3735883E2,1.0483049E3,1.0802731E2,5.8134754E1,3.3987514E1,3.6710674E1,5.69697E1,1.8038913E2,9.282352E2,1.20069725E2],"tree_param":{"num_deleted":"0","num_feature":"23","num_nodes":"15","size_leaf_vector":"1"}},{"base_weights":[1.199055E-2,9.826876E-2,-5.736384E-2,-5.706747E-2,2.4842437E-1,-8.0330193E-1,-2.0367354E-2,7.767997E-4,-6.833728E-3,3.7307895E-3,-2.2082895E-3,-1.0817482E-2,-2.9434192E-3,-1.8304099E-3,1.4288469E-3],"categories":[],"categories_nodes":[],"categories_segments":[],"categories_sizes":[],"default_left":[0,0,0,0,0,0,0,0,0,0,0,0,0,0,0],"id":73,"left_children":[1,3,5,7,9,11,13,-1,-1,-1,-1,-1,-1,-1,-1],"loss_changes":[9.000792E0,1.5795884E1,2.2433315E1,2.8279278E1,2.0343065E1,4.1287975E0,2.1119007E1,0E0,0E0,0E0,0E0,0E0,0E0,0E0,0E0],"parents":[2147483647,0,0,1,1,2,2,3,3,4,4,5,5,6,6],"right_children":[2,4,6,8,10,12,14,-1,-1,-1,-1,-1,-1,-1,-1],"split_conditions":[1.665978E-3,-1.1810946E-2,3.0327628E-3,3.2094833E-3,1.0134325E0,2.4115786E-1,2.7500086E-3,7.767997E-4,-6.833728E-3,3.7307895E-3,-2.2082895E-3,-1.0817482E-2,-2.9434192E-3,-1.8304099E-3,1.4288469E-3],"split_indices":[21,21,21,20,22,15,20,0,0,0,0,0,0,0,0],"split_type":[0,0,0,0,0,0,0,0,0,0,0,0,0,0,0],"sum_hessian":[1.496898E3,6.6990216E2,8.269957E2,3.2824362E2,3.4165857E2,3.6482395E1,7.9051337E2,2.7091153E2,5.7332077E1,2.71114E2,7.0544556E1,2.149145E1,1.4990946E1,3.973708E2,3.9314258E2],"tree_param":{"num_deleted":"0","num_feature":"23","num_nodes":"15","size_leaf_vector":"1"}},{"base_weights":[1.7998802E-2,8.375295E-3,6.136879E-3,-1.8204309E-1,3.943336E-2,-0E0,-5.596393E-3,5.354212E-4,-5.4960293E-3],"categories":[],"categories_nodes":[],"categories_segments":[],"categories_sizes":[],"default_left":[0,0,0,0,0,0,0,0,0],"id":74,"left_children":[1,-1,3,5,7,-1,-1,-1,-1],"loss_changes":[1.4330606E1,0E0,9.3388815E0,1.5285423E1,1.0431887E1,0E0,0E0,0E0,0E0],"parents":[2147483647,0,0,2,2,3,3,4,4],"right_children":[2,-1,4,6,8,-1,-1,-1,-1],"split_conditions":[9.3790895E-1,8.375295E-3,-8.506915E-3,-1.1648865E-2,4.939319E-2,-0E0,-5.596393E-3,5.354212E-4,-5.4960293E-3],"split_indices":[22,0,20,20,21,0,0,0,0],"split_type":[0,0,0,0,0,0,0,0,0],"sum_hessian":[1.5166091E3,1.9050644E1,1.4975585E3,2.2154019E2,1.2760183E3,1.5108249E2,7.045772E1,1.2487744E3,2.7243944E1],"tree_param":{"num_deleted":"0","num_feature":"23","num_nodes":"9","size_leaf_vector":"1"}},{"base_weights":[3.328523E-3,-5.90822E-3,1.1962761E-2,5.0591424E-2,-1.2297697E-1,-1.8464388E-4,1.589053E-3,-6.5271202E-3,-5.9749995E-4],"categories":[],"categories_nodes":[],"categories_segments":[],"categories_sizes":[],"default_left":[0,0,0,0,0,0,0,0,0],"id":75,"left_children":[1,-1,3,5,7,-1,-1,-1,-1],"loss_changes":[7.4995837E0,0E0,7.7775517E0,8.8112755E0,1.0645045E1,0E0,0E0,0E0,0E0],"parents":[2147483647,0,0,2,2,3,3,4,4],"right_children":[2,-1,4,6,8,-1,-1,-1,-1],"split_conditions":[-6.647449E-2,-5.90822E-3,1.0232576E0,2.3841335E-1,-2.5259548E-1,-1.8464388E-4,1.589053E-3,-6.5271202E-3,-5.9749995E-4],"split_indices":[12,0,22,15,5,0,0,0,0],"split_type":[0,0,0,0,0,0,0,0,0],"sum_hessian":[1.5135594E3,1.8918953E1,1.4946405E3,1.1658522E3,3.2878836E2,7.1014197E2,4.5571017E2,3.2226894E1,2.9656146E2],"tree_param":{"num_deleted":"0","num_feature":"23","num_nodes":"9","size_leaf_vector":"1"}},{"base_weights":[-1.1879907E-3,8.457355E-3,-1.3530547E-2,-1.8665244E-1,1.6942676E-2,-4.0254157E-4,-5.285318E-3,2.2077402E-3,-2.975764E-4],"categories":[],"categories_nodes":[],"categories_segments":[],"categories_sizes":[],"default_left":[0,0,0,0,0,0,0,0,0],"id":76,"left_children":[1,-1,3,5,7,-1,-1,-1,-1],"loss_changes":[1.5498419E1,0E0,8.009712E0,1.1048649E1,1.2251982E1,0E0,0E0,0E0,0E0],"parents":[2147483647,0,0,2,2,3,3,4,4],"right_children":[2,-1,4,6,8,-1,-1,-1,-1],"split_conditions":[9.3790895E-1,8.457355E-3,-8.506915E-3,-1.1648865E-2,-3.0702723E-3,-4.0254157E-4,-5.285318E-3,2.2077402E-3,-2.975764E-4],"split_indices":[22,0,20,20,20,0,0,0,0],"split_type":[0,0,0,0,0,0,0,0,0],"sum_hessian":[1.5182648E3,1.9286787E1,1.4989779E3,2.2528209E2,1.2736958E3,1.6032593E2,6.495617E1,2.380292E2,1.0356666E3],"tree_param":{"num_deleted":"0","num_feature":"23","num_nodes":"9","size_leaf_vector":"1"}},{"base_weights":[-1.12137655E-2,2.6878323E-3,-5.4446214E-1,-1.3277326E-2,6.2788963E-1,-7.919287E-1,5.958412E-4,-0E0,-7.427023E-3,1.9416794E-4,8.735818E-3,-3.483697E-3,-1.0938414E-2],"categories":[],"categories_nodes":[],"categories_segments":[],"categories_sizes":[],"default_left":[0,0,0,0,0,0,0,0,0,0,0,0,0],"id":77,"left_children":[1,3,5,7,9,11,-1,-1,-1,-1,-1,-1,-1],"loss_changes":[1.15194435E1,1.5091996E1,6.360099E0,1.434807E1,5.1499634E0,2.3633976E0,0E0,0E0,0E0,0E0,0E0,0E0,0E0],"parents":[2147483647,0,0,1,1,2,2,3,3,4,4,5,5],"right_children":[2,4,6,8,10,12,-1,-1,-1,-1,-1,-1,-1],"split_conditions":[4.6584498E-2,3.9858785E-2,5.9861996E1,3.715674E-2,7.029695E1,1.3242593E-2,5.958412E-4,-0E0,-7.427023E-3,1.9416794E-4,8.735818E-3,-3.483697E-3,-1.0938414E-2],"split_indices":[21,21,4,21,6,10,0,0,0,0,0,0,0],"split_type":[0,0,0,0,0,0,0,0,0,0,0,0,0],"sum_hessian":[1.5150137E3,1.4775469E3,3.7466854E1,1.4418846E3,3.5662197E1,2.6724142E1,1.0742713E1,1.4174117E3,2.4472864E1,1.1463993E1,2.4198202E1,1.3238497E1,1.3485646E1],"tree_param":{"num_deleted":"0","num_feature":"23","num_nodes":"13","size_leaf_vector":"1"}},{"base_weights":[-8.816542E-3,7.7350736E-2,-8.0751784E-2,-1.0266711E-1,2.6380748E-1,-3.1934002E-1,2.9845715E-2,1.7824769E-4,-5.8572344E-3,1.0380747E-2,1.9400496E-3,-3.957938E-3,2.0232578E-3,-9.856535E-3,7.2336086E-4],"categories":[],"categories_nodes":[],"categories_segments":[],"categories_sizes":[],"default_left":[0,0,0,0,0,0,0,0,0,0,0,0,0,0,0],"id":78,"left_children":[1,3,5,7,9,11,13,-1,-1,-1,-1,-1,-1,-1,-1],"loss_changes":[9.318435E0,2.2987041E1,2.1860207E1,2.0470867E1,1.7159843E1,1.070742E1,2.3944378E1,0E0,0E0,0E0,0E0,0E0,0E0,0E0,0E0],"parents":[2147483647,0,0,1,1,2,2,3,3,4,4,5,5,6,6],"right_children":[2,4,6,8,10,12,14,-1,-1,-1,-1,-1,-1,-1,-1],"split_conditions":[1.665978E-3,-1.07328845E-2,-1.870928E-5,2.8613324E-3,-9.730671E-3,1.0718753E0,2.86338E-3,1.7824769E-4,-5.8572344E-3,1.0380747E-2,1.9400496E-3,-3.957938E-3,2.0232578E-3,-9.856535E-3,7.2336086E-4],"split_indices":[21,21,20,20,21,3,21,0,0,0,0,0,0,0,0],"split_type":[0,0,0,0,0,0,0,0,0,0,0,0,0,0,0],"sum_hessian":[1.4990562E3,6.7882623E2,8.202299E2,3.4446948E2,3.3435675E2,2.600275E2,5.602024E2,2.764131E2,6.805638E1,2.476382E1,3.0959293E2,2.2804669E2,3.19808E1,2.0243E1,5.399594E2],"tree_param":{"num_deleted":"0","num_feature":"23","num_nodes":"15","size_leaf_vector":"1"}},{"base_weights":[4.3900358E-3,1.7547594E-2,-4.6544328E-1,2.0444738E-3,5.8003235E-1,-9.84887E-2,-9.261104E-3,1.3933716E-4,-5.2666604E-3,-0E0,8.198071E-3,2.6513757E-3,-4.641405E-3],"categories":[],"categories_nodes":[],"categories_segments":[],"categories_sizes":[],"default_left":[0,0,0,0,0,0,0,0,0,0,0,0,0],"id":79,"left_children":[1,3,5,7,9,11,-1,-1,-1,-1,-1,-1,-1],"loss_changes":[9.137626E0,1.2555909E1,6.1041346E0,8.790298E0,5.766411E0,3.7000773E0,0E0,0E0,0E0,0E0,0E0,0E0,0E0],"parents":[2147483647,0,0,1,1,2,2,3,3,4,4,5,5],"right_children":[2,4,6,8,10,12,-1,-1,-1,-1,-1,-1,-1],"split_conditions":[4.6584498E-2,3.9858785E-2,2.0839205E-2,3.5659254E-2,-4.6911733E-3,3.1740602E-2,-9.261104E-3,1.3933716E-4,-5.2666604E-3,-0E0,8.198071E-3,2.6513757E-3,-4.641405E-3],"split_indices":[21,21,10,21,12,8,0,0,0,0,0,0,0],"split_type":[0,0,0,0,0,0,0,0,0,0,0,0,0],"sum_hessian":[1.5097197E3,1.4715002E3,3.821947E1,1.4348494E3,3.6650925E1,2.3228928E1,1.4990541E1,1.4061226E3,2.8726831E1,1.0722815E1,2.592811E1,1.1236767E1,1.1992162E1],"tree_param":{"num_deleted":"0","num_feature":"23","num_nodes":"13","size_leaf_vector":"1"}},{"base_weights":[1.6417924E-2,1.0290944E-1,-5.2753158E-2,1.2483407E-1,-7.6314113E-3,-1.8377292E-1,8.5385755E-2,-8.2378124E-4,2.323812E-3,-4.1480213E-3,-1.20069744E-4,-8.442775E-3,1.2688972E-3],"categories":[],"categories_nodes":[],"categories_segments":[],"categories_sizes":[],"default_left":[0,0,0,0,0,0,0,0,0,0,0,0,0],"id":80,"left_children":[1,3,5,7,-1,9,11,-1,-1,-1,-1,-1,-1],"loss_changes":[9.121864E0,1.2759303E1,1.5318983E1,1.4916595E1,0E0,1.702293E1,1.5650164E1,0E0,0E0,0E0,0E0,0E0,0E0],"parents":[2147483647,0,0,1,1,2,2,3,3,5,5,6,6],"right_children":[2,4,6,8,-1,10,12,-1,-1,-1,-1,-1,-1],"split_conditions":[1.665978E-3,1.94007E-2,2.7500086E-3,-7.470275E-3,-7.6314113E-3,1.0151169E0,2.86338E-3,-8.2378124E-4,2.323812E-3,-4.1480213E-3,-1.20069744E-4,-8.442775E-3,1.2688972E-3],"split_indices":[21,20,20,20,0,22,21,0,0,0,0,0,0],"split_type":[0,0,0,0,0,0,0,0,0,0,0,0,0],"sum_hessian":[1.5166973E3,6.767465E2,8.399508E2,6.622698E2,1.4476731E1,4.3260217E2,4.0734863E2,2.2485614E2,4.3741364E2,1.8202863E2,2.5057356E2,1.5240459E1,3.921082E2],"tree_param":{"num_deleted":"0","num_feature":"23","num_nodes":"13","size_leaf_vector":"1"}},{"base_weights":[2.4239188E-2,1.13120735E-1,-4.794016E-2,-5.2726287E-2,2.9133824E-1,-6.9056475E-1,-1.3161528E-2,2.0347773E-3,-2.308278E-3,1.1289441E-2,2.1101502E-3,-9.222357E-3,-1.7118647E-3,2.6332587E-4,-2.4416111E-3],"categories":[],"categories_nodes":[],"categories_segments":[],"categories_sizes":[],"default_left":[0,0,0,0,0,0,0,0,0,0,0,0,0,0,0],"id":81,"left_children":[1,3,5,7,9,11,13,-1,-1,-1,-1,-1,-1,-1,-1],"loss_changes":[9.688266E0,2.0173035E1,1.8134174E1,1.6130194E1,2.0941437E1,4.158766E0,7.3127403E0,0E0,0E0,0E0,0E0,0E0,0E0,0E0,0E0],"parents":[2147483647,0,0,1,1,2,2,3,3,4,4,5,5,6,6],"right_children":[2,4,6,8,10,12,14,-1,-1,-1,-1,-1,-1,-1,-1],"split_conditions":[1.665978E-3,-1.07328845E-2,3.0327628E-3,-2.8416172E-2,-9.730671E-3,2.6856285E-1,2.6720848E-2,2.0347773E-3,-2.308278E-3,1.1289441E-2,2.1101502E-3,-9.222357E-3,-1.7118647E-3,2.6332587E-4,-2.4416111E-3],"split_indices":[21,21,21,21,21,15,12,0,0,0,0,0,0,0,0],"split_type":[0,0,0,0,0,0,0,0,0,0,0,0,0,0,0],"sum_hessian":[1.5013843E3,6.7544055E2,8.259438E2,3.491389E2,3.2630167E2,3.973058E1,7.862132E2,1.4190797E2,2.0723093E2,2.5723505E1,3.0057816E2,2.5736643E1,1.3993938E1,6.7108496E2,1.15128235E2],"tree_param":{"num_deleted":"0","num_feature":"23","num_nodes":"15","size_leaf_vector":"1"}},{"base_weights":[8.8121435E-3,1.4871362E-1,-3.7898075E-2,-3.5314888E-3,2.800604E-1,-7.242118E-2,2.5305003E-1,6.521666E-4,-9.39117E-3,5.0304453E-3,7.979435E-4,-2.9873233E-3,-3.4935976E-4,9.029222E-3,1.3552089E-3],"categories":[],"categories_nodes":[],"categories_segments":[],"categories_sizes":[],"default_left":[0,0,0,0,0,0,0,0,0,0,0,0,0,0,0],"id":82,"left_children":[1,3,5,7,9,11,13,-1,-1,-1,-1,-1,-1,-1,-1],"loss_changes":[9.935053E0,7.760643E0,1.1306998E1,1.1925414E1,8.843933E0,8.415744E0,8.315941E0,0E0,0E0,0E0,0E0,0E0,0E0,0E0,0E0],"parents":[2147483647,0,0,1,1,2,2,3,3,4,4,5,5,6,6],"right_children":[2,4,6,8,10,12,14,-1,-1,-1,-1,-1,-1,-1,-1],"split_conditions":[-1.1139273E-2,3.18962E1,4.0819943E-1,1.006102E0,1.0094166E0,6.9713765E-1,2.5023982E-1,6.521666E-4,-9.39117E-3,5.0304453E-3,7.979435E-4,-2.9873233E-3,-3.4935976E-4,9.029222E-3,1.3552089E-3],"split_indices":[11,6,15,2,22,9,14,0,0,0,0,0,0,0,0],"split_type":[0,0,0,0,0,0,0,0,0,0,0,0,0,0,0],"sum_hessian":[1.5081196E3,3.7907907E2,1.1290405E3,1.7471037E2,2.043687E2,1.012161E3,1.1687956E2,1.6398657E2,1.0723804E1,9.408751E1,1.1028119E2,1.3995102E2,8.7220996E2,1.5201913E1,1.0167765E2],"tree_param":{"num_deleted":"0","num_feature":"23","num_nodes":"15","size_leaf_vector":"1"}},{"base_weights":[1.6145698E-4,8.126916E-3,-1.0679911E-2,-2.192829E-1,2.4069883E-2,-2.8396295E-3,6.1559253E-3,1.4369749E-3,-5.000656E-4],"categories":[],"categories_nodes":[],"categories_segments":[],"categories_sizes":[],"default_left":[0,0,0,0,0,0,0,0,0],"id":83,"left_children":[1,-1,3,5,7,-1,-1,-1,-1],"loss_changes":[1.3878006E1,0E0,1.1048226E1,1.1942803E1,1.1523156E1,0E0,0E0,0E0,0E0],"parents":[2147483647,0,0,2,2,3,3,4,4],"right_children":[2,-1,4,6,8,-1,-1,-1,-1],"split_conditions":[9.3790895E-1,8.126916E-3,-8.701218E-3,1.0718753E0,1.665978E-3,-2.8396295E-3,6.1559253E-3,1.4369749E-3,-5.000656E-4],"split_indices":[22,0,20,3,21,0,0,0,0],"split_type":[0,0,0,0,0,0,0,0,0],"sum_hessian":[1.5259528E3,1.875182E1,1.5072009E3,2.1576025E2,1.2914407E3,2.0202728E2,1.3732961E1,4.9573615E2,7.957046E2],"tree_param":{"num_deleted":"0","num_feature":"23","num_nodes":"9","size_leaf_vector":"1"}},{"base_weights":[-8.59067E-3,2.4481947E-3,-6.3204056E-1,-1.0814941E-2,4.037667E-1,-1.1712212E-2,-0E0,1.4176511E-5,-6.056152E-3,1.0371757E-2,-0E0],"categories":[],"categories_nodes":[],"categories_segments":[],"categories_sizes":[],"default_left":[0,0,0,0,0,0,0,0,0,0,0],"id":84,"left_children":[1,3,5,7,9,-1,-1,-1,-1,-1,-1],"loss_changes":[1.0680442E1,8.086676E0,8.759446E0,1.0738159E1,1.24523945E1,0E0,0E0,0E0,0E0,0E0,0E0],"parents":[2147483647,0,0,1,1,2,2,3,3,4,4],"right_children":[2,4,6,8,10,-1,-1,-1,-1,-1,-1],"split_conditions":[4.939319E-2,3.9858785E-2,5.41574E1,3.5659254E-2,4.2219844E-2,-1.1712212E-2,-0E0,1.4176511E-5,-6.056152E-3,1.0371757E-2,-0E0],"split_indices":[21,21,4,21,21,0,0,0,0,0,0],"split_type":[0,0,0,0,0,0,0,0,0,0,0],"sum_hessian":[1.5037079E3,1.4787157E3,2.4992126E1,1.432087E3,4.6628693E1,1.2246037E1,1.274609E1,1.4043597E3,2.7727282E1,1.6945414E1,2.9683279E1],"tree_param":{"num_deleted":"0","num_feature":"23","num_nodes":"11","size_leaf_vector":"1"}},{"base_weights":[-1.2978E-3,-2.7882302E-1,1.9940965E-2,1.584424E-1,-4.9839535E-1,3.2214887E-2,-5.818236E-1,-2.5752042E-3,3.8540107E-3,-6.7042806E-3,4.0038964E-3,1.2963368E-4,4.7896686E-3,-9.339391E-3,-0E0],"categories":[],"categories_nodes":[],"categories_segments":[],"categories_sizes":[],"default_left":[0,0,0,0,0,0,0,0,0,0,0,0,0,0,0],"id":85,"left_children":[1,3,5,7,9,11,13,-1,-1,-1,-1,-1,-1,-1,-1],"loss_changes":[9.090915E0,1.08655205E1,1.0182306E1,3.7975407E0,1.2161448E1,1.16555395E1,5.2978067E0,0E0,0E0,0E0,0E0,0E0,0E0,0E0,0E0],"parents":[2147483647,0,0,1,1,2,2,3,3,4,4,5,5,6,6],"right_children":[2,4,6,8,10,12,14,-1,-1,-1,-1,-1,-1,-1,-1],"split_conditions":[-3.1929478E-2,-2.3478968E-2,4.939319E-2,9.498062E-1,3.34294E-2,3.9250933E-2,5.2521435E1,-2.5752042E-3,3.8540107E-3,-6.7042806E-3,4.0038964E-3,1.2963368E-4,4.7896686E-3,-9.339391E-3,-0E0],"split_indices":[10,21,21,2,0,21,13,0,0,0,0,0,0,0,0],"split_type":[0,0,0,0,0,0,0,0,0,0,0,0,0,0,0],"sum_hessian":[1.5164778E3,1.0775377E2,1.408724E3,3.54456E1,7.2308174E1,1.3832346E3,2.5489395E1,1.1639931E1,2.3805666E1,6.158491E1,1.0723263E1,1.3291365E3,5.4098175E1,1.4742459E1,1.0746936E1],"tree_param":{"num_deleted":"0","num_feature":"23","num_nodes":"15","size_leaf_vector":"1"}},{"base_weights":[-9.00654E-4,-3.6954662E-1,1.606971E-2,-1.2718785E-1,-1.1914722E-2,1.0780167E-1,-5.296176E-2,5.6633684E-3,-3.4636538E-3,1.520255E-3,-3.925663E-3,-1.9813962E-3,9.1106026E-4],"categories":[],"categories_nodes":[],"categories_segments":[],"categories_sizes":[],"default_left":[0,0,0,0,0,0,0,0,0,0,0,0,0],"id":86,"left_children":[1,3,5,7,-1,9,11,-1,-1,-1,-1,-1,-1],"loss_changes":[9.639917E0,1.2556441E1,9.188378E0,8.660841E0,0E0,1.3811436E1,1.7296389E1,0E0,0E0,0E0,0E0,0E0,0E0],"parents":[2147483647,0,0,1,1,2,2,3,3,5,5,6,6],"right_children":[2,4,6,8,-1,10,12,-1,-1,-1,-1,-1,-1],"split_conditions":[-1.773849E-2,-1.9603165E-2,1.665978E-3,-1.5622946E-2,-1.1914722E-2,1.2266648E-2,2.8613324E-3,5.6633684E-3,-3.4636538E-3,1.520255E-3,-3.925663E-3,-1.9813962E-3,9.1106026E-4],"split_indices":[20,20,21,12,0,20,20,0,0,0,0,0,0],"split_type":[0,0,0,0,0,0,0,0,0,0,0,0,0],"sum_hessian":[1.5087443E3,6.586543E1,1.4428788E3,5.311993E1,1.2745503E1,6.221969E2,8.2068195E2,1.1447739E1,4.167219E1,5.738685E2,4.8328392E1,4.1012088E2,4.1056107E2],"tree_param":{"num_deleted":"0","num_feature":"23","num_nodes":"13","size_leaf_vector":"1"}},{"base_weights":[-4.5778314E-3,7.8415826E-2,-8.141692E-2,-1.8104216E-1,1.4010255E-1,-2.2141552E-1,-8.42735E-3,