{"learner":{"attributes":{"best_iteration":"1","best_score":"0.5236745129154544","scikit_learn":"{\"_estimator_type\": \"classifier\"}"},"feature_names":["return_1d","return_5d","price_to_ma5","ma5_to_ma20","rsi","macd_diff","stoch_k","bb_pct","atr_pct","volume_ratio","return_lag1","return_lag2","return_lag3","rsi_lag1","finbert_score_mean","finbert_pos_mean","finbert_neg_mean","news_count","sentiment_lag1","sentiment_lag2","spy_return_1d","spy_return_5d","spy_ma_ratio"],"feature_types":["float","float","float","float","float","float","float","float","float","float","float","float","float","float","float","float","float","float","float","float","float","float","float"],"gradient_booster":{"model":{"cats":{"enc":[],"feature_segments":[],"sorted_idx":[]},"gbtree_model_param":{"num_parallel_tree":"1","num_trees":"102"},"iteration_indptr":[0,1,2,3,4,5,6,7,8,9,10,11,12,13,14,15,16,17,18,19,20,21,22,23,24,25,26,27,28,29,30,31,32,33,34,35,36,37,38,39,40,41,42,43,44,45,46,47,48,49,50,51,52,53,54,55,56,57,58,59,60,61,62,63,64,65,66,67,68,69,70,71,72,73,74,75,76,77,78,79,80,81,82,83,84,85,86,87,88,89,90,91,92,93,94,95,96,97,98,99,100,101,102],"tree_info":[0,0,0,0,0,0,0,0,0,0,0,0,0,0,0,0,0,0,0,0,0,0,0,0,0,0,0,0,0,0,0,0,0,0,0,0,0,0,0,0,0,0,0,0,0,0,0,0,0,0,0,0,0,0,0,0,0,0,0,0,0,0,0,0,0,0,0,0,0,0,0,0,0,0,0,0,0,0,0,0,0,0,0,0,0,0,0,0,0,0,0,0,0,0,0,0,0,0,0,0,0,0],"trees":[{"base_weights":[3.6609713E-3,7.1475604E-3,-7.877599E-3,-2.3765314E-1,3.3366796E-2,-5.0968327E-2,-6.281943E-1,1.0595811E-1,-1.8443863E-1,-2.9252988E-1,3.7641814E-1,-8.802244E-3,-4.552285E-1,3.3451647E-1,4.3975104E-2,-3.2662278E-1,1.8270478E-2,2.385215E-3,-4.0531196E-3,-5.6948175E-4,9.233588E-3,-1.7725636E-4,-6.6946265E-3,8.652818E-3,1.980722E-3,-6.634813E-3,6.6683366E-4,-3.7904351E-3,1.3534903E-3,1.3444569E-3,-2.3589747E-3],"categories":[],"categories_nodes":[],"categories_segments":[],"categories_sizes":[],"default_left":[0,0,0,0,0,0,0,0,0,0,0,0,0,0,0,0,0,0,0,0,0,0,0,0,0,0,0,0,0,0,0],"id":0,"left_children":[1,-1,3,5,7,9,11,13,15,17,19,-1,21,23,25,27,29,-1,-1,-1,-1,-1,-1,-1,-1,-1,-1,-1,-1,-1,-1],"loss_changes":[1.7883245E1,0E0,1.7072865E1,1.9895908E1,2.4202366E1,1.9736763E1,5.1903534E0,1.6212135E1,1.1051355E1,1.3836323E1,2.253001E1,0E0,1.0019106E1,1.6072292E1,2.7164856E1,1.4048729E1,6.957707E0,0E0,0E0,0E0,0E0,0E0,0E0,0E0,0E0,0E0,0E0,0E0,0E0,0E0,0E0],"parents":[2147483647,0,0,2,2,3,3,4,4,5,5,6,6,7,7,8,8,9,9,10,10,12,12,13,13,14,14,15,15,16,16],"right_children":[2,-1,4,6,8,10,12,14,16,18,20,-1,22,24,26,28,30,-1,-1,-1,-1,-1,-1,-1,-1,-1,-1,-1,-1,-1,-1],"split_conditions":[9.3790895E-1,7.1475604E-3,-8.506915E-3,-1.1648865E-2,1.0235151E0,-1.1533013E-2,9.6997285E-1,-3.0702723E-3,9.467949E-3,9.6536833E-1,-1.3859261E-2,-8.802244E-3,-7.258024E-3,-2.7706739E-2,-2.552639E-3,1.1749722E-2,6.6163912E-3,2.385215E-3,-4.0531196E-3,-5.6948175E-4,9.233588E-3,-1.7725636E-4,-6.6946265E-3,8.652818E-3,1.980722E-3,-6.634813E-3,6.6683366E-4,-3.7904351E-3,1.3534903E-3,1.3444569E-3,-2.3589747E-3],"split_indices":[22,0,20,20,22,21,22,20,12,22,20,0,21,21,20,20,20,0,0,0,0,0,0,0,0,0,0,0,0,0,0],"split_type":[0,0,0,0,0,0,0,0,0,0,0,0,0,0,0,0,0,0,0,0,0,0,0,0,0,0,0,0,0,0,0],"sum_hessian":[1.8182267E3,2.1793045E1,1.7964336E3,2.7151746E2,1.5249161E3,1.8573845E2,8.577902E1,1.1447817E3,3.801344E2,1.1921493E2,6.652352E1,2.0996952E1,6.478207E1,2.4171373E2,9.03068E2,2.22508E2,1.576264E2,2.9355928E1,8.985899E1,4.2740242E1,2.3783278E1,2.9903242E1,3.4878822E1,2.661936E1,2.1509438E2,3.4630043E1,8.684379E2,1.7703117E2,4.547681E1,1.0777109E2,4.9855324E1],"tree_param":{"num_deleted":"0","num_feature":"23","num_nodes":"31","size_leaf_vector":"1"}},{"base_weights":[2.0055564E-3,1.0932783E-1,-8.4499344E-2,-6.513036E-2,2.8194782E-1,-7.9197687E-1,-4.4914506E-2,-3.4555647E-1,1.6244678E-1,7.931285E-1,1.9657595E-1,-9.048071E-3,-2.256765E-3,-2.1439674E-1,1.2960471E-1,-1.5113856E-1,-7.8143674E-1,5.5988157E-1,-4.773481E-1,8.6832605E-3,3.4000825E-3,-1.8634781E-1,3.1999153E-1,-4.4914952E-1,-1.4850758E-1,1.9074686E-1,-5.93606E-1,-2.9608802E-4,-5.8377483E-3,-4.30341E-3,-9.645876E-3,7.818445E-3,-4.093691E-3,-6.2359194E-3,2.1231773E-3,-6.072024E-3,3.8712566E-5,6.499557E-3,1.9108198E-3,-3.3530188E-4,-4.7346964E-3,1.1053816E-4,-2.0054015E-3,1.229585E-3,8.204402E-3,-2.1550327E-3,-7.460273E-3],"categories":[],"categories_nodes":[],"categories_segments":[],"categories_sizes":[],"default_left":[0,0,0,0,0,0,0,0,0,0,0,0,0,0,0,0,0,0,0,0,0,0,0,0,0,0,0,0,0,0,0,0,0,0,0,0,0,0,0,0,0,0,0,0,0,0,0],"id":1,"left_children":[1,3,5,7,9,11,13,15,17,19,21,-1,-1,23,25,27,29,31,33,-1,-1,35,37,39,41,43,45,-1,-1,-1,-1,-1,-1,-1,-1,-1,-1,-1,-1,-1,-1,-1,-1,-1,-1,-1,-1],"loss_changes":[1.7011522E1,2.467905E1,2.8309574E1,2.6241875E1,1.7540394E1,7.2952538E0,2.8575224E1,1.5272842E1,5.854257E1,4.3499336E0,1.6992823E1,0E0,0E0,7.3948135E0,2.135736E1,8.179042E0,3.9830399E0,5.6684185E1,1.7807505E1,0E0,0E0,9.118902E0,1.08455925E1,4.976019E0,5.6963625E0,1.4895933E1,3.157589E0,0E0,0E0,0E0,0E0,0E0,0E0,0E0,0E0,0E0,0E0,0E0,0E0,0E0,0E0,0E0,0E0,0E0,0E0,0E0,0E0],"parents":[2147483647,0,0,1,1,2,2,3,3,4,4,5,5,6,6,7,7,8,8,9,9,10,10,13,13,14,14,15,15,16,16,17,17,18,18,21,21,22,22,23,23,24,24,25,25,26,26],"right_children":[2,4,6,8,10,12,14,16,18,20,22,-1,-1,24,26,28,30,32,34,-1,-1,36,38,40,42,44,46,-1,-1,-1,-1,-1,-1,-1,-1,-1,-1,-1,-1,-1,-1,-1,-1,-1,-1,-1,-1],"split_conditions":[1.665978E-3,-1.1810946E-2,3.0327628E-3,-8.04483E-3,-9.149272E-3,2.4115786E-1,2.7500086E-3,-1.1648865E-2,2.1774357E-3,1.0107709E0,2.5531803E1,-9.048071E-3,-2.256765E-3,2.4974633E-2,4.6584498E-2,9.913825E-1,-2.119612E-2,-1.8380951E-2,-1.9240115E-2,8.6832605E-3,3.4000825E-3,-2.5784368E-2,9.8563933E-1,-3.9708875E-3,1.0405422E-2,4.069756E-2,1.0390406E-2,-2.9608802E-4,-5.8377483E-3,-4.30341E-3,-9.645876E-3,7.818445E-3,-4.093691E-3,-6.2359194E-3,2.1231773E-3,-6.072024E-3,3.8712566E-5,6.499557E-3,1.9108198E-3,-3.3530188E-4,-4.7346964E-3,1.1053816E-4,-2.0054015E-3,1.229585E-3,8.204402E-3,-2.1550327E-3,-7.460273E-3],"split_indices":[21,21,21,20,21,15,20,20,20,3,6,0,0,16,21,2,21,21,21,0,0,10,3,20,21,21,12,0,0,0,0,0,0,0,0,0,0,0,0,0,0,0,0,0,0,0,0],"split_type":[0,0,0,0,0,0,0,0,0,0,0,0,0,0,0,0,0,0,0,0,0,0,0,0,0,0,0,0,0,0,0,0,0,0,0,0,0,0,0,0,0,0,0,0,0,0,0],"sum_hessian":[1.8270819E3,8.1517285E2,1.01190906E3,4.0621124E2,4.089616E2,5.0950203E1,9.6095886E2,1.813863E2,2.2482495E2,5.5381752E1,3.5357983E2,3.099812E1,1.9952085E1,4.8724207E2,4.7371683E2,1.2790826E2,5.347805E1,1.3889267E2,8.5932274E1,3.12495E1,2.4132254E1,8.583224E1,2.6774762E2,1.0338912E2,3.8385294E2,4.3859213E2,3.5124687E1,1.0786097E2,2.0047285E1,3.472114E1,1.8756908E1,1.0261893E2,3.6273746E1,6.2894264E1,2.303801E1,2.0549698E1,6.528254E1,4.1548252E1,2.2619936E2,2.3683094E1,7.9706024E1,1.389634E2,2.4488953E2,4.1844138E2,2.0150774E1,1.8805586E1,1.6319101E1],"tree_param":{"num_deleted":"0","num_feature":"23","num_nodes":"47","size_leaf_vector":"1"}},{"base_weights":[3.7059153E-4,5.5678137E-2,-2.0108525E-1,7.3334756E-3,4.104006E-2,-2.714079E-1,6.74001E-2,-2.0395805E-1,9.980887E-2,-1.8789938E-1,-7.6477665E-1,4.6435648E-1,-3.6542884E-1,-4.123536E-1,1.225826E-1,3.3607182E-1,3.7835967E-2,-2.8314435E-1,5.030676E-1,-3.4950168E-3,-7.588446E-3,6.107152E-3,-1.1488753E-5,-6.1544357E-3,1.5875719E-3,-2.4369692E-3,-7.58963E-3,4.4847243E-3,-3.438515E-3,1.1072217E-2,1.8491393E-3,-6.3678636E-3,6.119219E-4,-1.5113561E-3,-7.84376E-3,1.2400645E-3,6.599824E-3],"categories":[],"categories_nodes":[],"categories_segments":[],"categories_sizes":[],"default_left":[0,0,0,0,0,0,0,0,0,0,0,0,0,0,0,0,0,0,0,0,0,0,0,0,0,0,0,0,0,0,0,0,0,0,0,0,0],"id":2,"left_children":[1,3,5,-1,7,9,11,13,15,17,19,21,23,25,27,29,31,33,35,-1,-1,-1,-1,-1,-1,-1,-1,-1,-1,-1,-1,-1,-1,-1,-1,-1,-1],"loss_changes":[2.0389065E1,1.7131721E1,7.4924498E0,0E0,2.0404299E1,1.2502602E1,1.48613615E1,1.880193E1,1.668095E1,1.821556E1,1.1709957E0,5.554866E0,8.902955E0,9.36503E0,2.4552399E1,2.6138557E1,2.566776E1,1.5643002E1,3.1002188E0,0E0,0E0,0E0,0E0,0E0,0E0,0E0,0E0,0E0,0E0,0E0,0E0,0E0,0E0,0E0,0E0,0E0,0E0],"parents":[2147483647,0,0,1,1,2,2,4,4,5,5,6,6,7,7,8,8,9,9,10,10,11,11,12,12,13,13,14,14,15,15,16,16,17,17,18,18],"right_children":[2,4,6,-1,8,10,12,14,16,18,20,22,24,26,28,30,32,34,36,-1,-1,-1,-1,-1,-1,-1,-1,-1,-1,-1,-1,-1,-1,-1,-1,-1,-1],"split_conditions":[1.0235151E0,9.3790895E-1,1.0627596E-2,7.3334756E-3,-8.257137E-3,7.539338E-3,1.0370067E0,-1.1533013E-2,-3.0702723E-3,3.9250933E-2,1.0216537E0,1.0540513E0,1.3430902E-2,-1.8249756E-2,1.4749067E-3,-2.7706739E-2,-2.552639E-3,3.0644123E-2,1.8548267E-1,-3.4950168E-3,-7.588446E-3,6.107152E-3,-1.1488753E-5,-6.1544357E-3,1.5875719E-3,-2.4369692E-3,-7.58963E-3,4.4847243E-3,-3.438515E-3,1.1072217E-2,1.8491393E-3,-6.3678636E-3,6.119219E-4,-1.5113561E-3,-7.84376E-3,1.2400645E-3,6.599824E-3],"split_indices":[22,22,20,0,20,20,22,21,20,21,3,9,11,21,21,21,20,21,15,0,0,0,0,0,0,0,0,0,0,0,0,0,0,0,0,0,0],"split_type":[0,0,0,0,0,0,0,0,0,0,0,0,0,0,0,0,0,0,0,0,0,0,0,0,0,0,0,0,0,0,0,0,0,0,0,0,0],"sum_hessian":[1.8247893E3,1.433264E3,3.9152527E2,2.2403967E1,1.41086E3,3.1027112E2,8.1254166E1,2.7165848E2,1.1392015E3,2.684869E2,4.1784218E1,4.2296883E1,3.895728E1,1.6542667E2,1.0623181E2,2.3426537E2,9.049362E2,2.3734204E2,3.1144854E1,1.5121919E1,2.66623E1,2.6025192E1,1.627169E1,2.2886318E1,1.6070961E1,1.3618382E2,2.9242836E1,5.9870716E1,4.6361095E1,2.1617435E1,2.1264793E2,3.5952213E1,8.68984E2,2.0804007E2,2.930198E1,1.567153E1,1.5473325E1],"tree_param":{"num_deleted":"0","num_feature":"23","num_nodes":"37","size_leaf_vector":"1"}},{"base_weights":[4.690045E-3,5.5262044E-2,-1.8284383E-1,6.8762237E-3,4.1716978E-2,-3.1023568E-1,-6.9791432E-3,-5.267259E-1,5.9617992E-2,-5.197533E-1,-1.4340432E-1,1.435165E-1,-3.190521E-1,-6.2297853E-3,-8.06646E-4,-4.569876E-1,7.301162E-2,-6.5684634E-1,9.290378E-4,-2.5640455E-1,2.0696598E-3,5.1900353E-3,5.216837E-2,-5.0015146E-1,5.318257E-4,-3.9742666E-4,-6.447473E-3,-2.7227896E-4,1.1804992E-3,-3.2365695E-3,-7.1808333E-3,-4.770161E-4,-5.3336043E-3,5.457878E-3,-6.980679E-4,-6.649676E-3,-1.1319305E-3],"categories":[],"categories_nodes":[],"categories_segments":[],"categories_sizes":[],"default_left":[0,0,0,0,0,0,0,0,0,0,0,0,0,0,0,0,0,0,0,0,0,0,0,0,0,0,0,0,0,0,0,0,0,0,0,0,0],"id":3,"left_children":[1,3,5,-1,7,9,11,13,15,17,19,21,23,-1,-1,25,27,29,-1,31,-1,-1,33,35,-1,-1,-1,-1,-1,-1,-1,-1,-1,-1,-1,-1,-1],"loss_changes":[1.7360579E1,1.4856083E1,8.701069E0,0E0,1.45213175E1,7.673788E0,7.9214487E0,3.8764153E0,9.621694E0,8.746809E0,5.866088E0,4.85915E0,3.8898578E0,0E0,0E0,4.402971E0,9.665823E0,3.5402832E0,0E0,7.597304E0,0E0,0E0,8.145748E0,3.735712E0,0E0,0E0,0E0,0E0,0E0,0E0,0E0,0E0,0E0,0E0,0E0,0E0,0E0],"parents":[2147483647,0,0,1,1,2,2,4,4,5,5,6,6,7,7,8,8,9,9,10,10,11,11,12,12,15,15,16,16,17,17,19,19,22,22,23,23],"right_children":[2,4,6,-1,8,10,12,14,16,18,20,22,24,-1,-1,26,28,30,-1,32,-1,-1,34,36,-1,-1,-1,-1,-1,-1,-1,-1,-1,-1,-1,-1,-1],"split_conditions":[1.0235151E0,9.3790895E-1,9.467949E-3,6.8762237E-3,-4.989012E-2,2.783956E-3,3.817709E-2,2.0790178E-1,9.505791E-1,2.2596492E-2,2.1508502E-2,-1.0658836E-2,2.0513973E0,-6.2297853E-3,-8.06646E-4,-1.1172516E0,-4.710498E-3,4.02011E-3,9.290378E-4,9.7028446E-1,2.0696598E-3,5.1900353E-3,-8.8581955E-3,2.2084417E-3,5.318257E-4,-3.9742666E-4,-6.447473E-3,-2.7227896E-4,1.1804992E-3,-3.2365695E-3,-7.1808333E-3,-4.770161E-4,-5.3336043E-3,5.457878E-3,-6.980679E-4,-6.649676E-3,-1.1319305E-3],"split_indices":[22,22,12,0,10,0,8,15,22,10,11,10,5,0,0,5,0,1,0,5,0,0,11,0,0,0,0,0,0,0,0,0,0,0,0,0,0],"split_type":[0,0,0,0,0,0,0,0,0,0,0,0,0,0,0,0,0,0,0,0,0,0,0,0,0,0,0,0,0,0,0,0,0,0,0,0,0],"sum_hessian":[1.8252297E3,1.4390745E3,3.8615527E2,2.2264875E1,1.4168096E3,2.2273506E2,1.634202E2,4.094984E1,1.3758597E3,9.623582E1,1.26499245E2,1.11187454E2,5.2232746E1,2.5922197E1,1.5027642E1,3.254336E1,1.3433164E3,7.897727E1,1.7258541E1,9.883639E1,2.7662859E1,1.5421686E1,9.576577E1,3.4921158E1,1.731159E1,1.5426183E1,1.711718E1,5.2669104E2,8.1662537E2,3.695454E1,4.202273E1,6.68542E1,3.1982187E1,1.5821006E1,7.994476E1,1.7610725E1,1.731043E1],"tree_param":{"num_deleted":"0","num_feature":"23","num_nodes":"37","size_leaf_vector":"1"}},{"base_weights":[-3.334606E-3,7.3679835E-3,-1.5339577E-2,2.7794987E-2,-1.8487309E-1,-2.0215978E-1,8.13488E-2,-8.153123E-3,-1.4291883E-1,-5.451064E-2,-5.062038E-1,3.2419935E-1,1.8875508E-2,1.3234799E-1,-2.099225E-1,-1.5284116E-3,5.480444E-3,-8.416423E-3,-2.2924182E-3,4.0079495E-3,-1.065684E-3,-1.920619E-3,1.1280569E-3,2.3837616E-3,-2.7306348E-3,-2.080615E-3,2.753415E-3],"categories":[],"categories_nodes":[],"categories_segments":[],"categories_sizes":[],"default_left":[0,0,0,0,0,0,0,0,0,0,0,0,0,0,0,0,0,0,0,0,0,0,0,0,0,0,0],"id":4,"left_children":[1,-1,3,5,7,9,11,-1,13,15,17,19,21,23,25,-1,-1,-1,-1,-1,-1,-1,-1,-1,-1,-1,-1],"loss_changes":[1.945736E1,0E0,1.3256613E1,1.78456E1,1.178712E1,1.2212515E1,1.779952E1,0E0,6.5698013E0,1.730552E1,9.599537E0,1.6904121E1,2.7023125E1,5.1687016E0,6.1166344E0,0E0,0E0,0E0,0E0,0E0,0E0,0E0,0E0,0E0,0E0,0E0,0E0],"parents":[2147483647,0,0,2,2,3,3,4,4,5,5,6,6,8,8,9,9,10,10,11,11,12,12,13,13,14,14],"right_children":[2,-1,4,6,8,10,12,-1,14,16,18,20,22,24,26,-1,-1,-1,-1,-1,-1,-1,-1,-1,-1,-1,-1],"split_conditions":[9.3790895E-1,7.3679835E-3,1.0247395E0,-8.257137E-3,1.0250645E0,-1.1648865E-2,-3.0702723E-3,-8.153123E-3,-1.1276671E-1,-1.2631471E-2,9.6997285E-1,2.8639337E-1,7.324753E-4,9.267601E1,3.9016497E0,-1.5284116E-3,5.480444E-3,-8.416423E-3,-2.2924182E-3,4.0079495E-3,-1.065684E-3,-1.920619E-3,1.1280569E-3,2.3837616E-3,-2.7306348E-3,-2.080615E-3,2.753415E-3],"split_indices":[22,0,22,20,22,20,20,0,14,20,22,16,20,6,5,0,0,0,0,0,0,0,0,0,0,0,0],"split_type":[0,0,0,0,0,0,0,0,0,0,0,0,0,0,0,0,0,0,0,0,0,0,0,0,0,0,0],"sum_hessian":[1.8300558E3,2.1975342E1,1.8080804E3,1.4430581E3,3.6502237E2,2.7116833E2,1.1718898E3,1.5467325E1,3.4955505E2,1.8464502E2,8.652332E1,2.3748915E2,9.344006E2,6.7893974E1,2.8166107E2,1.5807571E2,2.6569304E1,2.4703495E1,6.1819828E1,1.7686194E2,6.0627216E1,2.9644455E2,6.37956E2,5.1729877E1,1.6164099E1,2.642017E2,1.7459383E1],"tree_param":{"num_deleted":"0","num_feature":"23","num_nodes":"27","size_leaf_vector":"1"}},{"base_weights":[2.6916761E-3,7.2258217E-3,-8.899398E-3,3.536702E-2,-1.8362278E-1,-1.05128996E-1,8.7699E-2,-8.115583E-3,-1.3952492E-1,-5.382231E-2,-5.1689273E-1,-5.7090106E-3,1.0255916E-1,-3.3733678E-1,-4.4996947E-2,-1.4255912E-3,8.8933104E-4,-6.0463175E-3,-1.3599393E-3,1.6799432E-3,3.8957398E-5,-4.687073E-3,6.488106E-4,1.7748354E-3,-1.5024429E-3],"categories":[],"categories_nodes":[],"categories_segments":[],"categories_sizes":[],"default_left":[0,0,0,0,0,0,0,0,0,0,0,0,0,0,0,0,0,0,0,0,0,0,0,0,0],"id":5,"left_children":[1,-1,3,5,7,9,11,-1,13,15,17,-1,19,21,23,-1,-1,-1,-1,-1,-1,-1,-1,-1,-1],"loss_changes":[1.8312037E1,0E0,1.40322E1,1.0668587E1,1.23343115E1,8.2450485E0,1.2256E1,0E0,6.5062256E0,6.6311245E0,2.8320513E0,0E0,9.966248E0,1.0527873E1,8.393126E0,0E0,0E0,0E0,0E0,0E0,0E0,0E0,0E0,0E0,0E0],"parents":[2147483647,0,0,2,2,3,3,4,4,5,5,6,6,8,8,9,9,10,10,12,12,13,13,14,14],"right_children":[2,-1,4,6,8,10,12,-1,14,16,18,-1,20,22,24,-1,-1,-1,-1,-1,-1,-1,-1,-1,-1],"split_conditions":[9.3790895E-1,7.2258217E-3,1.0247395E0,-1.1742627E-2,1.0250645E0,1.0181115E0,9.505791E-1,-8.115583E-3,7.889723E-1,2.0382616E-1,9.707423E-1,-5.7090106E-3,-1.9977202E-4,8E0,1.4556783E-1,-1.4255912E-3,8.8933104E-4,-6.0463175E-3,-1.3599393E-3,1.6799432E-3,3.8957398E-5,-4.687073E-3,6.488106E-4,1.7748354E-3,-1.5024429E-3],"split_indices":[22,0,22,0,22,22,22,0,9,15,9,0,11,17,15,0,0,0,0,0,0,0,0,0,0],"split_type":[0,0,0,0,0,0,0,0,0,0,0,0,0,0,0,0,0,0,0,0,0,0,0,0,0],"sum_hessian":[1.830987E3,2.1784956E1,1.809202E3,1.4451165E3,3.6408554E2,3.9141357E2,1.0537029E3,1.640203E1,3.476835E2,3.5071912E2,4.069445E1,1.7710012E1,1.0359929E3,1.1019692E2,2.3748659E2,2.0296439E2,1.4775475E2,2.4027338E1,1.6667112E1,5.161695E2,5.198234E2,7.115722E1,3.9039703E1,8.101826E1,1.5646834E2],"tree_param":{"num_deleted":"0","num_feature":"23","num_nodes":"25","size_leaf_vector":"1"}},{"base_weights":[-4.7750236E-3,7.4191107E-3,-1.7099435E-2,2.9040972E-2,-1.7473324E-1,-2.1432033E-1,8.571439E-2,-2.8191414E-1,-1.2470106E-2,-5.607289E-2,-5.67152E-1,3.0049306E-1,2.7387438E-2,-4.6117646E-1,-3.759555E-3,4.1059866E-3,-9.510193E-2,-1.5867213E-3,5.798282E-3,-8.100336E-4,-6.497364E-3,6.348171E-4,4.6305684E-3,-6.1995066E-3,5.0156517E-4,-2.6239685E-3,-6.04706E-3,1.7191571E-3,-4.368416E-3,3.0384888E-3,-1.4002527E-3],"categories":[],"categories_nodes":[],"categories_segments":[],"categories_sizes":[],"default_left":[0,0,0,0,0,0,0,0,0,0,0,0,0,0,0,0,0,0,0,0,0,0,0,0,0,0,0,0,0,0,0],"id":6,"left_children":[1,-1,3,5,7,9,11,13,15,17,19,21,23,25,27,-1,29,-1,-1,-1,-1,-1,-1,-1,-1,-1,-1,-1,-1,-1,-1],"loss_changes":[2.0130981E1,0E0,1.3169787E1,1.9374083E1,7.1172523E0,1.4728274E1,1.4237596E1,1.2292334E1,7.009925E0,1.893027E1,7.8316994E0,1.365885E1,2.2528334E1,5.177994E0,1.1044562E1,0E0,4.935681E0,0E0,0E0,0E0,0E0,0E0,0E0,0E0,0E0,0E0,0E0,0E0,0E0,0E0,0E0],"parents":[2147483647,0,0,2,2,3,3,4,4,5,5,6,6,7,7,8,8,9,9,10,10,11,11,12,12,13,13,14,14,16,16],"right_children":[2,-1,4,6,8,10,12,14,16,18,20,22,24,26,28,-1,30,-1,-1,-1,-1,-1,-1,-1,-1,-1,-1,-1,-1,-1,-1],"split_conditions":[9.3790895E-1,7.4191107E-3,1.0232576E0,-8.506915E-3,1.0167615E0,-1.1648865E-2,-3.0702723E-3,8.211529E-3,1.0197058E0,-1.2631471E-2,9.052545E-1,-5.5833585E-3,-2.552639E-3,1.0325989E0,3.6208723E-2,4.1059866E-3,-1.6629793E-2,-1.5867213E-3,5.798282E-3,-8.100336E-4,-6.497364E-3,6.348171E-4,4.6305684E-3,-6.1995066E-3,5.0156517E-4,-2.6239685E-3,-6.04706E-3,1.7191571E-3,-4.368416E-3,3.0384888E-3,-1.4002527E-3],"split_indices":[22,0,22,20,2,20,20,12,2,20,9,20,20,22,8,0,12,0,0,0,0,0,0,0,0,0,0,0,0,0,0],"split_type":[0,0,0,0,0,0,0,0,0,0,0,0,0,0,0,0,0,0,0,0,0,0,0,0,0,0,0,0,0,0,0],"sum_hessian":[1.8284006E3,2.2391823E1,1.8060088E3,1.3986832E3,4.0732562E2,2.6277502E2,1.1359082E3,2.4408594E2,1.6323967E2,1.835406E2,7.923442E1,2.40218E2,8.956901E2,1.4734972E2,9.673622E1,2.1187277E1,1.420524E2,1.5745808E2,2.6082514E1,2.5554247E1,5.3680172E1,1.2893985E2,1.11278145E2,3.4041992E1,8.6164813E2,9.779003E1,4.9559692E1,7.003457E1,2.6701654E1,1.785932E1,1.2419308E2],"tree_param":{"num_deleted":"0","num_feature":"23","num_nodes":"31","size_leaf_vector":"1"}},{"base_weights":[4.5787073E-3,6.649229E-3,-6.3133272E-3,-4.1986006E-1,1.2540441E-2,-2.0383696E-1,-9.278961E-3,6.6544496E-2,-1.6974029E-1,-4.5807377E-1,4.229059E-3,-5.396383E-3,8.104031E-2,-5.1358826E-3,-1.3038363E-1,-5.8343485E-3,-5.2712363E-4,3.865555E-3,4.5481656E-4,-3.4498193E-3,-4.915973E-4],"categories":[],"categories_nodes":[],"categories_segments":[],"categories_sizes":[],"default_left":[0,0,0,0,0,0,0,0,0,0,0,0,0,0,0,0,0,0,0,0,0],"id":7,"left_children":[1,-1,3,5,7,9,-1,11,13,15,-1,-1,17,-1,19,-1,-1,-1,-1,-1,-1],"loss_changes":[1.5754379E1,0E0,1.4109907E1,1.1121015E1,1.7068787E1,1.2015851E1,0E0,1.3913881E1,6.699939E0,4.4001884E0,0E0,0E0,1.328345E1,0E0,7.3464384E0,0E0,0E0,0E0,0E0,0E0,0E0],"parents":[2147483647,0,0,2,2,3,3,4,4,5,5,7,7,8,8,9,9,12,12,14,14],"right_children":[2,-1,4,6,8,10,-1,12,14,16,-1,-1,18,-1,20,-1,-1,-1,-1,-1,-1],"split_conditions":[9.3790895E-1,6.649229E-3,-1.773849E-2,-1.9603165E-2,1.0235151E0,-1.2554212E-2,-9.278961E-3,9.505791E-1,2.86338E-3,-2.7706739E-2,4.229059E-3,-5.396383E-3,-3.0405158E-2,-5.1358826E-3,1.026102E0,-5.8343485E-3,-5.2712363E-4,3.865555E-3,4.5481656E-4,-3.4498193E-3,-4.915973E-4],"split_indices":[22,0,20,20,22,1,0,22,21,21,0,0,21,0,22,0,0,0,0,0,0],"split_type":[0,0,0,0,0,0,0,0,0,0,0,0,0,0,0,0,0,0,0,0,0],"sum_hessian":[1.8269783E3,2.2300093E1,1.8046782E3,7.62715E1,1.7284067E3,6.0661186E1,1.5610315E1,1.3347087E3,3.93698E2,4.534552E1,1.5315668E1,2.4366709E1,1.310342E3,2.893076E1,3.6476724E2,2.6999468E1,1.8346052E1,8.314641E1,1.2271957E3,7.1443985E1,2.9332327E2],"tree_param":{"num_deleted":"0","num_feature":"23","num_nodes":"21","size_leaf_vector":"1"}},{"base_weights":[-3.136099E-3,7.1449312E-3,-1.4791021E-2,3.1541888E-2,-1.9776441E-1,-1.8754548E-1,8.207101E-2,-7.934344E-3,-1.5605302E-1,-4.5056242E-2,-4.8341337E-1,3.0855876E-1,2.3529246E-2,-2.3143512E-1,1.0626886E-1,-1.3799985E-3,5.030679E-3,-8.330239E-3,-2.0346597E-3,4.046014E-3,-2.2355077E-4,-6.49351E-3,4.953027E-4,-1.0286623E-3,-6.520105E-3,4.659355E-3,-2.9273566E-3],"categories":[],"categories_nodes":[],"categories_segments":[],"categories_sizes":[],"default_left":[0,0,0,0,0,0,0,0,0,0,0,0,0,0,0,0,0,0,0,0,0,0,0,0,0,0,0],"id":8,"left_children":[1,-1,3,5,7,9,11,-1,13,15,17,19,21,23,25,-1,-1,-1,-1,-1,-1,-1,-1,-1,-1,-1,-1],"loss_changes":[1.8317091E1,0E0,1.5370005E1,1.6059925E1,1.105321E1,1.1402622E1,1.5593931E1,0E0,6.9905033E0,1.4677477E1,1.0182589E1,1.4184721E1,2.6828918E1,1.5951715E1,1.6916906E1,0E0,0E0,0E0,0E0,0E0,0E0,0E0,0E0,0E0,0E0,0E0,0E0],"parents":[2147483647,0,0,2,2,3,3,4,4,5,5,6,6,8,8,9,9,10,10,11,11,12,12,13,13,14,14],"right_children":[2,-1,4,6,8,10,12,-1,14,16,18,20,22,24,26,-1,-1,-1,-1,-1,-1,-1,-1,-1,-1,-1,-1],"split_conditions":[9.3790895E-1,7.1449312E-3,1.0247395E0,-8.257137E-3,1.0250645E0,-1.1648865E-2,-3.0702723E-3,-7.934344E-3,1.0627596E-2,-1.2631471E-2,9.6997285E-1,2.4186523E-1,-2.552639E-3,7.539338E-3,1.0370067E0,-1.3799985E-3,5.030679E-3,-8.330239E-3,-2.0346597E-3,4.046014E-3,-2.2355077E-4,-6.49351E-3,4.953027E-4,-1.0286623E-3,-6.520105E-3,4.659355E-3,-2.9273566E-3],"split_indices":[22,0,22,20,22,20,20,0,20,20,22,16,20,20,22,0,0,0,0,0,0,0,0,0,0,0,0],"split_type":[0,0,0,0,0,0,0,0,0,0,0,0,0,0,0,0,0,0,0,0,0,0,0,0,0,0,0],"sum_hessian":[1.830209E3,2.2007387E1,1.8082017E3,1.4445327E3,3.6366885E2,2.6934106E2,1.1751917E3,1.6137384E1,3.4753146E2,1.838654E2,8.547566E1,2.3902063E2,9.361711E2,2.702299E2,7.730157E1,1.5677684E2,2.7088556E1,2.4678831E1,6.0796833E1,1.5642479E2,8.259585E1,3.7605167E1,8.985659E2,2.2818843E2,4.204146E1,3.8614304E1,3.8687267E1],"tree_param":{"num_deleted":"0","num_feature":"23","num_nodes":"27","size_leaf_vector":"1"}},{"base_weights":[-3.811797E-3,6.353457E-3,-3.4639716E-1,-1.098993E-5,4.521304E-3,-4.7279764E-3,-2.9085053E-4,-5.1086493E-2,6.410498E-2,1.559854E-1,-9.553431E-2,1.0173033E-1,-2.208183E-1,5.7362556E-4,5.03711E-3,-5.799263E-3,-6.320808E-4,3.5078228E-3,5.423298E-4,-4.3510566E-3,9.902105E-4],"categories":[],"categories_nodes":[],"categories_segments":[],"categories_sizes":[],"default_left":[0,0,0,0,0,0,0,0,0,0,0,0,0,0,0,0,0,0,0,0,0],"id":9,"left_children":[1,3,5,7,-1,-1,-1,9,11,13,15,17,19,-1,-1,-1,-1,-1,-1,-1,-1],"loss_changes":[6.3661942E0,6.03461E0,3.5241213E0,5.762066E0,0E0,0E0,0E0,9.053683E0,8.420739E0,6.6678276E0,9.527708E0,8.0240345E0,9.465405E0,0E0,0E0,0E0,0E0,0E0,0E0,0E0,0E0],"parents":[2147483647,0,0,1,1,2,2,3,3,7,7,8,8,9,9,10,10,11,11,12,12],"right_children":[2,4,6,8,-1,-1,-1,10,12,14,16,18,20,-1,-1,-1,-1,-1,-1,-1,-1],"split_conditions":[7.6385025E1,8.5719866E-1,2.846634E-1,2.783956E-3,4.521304E-3,-4.7279764E-3,-2.9085053E-4,-5.167427E-2,2.5192412E-2,-5.742496E-2,-3.650313E-2,-2.6656106E-1,2.0743918E-3,5.7362556E-4,5.03711E-3,-5.799263E-3,-6.320808E-4,3.5078228E-3,5.423298E-4,-4.3510566E-3,9.902105E-4],"split_indices":[4,15,15,0,0,0,0,1,12,1,10,19,10,0,0,0,0,0,0,0,0],"split_type":[0,0,0,0,0,0,0,0,0,0,0,0,0,0,0,0,0,0,0,0,0],"sum_hessian":[1.8226741E3,1.772629E3,5.0045082E1,1.7543165E3,1.8312517E1,2.8157534E1,2.188755E1,9.7685406E2,7.774624E2,1.714139E2,8.054402E2,6.883023E2,8.91601E1,1.458409E2,2.5572989E1,2.3286674E1,7.821535E2,6.897815E1,6.1932416E2,4.6668438E1,4.249167E1],"tree_param":{"num_deleted":"0","num_feature":"23","num_nodes":"21","size_leaf_vector":"1"}},{"base_weights":[-2.4365361E-3,1.0812763E-1,-9.14541E-2,-6.334044E-2,2.785224E-1,-7.8428525E-1,-5.2576583E-2,5.415135E-2,-5.541892E-1,8.1970495E-1,1.8740004E-1,-8.593357E-3,-2.4868073E-3,-2.1577427E-1,1.14610635E-1,-2.9355863E-1,6.1049193E-1,-8.262441E-1,1.3279528E-3,2.5593166E-3,9.9115574E-1,-1.7959581E-1,3.0437264E-1,-3.505133E-1,-1.05644435E-1,6.978446E-1,4.0384587E-2,1.321318E-4,-6.3170423E-3,7.0463824E-3,-3.9708344E-3,-1.62588E-3,-8.698068E-3,5.2575604E-3,9.660909E-3,8.876659E-6,-6.4392174E-3,1.2096101E-3,4.5522554E-3,-5.6049293E-3,-1.9847765E-3,3.301644E-3,-1.1898568E-3,9.735452E-3,1.670907E-3,8.324479E-4,-4.8317118E-3],"categories":[],"categories_nodes":[],"categories_segments":[],"categories_sizes":[],"default_left":[0,0,0,0,0,0,0,0,0,0,0,0,0,0,0,0,0,0,0,0,0,0,0,0,0,0,0,0,0,0,0,0,0,0,0,0,0,0,0,0,0,0,0,0,0,0,0],"id":10,"left_children":[1,3,5,7,9,11,13,15,17,19,21,-1,-1,23,25,27,29,31,-1,-1,33,35,37,39,41,43,45,-1,-1,-1,-1,-1,-1,-1,-1,-1,-1,-1,-1,-1,-1,-1,-1,-1,-1,-1,-1],"loss_changes":[1.7974056E1,2.384682E1,2.7133291E1,2.361967E1,1.975622E1,5.495163E0,2.6281467E1,6.463315E1,1.5685295E1,4.312866E0,1.5322356E1,0E0,0E0,7.126074E0,2.0536549E1,2.9384146E1,3.3229042E1,7.1982384E0,0E0,0E0,5.764046E-1,9.282463E0,1.0081129E1,7.456949E0,5.098011E0,1.1784742E1,1.5644531E1,0E0,0E0,0E0,0E0,0E0,0E0,0E0,0E0,0E0,0E0,0E0,0E0,0E0,0E0,0E0,0E0,0E0,0E0,0E0,0E0],"parents":[2147483647,0,0,1,1,2,2,3,3,4,4,5,5,6,6,7,7,8,8,9,9,10,10,13,13,14,14,15,15,16,16,17,17,20,20,21,21,22,22,23,23,24,24,25,25,26,26],"right_children":[2,4,6,8,10,12,14,16,18,20,22,-1,-1,24,26,28,30,32,-1,-1,34,36,38,40,42,44,46,-1,-1,-1,-1,-1,-1,-1,-1,-1,-1,-1,-1,-1,-1,-1,-1,-1,-1,-1,-1],"split_conditions":[1.665978E-3,-1.1810946E-2,3.0327628E-3,3.2094833E-3,-9.149272E-3,2.4958414E-1,2.7500086E-3,-7.3041553E-3,-1.9240115E-2,3E0,2.5531803E1,-8.593357E-3,-2.4868073E-3,1.817431E-1,6.984279E-3,-2.3478968E-2,-1.7262887E-2,-1.0873379E-1,1.3279528E-3,2.5593166E-3,-1.0452222E-2,2.643386E-1,1.1034323E-3,6.9713765E-1,4.0879143E1,-2.646934E-3,4.6584498E-2,1.321318E-4,-6.3170423E-3,7.0463824E-3,-3.9708344E-3,-1.62588E-3,-8.698068E-3,5.2575604E-3,9.660909E-3,8.876659E-6,-6.4392174E-3,1.2096101E-3,4.5522554E-3,-5.6049293E-3,-1.9847765E-3,3.301644E-3,-1.1898568E-3,9.735452E-3,1.670907E-3,8.324479E-4,-4.8317118E-3],"split_indices":[21,21,21,20,21,15,20,20,21,17,6,0,0,15,21,21,21,14,0,0,21,7,20,9,4,12,21,0,0,0,0,0,0,0,0,0,0,0,0,0,0,0,0,0,0,0,0],"split_type":[0,0,0,0,0,0,0,0,0,0,0,0,0,0,0,0,0,0,0,0,0,0,0,0,0,0,0,0,0,0,0,0,0,0,0,0,0,0,0,0,0,0,0,0,0,0,0],"sum_hessian":[1.8209701E3,8.118817E2,1.0090884E3,4.0545847E2,4.0642322E2,5.0916412E1,9.58172E2,3.290229E2,7.643559E1,5.5517033E1,3.509062E2,3.2063858E1,1.8852552E1,4.8451776E2,4.7365424E2,2.0322957E2,1.2579332E2,5.5028336E1,2.1407255E1,1.57344475E1,3.9782585E1,8.444809E1,2.664581E2,2.1528003E2,2.6923773E2,5.0958893E1,4.2269534E2,1.23107155E2,8.012241E1,1.0420553E2,2.1587793E1,1.5124447E1,3.990389E1,1.6276415E1,2.3506172E1,6.663336E1,1.781472E1,1.6226302E2,1.041951E2,5.310667E1,1.6217336E2,1.6515629E1,2.5272209E2,2.4539158E1,2.6419735E1,3.87844E2,3.4851345E1],"tree_param":{"num_deleted":"0","num_feature":"23","num_nodes":"47","size_leaf_vector":"1"}},{"base_weights":[-2.2305E-3,6.983507E-3,-1.3573968E-2,-4.2469794E-1,5.2313204E-3,-2.1469551E-1,-8.971377E-3,1.0654132E-1,-6.9209315E-2,-5.4929564E-3,2.0799813E-1,-7.180532E-2,2.6338425E-1,-2.2821832E-1,9.169638E-2,-1.1125926E-3,4.419271E-3,8.8099085E-5,-6.351945E-3,8.756327E-3,1.4205542E-3,-5.3261025E-3,-1.2480282E-3,1.4795909E-3,-3.6100592E-3],"categories":[],"categories_nodes":[],"categories_segments":[],"categories_sizes":[],"default_left":[0,0,0,0,0,0,0,0,0,0,0,0,0,0,0,0,0,0,0,0,0,0,0,0,0],"id":11,"left_children":[1,-1,3,5,7,9,-1,11,13,-1,15,17,19,21,23,-1,-1,-1,-1,-1,-1,-1,-1,-1,-1],"loss_changes":[1.7327888E1,0E0,1.39489765E1,1.009598E1,1.3040926E1,1.209208E1,0E0,2.053911E1,2.5560276E1,0E0,3.9056864E0,1.9519638E1,2.814115E1,1.5956448E1,2.229406E1,0E0,0E0,0E0,0E0,0E0,0E0,0E0,0E0,0E0,0E0],"parents":[2147483647,0,0,2,2,3,3,4,4,5,5,7,7,8,8,10,10,11,11,12,12,13,13,14,14],"right_children":[2,-1,4,6,8,10,-1,12,14,-1,16,18,20,22,24,-1,-1,-1,-1,-1,-1,-1,-1,-1,-1],"split_conditions":[9.3790895E-1,6.983507E-3,-1.773849E-2,-1.9603165E-2,1.665978E-3,-2.7706739E-2,-8.971377E-3,-1.07328845E-2,2.7500086E-3,-5.4929564E-3,-3.650313E-2,1.1866545E-2,-9.149272E-3,1.0045315E0,2.6720848E-2,-1.1125926E-3,4.419271E-3,8.8099085E-5,-6.351945E-3,8.756327E-3,1.4205542E-3,-5.3261025E-3,-1.2480282E-3,1.4795909E-3,-3.6100592E-3],"split_indices":[22,0,20,20,21,21,0,21,20,0,0,20,21,22,12,0,0,0,0,0,0,0,0,0,0],"split_type":[0,0,0,0,0,0,0,0,0,0,0,0,0,0,0,0,0,0,0,0,0,0,0,0,0],"sum_hessian":[1.8220359E3,2.1816523E1,1.8002194E3,7.628144E1,1.7239379E3,6.02431E1,1.6038345E1,7.297709E2,9.94167E2,2.8776163E1,3.1466936E1,3.4211145E2,3.8765945E2,4.995114E2,4.9465558E2,1.5958577E1,1.5508358E1,3.0779047E2,3.4320972E1,3.8609894E1,3.4904956E2,7.818356E1,4.2132785E2,4.27003E2,6.765259E1],"tree_param":{"num_deleted":"0","num_feature":"23","num_nodes":"25","size_leaf_vector":"1"}},{"base_weights":[3.7227047E-3,7.176794E-3,-8.099962E-3,-2.2289914E-1,3.0210335E-2,-4.9049836E-2,-5.9339845E-1,2.5874752E-1,-2.189339E-2,-4.2153442E-1,2.11672E-1,-2.8511178E-1,-8.475335E-1,3.2020304E-1,-3.464885E-3,-2.667617E-1,4.5322705E-2,-1.7189645E-3,-9.207425E-3,7.0242235E-4,6.524034E-3,-5.162118E-3,4.3180518E-4,-9.352746E-3,-4.3468038E-3,-1.3655383E-3,3.334536E-3,3.417298E-3,-3.3511464E-3,-7.2981617E-3,5.3981255E-4],"categories":[],"categories_nodes":[],"categories_segments":[],"categories_sizes":[],"default_left":[0,0,0,0,0,0,0,0,0,0,0,0,0,0,0,0,0,0,0,0,0,0,0,0,0,0,0,0,0,0,0],"id":12,"left_children":[1,-1,3,5,7,9,11,13,15,17,19,21,23,25,-1,27,29,-1,-1,-1,-1,-1,-1,-1,-1,-1,-1,-1,-1,-1,-1],"loss_changes":[1.8496864E1,0E0,1.49004965E1,1.7568699E1,1.8318186E1,1.8633541E1,6.1879635E0,1.2150972E1,2.0672913E1,1.09584465E1,8.02379E0,4.9339976E0,2.566311E0,1.0093477E1,0E0,2.4784426E1,1.7442974E1,0E0,0E0,0E0,0E0,0E0,0E0,0E0,0E0,0E0,0E0,0E0,0E0,0E0,0E0],"parents":[2147483647,0,0,2,2,3,3,4,4,5,5,6,6,7,7,8,8,9,9,10,10,11,11,12,12,13,13,15,15,16,16],"right_children":[2,-1,4,6,8,10,12,14,16,18,20,22,24,26,-1,28,30,-1,-1,-1,-1,-1,-1,-1,-1,-1,-1,-1,-1,-1,-1],"split_conditions":[9.3790895E-1,7.176794E-3,-8.506915E-3,-1.1648865E-2,-3.0702723E-3,-1.773849E-2,1.0050398E0,1.0294691E0,-1.870928E-5,-1.9603165E-2,-1.2427864E-2,2.3505979E-3,-1.0315686E-2,-2.1438123E-1,-3.464885E-3,9.900689E-1,9.561248E-1,-1.7189645E-3,-9.207425E-3,7.0242235E-4,6.524034E-3,-5.162118E-3,4.3180518E-4,-9.352746E-3,-4.3468038E-3,-1.3655383E-3,3.334536E-3,3.417298E-3,-3.3511464E-3,-7.2981617E-3,5.3981255E-4],"split_indices":[22,0,20,20,20,20,9,22,20,20,20,12,20,14,0,22,22,0,0,0,0,0,0,0,0,0,0,0,0,0,0],"split_type":[0,0,0,0,0,0,0,0,0,0,0,0,0,0,0,0,0,0,0,0,0,0,0,0,0,0,0,0,0,0,0],"sum_hessian":[1.828094E3,2.2421665E1,1.8056724E3,2.7142725E2,1.5342451E3,1.8679219E2,8.463506E1,2.829479E2,1.2512972E3,7.626013E1,1.1053207E2,4.078882E1,4.3846245E1,2.6053632E2,2.241158E1,2.6785345E2,9.834437E2,6.043219E1,1.5827945E1,9.269818E1,1.7833881E1,1.947114E1,2.1317678E1,2.0597795E1,2.324845E1,3.5786003E1,2.2475032E2,4.330576E1,2.2454768E2,1.7699387E1,9.657444E2],"tree_param":{"num_deleted":"0","num_feature":"23","num_nodes":"31","size_leaf_vector":"1"}},{"base_weights":[2.9347562E-3,7.281442E-3,-9.277797E-3,3.4937754E-2,-1.6942331E-1,-4.6059713E-1,4.8049472E-2,-2.953263E-1,-7.7236583E-3,-6.662928E-4,-7.176309E-3,1.5405735E-1,-1.9283257E-2,-5.058691E-1,3.301155E-3,-3.437062E-1,7.515941E-2,4.065917E-3,8.0002414E-4,-1.3035065E-3,7.909343E-4,-1.982849E-3,-6.3523417E-3,1.300975E-3,-3.8077142E-3,-6.5208697E-3,8.137009E-4,3.0976033E-3,-1.1552471E-3],"categories":[],"categories_nodes":[],"categories_segments":[],"categories_sizes":[],"default_left":[0,0,0,0,0,0,0,0,0,0,0,0,0,0,0,0,0,0,0,0,0,0,0,0,0,0,0,0,0],"id":13,"left_children":[1,-1,3,5,7,9,11,13,15,-1,-1,17,19,21,23,25,27,-1,-1,-1,-1,-1,-1,-1,-1,-1,-1,-1,-1],"loss_changes":[1.9390127E1,0E0,1.2808066E1,9.264873E0,7.9576197E0,5.3634944E0,9.884895E0,1.3836821E1,4.9181304E0,0E0,0E0,1.0303659E1,1.3198755E1,8.2887535E0,6.696411E0,6.9079967E0,9.041157E0,0E0,0E0,0E0,0E0,0E0,0E0,0E0,0E0,0E0,0E0,0E0,0E0],"parents":[2147483647,0,0,2,2,3,3,4,4,5,5,6,6,7,7,8,8,11,11,12,12,13,13,14,14,15,15,16,16],"right_children":[2,-1,4,6,8,10,12,14,16,-1,-1,18,20,22,24,26,28,-1,-1,-1,-1,-1,-1,-1,-1,-1,-1,-1,-1],"split_conditions":[9.3790895E-1,7.281442E-3,1.0235151E0,9.505791E-1,8.211529E-3,-8.09066E-3,-4.2870957E-3,1.0136427E0,1.026102E0,-6.662928E-4,-7.176309E-3,9.7423506E-1,1.0037341E0,6.654149E-3,7.736726E-2,1.0079567E0,1.0313745E0,4.065917E-3,8.0002414E-4,-1.3035065E-3,7.909343E-4,-1.982849E-3,-6.3523417E-3,1.300975E-3,-3.8077142E-3,-6.5208697E-3,8.137009E-4,3.0976033E-3,-1.1552471E-3],"split_indices":[22,0,22,22,12,0,12,2,22,0,0,22,22,1,1,2,22,0,0,0,0,0,0,0,0,0,0,0,0],"split_type":[0,0,0,0,0,0,0,0,0,0,0,0,0,0,0,0,0,0,0,0,0,0,0,0,0,0,0,0,0],"sum_hessian":[1.8265901E3,2.2826628E1,1.8037634E3,1.4150603E3,3.887032E2,3.4137283E1,1.380923E3,2.1727866E2,1.7142451E2,1.9032745E1,1.5104538E1,5.351549E2,8.4576807E2,1.2638339E2,9.089526E1,3.2307095E1,1.3911742E2,7.7388626E1,4.577663E2,3.842026E2,4.6156543E2,6.3701107E1,6.2682285E1,6.956507E1,2.133019E1,1.5258774E1,1.704832E1,5.7587044E1,8.153037E1],"tree_param":{"num_deleted":"0","num_feature":"23","num_nodes":"29","size_leaf_vector":"1"}},{"base_weights":[-1.0794171E-2,7.1379584E-3,-2.2396527E-2,-2.2151846E-1,1.3358599E-2,-5.6091707E-2,-5.6841296E-1,1.6633129E-1,-7.846134E-2,-1.5405418E-1,6.1639287E-3,-1.0944294E-3,-7.643281E-1,2.2118044E-1,-2.8361443E-1,-8.0842996E-1,-4.1268896E-2,-2.983975E-3,1.8389832E-3,-8.444607E-3,-3.322068E-3,-2.4417916E-3,2.2648377E-3,-5.5662734E-3,4.683861E-3,-3.7609343E-3,-7.961614E-3,-1.701034E-3,9.072575E-4],"categories":[],"categories_nodes":[],"categories_segments":[],"categories_sizes":[],"default_left":[0,0,0,0,0,0,0,0,0,0,0,0,0,0,0,0,0,0,0,0,0,0,0,0,0,0,0,0,0],"id":14,"left_children":[1,-1,3,5,7,9,11,13,15,17,-1,-1,19,21,23,25,27,-1,-1,-1,-1,-1,-1,-1,-1,-1,-1,-1,-1],"loss_changes":[1.8436972E1,0E0,1.2932725E1,1.5776317E1,2.1682917E1,1.5049584E1,7.3566475E0,1.4453316E1,2.6097546E1,1.3165052E1,0E0,0E0,4.395321E0,1.328602E1,2.1553417E1,1.2434387E0,2.2359035E1,0E0,0E0,0E0,0E0,0E0,0E0,0E0,0E0,0E0,0E0,0E0,0E0],"parents":[2147483647,0,0,2,2,3,3,4,4,5,5,6,6,7,7,8,8,9,9,12,12,13,13,14,14,15,15,16,16],"right_children":[2,-1,4,6,8,10,12,14,16,18,-1,-1,20,22,24,26,28,-1,-1,-1,-1,-1,-1,-1,-1,-1,-1,-1,-1],"split_conditions":[9.3790895E-1,7.1379584E-3,-8.506915E-3,-1.1648865E-2,1.665978E-3,-1.2427864E-2,9.052545E-1,1.2266648E-2,3.0327628E-3,-1.1533013E-2,6.1639287E-3,-1.0944294E-3,9.952862E-1,-3.8686816E-2,-7.8030406E-3,9.996183E-1,2.7500086E-3,-2.983975E-3,1.8389832E-3,-8.444607E-3,-3.322068E-3,-2.4417916E-3,2.2648377E-3,-5.5662734E-3,4.683861E-3,-3.7609343E-3,-7.961614E-3,-1.701034E-3,9.072575E-4],"split_indices":[22,0,20,20,21,20,9,20,21,21,0,0,22,10,21,2,20,0,0,0,0,0,0,0,0,0,0,0,0],"split_type":[0,0,0,0,0,0,0,0,0,0,0,0,0,0,0,0,0,0,0,0,0,0,0,0,0,0,0,0,0],"sum_hessian":[1.8342131E3,2.178248E1,1.8124307E3,2.7386905E2,1.5385615E3,1.8753174E2,8.633731E1,5.7634735E2,9.6221423E2,1.687942E2,1.8737534E1,2.8070442E1,5.8266872E1,5.1493964E2,6.1407677E1,4.3985786E1,9.1822845E2,1.0960905E2,5.9185165E1,3.2238132E1,2.602874E1,4.3992798E1,4.7094684E2,4.2681797E1,1.8725878E1,1.5607708E1,2.8378078E1,4.4063754E2,4.7759094E2],"tree_param":{"num_deleted":"0","num_feature":"23","num_nodes":"29","size_leaf_vector":"1"}},{"base_weights":[7.1405014E-3,6.530679E-3,-3.465774E-3,-4.1364726E-1,1.482293E-2,-1.9134909E-1,-9.140814E-3,6.408656E-2,-1.5471117E-1,-4.260131E-1,3.1160132E-3,7.511227E-2,-5.4715755E-3,-2.8377974E-1,2.9233338E-2,-7.878923E-6,-5.403669E-3,-4.6020914E-3,7.3689653E-4,-3.4841844E-3,1.4022302E-3,1.1874972E-3,-1.9146742E-3],"categories":[],"categories_nodes":[],"categories_segments":[],"categories_sizes":[],"default_left":[0,0,0,0,0,0,0,0,0,0,0,0,0,0,0,0,0,0,0,0,0,0,0],"id":15,"left_children":[1,-1,3,5,7,9,-1,11,13,15,-1,17,-1,19,21,-1,-1,-1,-1,-1,-1,-1,-1],"loss_changes":[1.4963699E1,0E0,1.3536847E1,1.1042734E1,1.4451843E1,8.5114975E0,0E0,1.072603E1,9.27551E0,4.1347017E0,0E0,1.0766973E1,0E0,1.3871664E1,4.8169584E0,0E0,0E0,0E0,0E0,0E0,0E0,0E0,0E0],"parents":[2147483647,0,0,2,2,3,3,4,4,5,5,7,7,8,8,9,9,11,11,13,13,14,14],"right_children":[2,-1,4,6,8,10,-1,12,14,16,-1,18,-1,20,22,-1,-1,-1,-1,-1,-1,-1,-1],"split_conditions":[9.3790895E-1,6.530679E-3,-1.773849E-2,-1.9603165E-2,1.0235151E0,-1.6751854E-2,-9.140814E-3,2.5259111E-2,9.467949E-3,9.6048605E-1,3.1160132E-3,9.505791E-1,-5.4715755E-3,1.0627596E-2,6.6163912E-3,-7.878923E-6,-5.403669E-3,-4.6020914E-3,7.3689653E-4,-3.4841844E-3,1.4022302E-3,1.1874972E-3,-1.9146742E-3],"split_indices":[22,0,20,20,22,1,0,20,12,22,0,22,0,20,20,0,0,0,0,0,0,0,0],"split_type":[0,0,0,0,0,0,0,0,0,0,0,0,0,0,0,0,0,0,0,0,0,0,0],"sum_hessian":[1.8212085E3,2.2086224E1,1.7991222E3,7.438871E1,1.7247335E3,5.8575504E1,1.5813203E1,1.3377203E3,3.8701318E2,4.1820736E1,1.675477E1,1.3198127E3,1.7907612E1,2.2662692E2,1.6038626E2,1.5149599E1,2.6671137E1,2.4438951E1,1.2953738E3,1.7542616E2,5.1200756E1,1.1250337E2,4.7882893E1],"tree_param":{"num_deleted":"0","num_feature":"23","num_nodes":"23","size_leaf_vector":"1"}},{"base_weights":[7.2679007E-3,1.1229389E-1,-7.733862E-2,-6.6292584E-2,2.9123244E-1,-7.412433E-1,-3.9721098E-2,-3.081297E-1,1.712156E-1,8.452703E-1,2.0118394E-1,-8.443119E-3,-2.2835128E-3,-1.8693705E-1,1.1102993E-1,-5.500916E-2,-7.9722434E-1,6.013635E-1,-5.502703E-1,1.0026132E-3,9.23369E-3,-4.71521E-1,2.753404E-1,-3.3349857E-1,-7.149249E-2,1.8848741E-1,-3.6317354E-1,3.4197923E-3,-1.7990905E-3,-7.46058E-4,-8.30486E-3,6.8792533E-3,-4.20324E-3,-7.1430565E-3,2.1273275E-3,-5.8375294E-3,-1.2284907E-3,1.0859008E-3,4.57896E-3,-1.5777731E-3,-4.4992436E-3,-9.411362E-4,4.143654E-3,6.579564E-3,9.23439E-4,-5.2488926E-3,2.9783184E-3],"categories":[],"categories_nodes":[],"categories_segments":[],"categories_sizes":[],"default_left":[0,0,0,0,0,0,0,0,0,0,0,0,0,0,0,0,0,0,0,0,0,0,0,0,0,0,0,0,0,0,0,0,0,0,0,0,0,0,0,0,0,0,0,0,0,0,0],"id":16,"left_children":[1,3,5,7,9,11,13,15,17,19,21,-1,-1,23,25,27,29,31,33,-1,-1,35,37,39,41,43,45,-1,-1,-1,-1,-1,-1,-1,-1,-1,-1,-1,-1,-1,-1,-1,-1,-1,-1,-1,-1],"loss_changes":[1.6235336E1,2.6102058E1,2.5186975E1,2.3695192E1,1.9880001E1,6.0295086E0,2.1371904E1,2.5149391E1,6.559954E1,1.0125683E1,1.8007511E1,0E0,0E0,8.1720085E0,1.7668312E1,1.0403692E1,9.316292E0,3.3132755E1,1.9878197E1,0E0,0E0,2.3678093E0,1.24861965E1,6.046652E0,6.5294857E0,1.8962858E1,1.3427078E1,0E0,0E0,0E0,0E0,0E0,0E0,0E0,0E0,0E0,0E0,0E0,0E0,0E0,0E0,0E0,0E0,0E0,0E0,0E0,0E0],"parents":[2147483647,0,0,1,1,2,2,3,3,4,4,5,5,6,6,7,7,8,8,9,9,10,10,13,13,14,14,15,15,16,16,17,17,18,18,21,21,22,22,23,23,24,24,25,25,26,26],"right_children":[2,4,6,8,10,12,14,16,18,20,22,-1,-1,24,26,28,30,32,34,-1,-1,36,38,40,42,44,46,-1,-1,-1,-1,-1,-1,-1,-1,-1,-1,-1,-1,-1,-1,-1,-1,-1,-1,-1,-1],"split_conditions":[1.665978E-3,-1.1810946E-2,3.0327628E-3,-7.3041553E-3,-9.149272E-3,2.4115786E-1,2.7500086E-3,-2.119612E-2,3.2094833E-3,-1.07328845E-2,-2.9363226E-2,-8.443119E-3,-2.2835128E-3,1.817431E-1,2.6720848E-2,-2.1189306E-2,-1.86185E-2,-1.7262887E-2,-1.9240115E-2,1.0026132E-3,9.23369E-3,-2.5259548E-1,6.2511517E-3,8.534865E-2,4.2515224E-1,6.984279E-3,6.573927E1,3.4197923E-3,-1.7990905E-3,-7.46058E-4,-8.30486E-3,6.8792533E-3,-4.20324E-3,-7.1430565E-3,2.1273275E-3,-5.8375294E-3,-1.2284907E-3,1.0859008E-3,4.57896E-3,-1.5777731E-3,-4.4992436E-3,-9.411362E-4,4.143654E-3,6.579564E-3,9.23439E-4,-5.2488926E-3,2.9783184E-3],"split_indices":[21,21,21,20,21,15,20,21,20,21,10,0,0,15,12,12,20,21,21,0,0,5,12,15,18,21,13,0,0,0,0,0,0,0,0,0,0,0,0,0,0,0,0,0,0,0,0],"split_type":[0,0,0,0,0,0,0,0,0,0,0,0,0,0,0,0,0,0,0,0,0,0,0,0,0,0,0,0,0,0,0,0,0,0,0,0,0,0,0,0,0,0,0,0,0,0,0],"sum_hessian":[1.8218397E3,8.125074E2,1.00933234E3,4.074523E2,4.0505505E2,5.14649E1,9.5786743E2,2.0152164E2,2.0593066E2,5.3523666E1,3.515314E2,3.0835163E1,2.0629738E1,4.8433356E2,4.7353387E2,1.3474223E2,6.67794E1,1.2929784E2,7.6632835E1,1.5037666E1,3.8486E1,3.34872E1,3.180442E2,2.1117073E2,2.7316284E2,4.084308E2,6.51031E1,3.3487553E1,1.01254684E2,1.5230662E1,5.1548744E1,1.0836043E2,2.0937405E1,5.5571163E1,2.1061676E1,1.7960392E1,1.5526811E1,2.0954034E2,1.08503845E2,1.2634449E2,8.482624E1,2.5675342E2,1.6409414E1,4.4519024E1,3.6391174E2,4.789174E1,1.7211363E1],"tree_param":{"num_deleted":"0","num_feature":"23","num_nodes":"47","size_leaf_vector":"1"}},{"base_weights":[-1.958562E-3,6.4072115E-3,-1.2734322E-2,2.8132813E-2,-1.741143E-1,-5.515554E-1,4.3679234E-2,-8.631034E-3,-1.2896428E-1,-1.3938705E-3,-6.640697E-3,1.4683935E-1,-1.4081692E-2,-3.3014423E-1,-3.3886608E-2,3.50643E-3,6.662842E-4,2.4091611E-4,-1.3234931E-3,-4.3505174E-3,4.3658182E-4,1.3682125E-3,-1.3509125E-3],"categories":[],"categories_nodes":[],"categories_segments":[],"categories_sizes":[],"default_left":[0,0,0,0,0,0,0,0,0,0,0,0,0,0,0,0,0,0,0,0,0,0,0],"id":17,"left_children":[1,-1,3,5,7,9,11,-1,13,-1,-1,15,17,19,21,-1,-1,-1,-1,-1,-1,-1,-1],"loss_changes":[1.5140557E1,0E0,1.1931014E1,1.3070896E1,1.3773281E1,3.1645336E0,8.400926E0,0E0,6.6658587E0,0E0,0E0,9.160787E0,5.598938E0,8.189683E0,6.1234255E0,0E0,0E0,0E0,0E0,0E0,0E0,0E0,0E0],"parents":[2147483647,0,0,2,2,3,3,4,4,5,5,6,6,8,8,11,11,12,12,13,13,14,14],"right_children":[2,-1,4,6,8,10,12,-1,14,-1,-1,16,18,20,22,-1,-1,-1,-1,-1,-1,-1,-1],"split_conditions":[9.3790895E-1,6.4072115E-3,1.0247395E0,-5.2517895E-2,1.0250645E0,3.727242E1,2.4287643E-2,-8.631034E-3,7.889723E-1,-1.3938705E-3,-6.640697E-3,-9.260959E-3,1.7268904E-2,9.084351E-3,6E0,3.50643E-3,6.662842E-4,2.4091611E-4,-1.3234931E-3,-4.3505174E-3,4.3658182E-4,1.3682125E-3,-1.3509125E-3],"split_indices":[22,0,22,10,22,13,8,0,9,0,0,10,12,10,17,0,0,0,0,0,0,0,0],"split_type":[0,0,0,0,0,0,0,0,0,0,0,0,0,0,0,0,0,0,0,0,0,0,0],"sum_hessian":[1.8269626E3,2.2739845E1,1.8042228E3,1.4413319E3,3.6289087E2,3.525383E1,1.4060781E3,1.5278564E1,3.476123E2,1.5318584E1,1.9935247E1,5.033086E2,9.027695E2,1.0943076E2,2.3818155E2,9.707035E1,4.0623825E2,6.972608E2,2.0550871E2,7.2565575E1,3.686519E1,9.315019E1,1.4503136E2],"tree_param":{"num_deleted":"0","num_feature":"23","num_nodes":"23","size_leaf_vector":"1"}},{"base_weights":[-7.1091186E-3,6.974175E-3,-1.8398203E-2,1.8641362E-2,-1.6549248E-1,-1.3668552E-1,7.535786E-2,-5.233839E-3,-1.20062545E-1,-3.6830947E-2,-5.9664243E-1,7.7148545E-1,3.640152E-2,-3.6688113E-1,-3.1883689E-3,8.6610345E-4,-3.048537E-3,-7.7023422E-3,1.0890795E-3,8.794527E-3,1.3239841E-3,1.5448466E-3,-3.3433834E-4,-5.712901E-3,-8.538977E-4,1.0699788E-3,-2.149793E-3],"categories":[],"categories_nodes":[],"categories_segments":[],"categories_sizes":[],"default_left":[0,0,0,0,0,0,0,0,0,0,0,0,0,0,0,0,0,0,0,0,0,0,0,0,0,0,0],"id":18,"left_children":[1,-1,3,5,7,9,11,-1,13,15,17,19,21,23,25,-1,-1,-1,-1,-1,-1,-1,-1,-1,-1,-1,-1],"loss_changes":[1.7464947E1,0E0,9.908187E0,1.2832391E1,7.4299755E0,1.7833258E1,2.884093E1,0E0,9.68981E0,1.4926664E1,1.6601725E1,9.187767E0,1.1468479E1,8.827435E0,7.751811E0,0E0,0E0,0E0,0E0,0E0,0E0,0E0,0E0,0E0,0E0,0E0,0E0],"parents":[2147483647,0,0,2,2,3,3,4,4,5,5,6,6,8,8,9,9,10,10,11,11,12,12,13,13,14,14],"right_children":[2,-1,4,6,8,10,12,-1,14,16,18,20,22,24,26,-1,-1,-1,-1,-1,-1,-1,-1,-1,-1,-1,-1],"split_conditions":[9.3790895E-1,6.974175E-3,1.0247395E0,-1.1810946E-2,1.0252885E0,-1.6934114E-2,-9.149272E-3,-5.233839E-3,7.889723E-1,9.930602E-1,1.11906E-3,1.0014372E0,1.665978E-3,9.6708484E-2,6.684237E1,8.6610345E-4,-3.048537E-3,-7.7023422E-3,1.0890795E-3,8.794527E-3,1.3239841E-3,1.5448466E-3,-3.3433834E-4,-5.712901E-3,-8.538977E-4,1.0699788E-3,-2.149793E-3],"split_indices":[22,0,22,21,22,21,21,0,9,2,0,22,21,16,4,0,0,0,0,0,0,0,0,0,0,0,0],"split_type":[0,0,0,0,0,0,0,0,0,0,0,0,0,0,0,0,0,0,0,0,0,0,0,0,0,0,0],"sum_hessian":[1.8359446E3,2.179277E1,1.8141517E3,1.4510016E3,3.6315018E2,3.8706152E2,1.0639401E3,2.9626698E1,3.3352347E2,3.203785E2,6.668304E1,5.3743877E1,1.01019617E3,1.053374E2,2.2818607E2,2.2549097E2,9.4887535E1,4.5683907E1,2.0999132E1,3.5649746E1,1.8094131E1,3.423779E2,6.678183E2,4.617789E1,5.915951E1,1.512966E2,7.6889465E1],"tree_param":{"num_deleted":"0","num_feature":"23","num_nodes":"27","size_leaf_vector":"1"}},{"base_weights":[-1.1416866E-3,9.9206485E-2,-8.133051E-2,-6.340828E-2,2.7364847E-1,-2.3952769E-1,8.3487764E-2,-3.2929572E-1,1.9333321E-1,1.033701E0,1.8102007E-1,-6.4766186E-1,-1.8040513E-1,-7.994279E-3,1.3200057E-1,-1.2958774E-1,-1.0326625E0,6.070419E-1,-4.4814566E-1,1.0631181E-2,5.660031E-3,-1.7505501E-1,2.9368958E-1,-7.6410007E-3,-3.195297E-1,6.0561188E-3,-2.2217123E-1,6.8582267E-1,5.558956E-2,3.9629033E-3,-1.8858422E-3,-5.724763E-3,-1.0385318E-2,6.880449E-3,-3.0857706E-3,-6.455647E-3,2.4501584E-3,1.8909416E-4,-6.7959405E-3,1.0636689E-3,4.518115E-3,-6.501579E-5,-4.897535E-3,-3.1228943E-3,-8.090631E-4,7.903204E-3,2.6614086E-3,9.0119475E-4,-4.131186E-3],"categories":[],"categories_nodes":[],"categories_segments":[],"categories_sizes":[],"default_left":[0,0,0,0,0,0,0,0,0,0,0,0,0,0,0,0,0,0,0,0,0,0,0,0,0,0,0,0,0,0,0,0,0,0,0,0,0,0,0,0,0,0,0,0,0,0,0,0,0],"id":19,"left_children":[1,3,5,7,9,11,13,15,17,19,21,23,25,-1,27,29,31,33,35,-1,-1,37,39,-1,41,-1,43,45,47,-1,-1,-1,-1,-1,-1,-1,-1,-1,-1,-1,-1,-1,-1,-1,-1,-1,-1,-1,-1],"loss_changes":[1.4661689E1,2.3004227E1,2.6462214E1,2.8904005E1,2.7017998E1,1.21701565E1,2.5400639E1,2.8820814E1,5.798551E1,1.2531891E0,1.4246413E1,4.8171787E0,1.7615673E1,0E0,2.0120884E1,9.7799225E0,1.0447426E0,2.8502277E1,2.118697E1,0E0,0E0,1.0895794E1,1.0800352E1,0E0,2.6987152E0,0E0,8.182558E0,4.673792E0,1.2215116E1,0E0,0E0,0E0,0E0,0E0,0E0,0E0,0E0,0E0,0E0,0E0,0E0,0E0,0E0,0E0,0E0,0E0,0E0,0E0,0E0],"parents":[2147483647,0,0,1,1,2,2,3,3,4,4,5,5,6,6,7,7,8,8,9,9,10,10,11,11,12,12,14,14,15,15,16,16,17,17,18,18,21,21,22,22,24,24,26,26,27,27,28,28],"right_children":[2,4,6,8,10,12,14,16,18,20,22,24,26,-1,28,30,32,34,36,-1,-1,38,40,-1,42,-1,44,46,48,-1,-1,-1,-1,-1,-1,-1,-1,-1,-1,-1,-1,-1,-1,-1,-1,-1,-1,-1,-1],"split_conditions":[1.665978E-3,-1.07328845E-2,2.7500086E-3,-7.3041553E-3,-9.149272E-3,4.046447E-3,2.86338E-3,-1.8249756E-2,2.8613324E-3,-1.0073088E-2,2.5531803E1,2.0382616E-1,4.8747202E-3,-7.994279E-3,6.984279E-3,2.2431886E-2,2.5531803E1,-1.6934114E-2,-1.9240115E-2,1.0631181E-2,5.660031E-3,2.643386E-1,1.1034323E-3,-7.6410007E-3,3.2922435E-1,6.0561188E-3,1.8658583E-1,3.088146E-2,4.6584498E-2,3.9629033E-3,-1.8858422E-3,-5.724763E-3,-1.0385318E-2,6.880449E-3,-3.0857706E-3,-6.455647E-3,2.4501584E-3,1.8909416E-4,-6.7959405E-3,1.0636689E-3,4.518115E-3,-6.501579E-5,-4.897535E-3,-3.1228943E-3,-8.090631E-4,7.903204E-3,2.6614086E-3,9.0119475E-4,-4.131186E-3],"split_indices":[21,21,20,20,21,21,21,21,20,21,6,15,21,0,21,8,6,21,21,0,0,7,20,0,15,0,15,8,21,0,0,0,0,0,0,0,0,0,0,0,0,0,0,0,0,0,0,0,0],"split_type":[0,0,0,0,0,0,0,0,0,0,0,0,0,0,0,0,0,0,0,0,0,0,0,0,0,0,0,0,0,0,0,0,0,0,0,0,0,0,0,0,0,0,0,0,0,0,0,0,0],"sum_hessian":[1.816801E3,8.066258E2,1.01017523E3,4.182995E2,3.8832632E2,5.148663E2,4.9530896E2,2.0514543E2,2.1315407E2,3.926407E1,3.4906226E2,6.1804516E1,4.5306174E2,1.990569E1,4.754033E2,1.6222133E2,4.2924107E1,1.2967911E2,8.347496E1,1.9600447E1,1.966362E1,8.352756E1,2.655347E2,3.158787E1,3.0216648E1,1.8105312E1,4.3495642E2,5.5073944E1,4.2032935E2,2.0767065E1,1.4145427E2,2.024323E1,2.2680876E1,1.0664612E2,2.3032984E1,5.807663E1,2.5398333E1,6.5662186E1,1.7865377E1,1.6065913E2,1.0487555E2,1.5158346E1,1.5058301E1,1.9524559E2,2.3971083E2,2.9937397E1,2.5136545E1,3.858919E2,3.4437428E1],"tree_param":{"num_deleted":"0","num_feature":"23","num_nodes":"49","size_leaf_vector":"1"}},{"base_weights":[1.3079698E-3,1.1507241E-1,-8.9949876E-2,-4.3577466E-2,2.8600985E-1,-2.4782366E-1,7.231197E-2,-3.1678584E-1,1.6620508E-1,9.67681E-3,2.1379167E-1,-6.2661034E-1,-1.6461381E-1,-7.408879E-3,1.1690978E-1,-1.0198467E-1,-7.2014093E-1,4.902887E-1,-4.1754854E-1,2.772316E-1,-2.908619E-1,-3.208159E-2,-1.0393575E0,-3.8811004E-1,-5.097257E-2,6.7510134E-1,4.109292E-2,1.9055016E-4,-6.800898E-3,-3.6781242E-3,-9.781773E-3,6.9921617E-3,-2.628155E-3,-6.0155443E-3,2.432738E-3,-2.8103609E-3,2.9023357E-3,1.2480716E-4,-5.3936443E-3,4.025417E-3,-3.5924313E-3,-4.673885E-3,-1.1502635E-2,7.58686E-5,-3.8941405E-3,1.1474935E-3,-1.2942082E-3,7.4244263E-3,5.6639937E-4,1.0521435E-3,-2.9854374E-3],"categories":[],"categories_nodes":[],"categories_segments":[],"categories_sizes":[],"default_left":[0,0,0,0,0,0,0,0,0,0,0,0,0,0,0,0,0,0,0,0,0,0,0,0,0,0,0,0,0,0,0,0,0,0,0,0,0,0,0,0,0,0,0,0,0,0,0,0,0,0,0],"id":20,"left_children":[1,3,5,7,9,11,13,15,17,-1,19,21,23,-1,25,27,29,31,33,35,37,39,41,43,45,47,49,-1,-1,-1,-1,-1,-1,-1,-1,-1,-1,-1,-1,-1,-1,-1,-1,-1,-1,-1,-1,-1,-1,-1,-1],"loss_changes":[1.899684E1,2.2124065E1,2.6057701E1,2.4480843E1,2.3978848E1,1.5958883E1,2.1719973E1,1.585943E1,4.6309765E1,0E0,1.1916971E1,2.2435562E1,1.0763468E1,0E0,2.0344622E1,1.1046864E1,6.679859E0,4.415485E1,1.9249876E1,1.4168682E1,4.5786047E0,8.757252E0,6.6619377E0,4.3899593E0,5.6153235E0,7.222395E0,1.4495443E1,0E0,0E0,0E0,0E0,0E0,0E0,0E0,0E0,0E0,0E0,0E0,0E0,0E0,0E0,0E0,0E0,0E0,0E0,0E0,0E0,0E0,0E0,0E0,0E0],"parents":[2147483647,0,0,1,1,2,2,3,3,4,4,5,5,6,6,7,7,8,8,10,10,11,11,12,12,14,14,15,15,16,16,17,17,18,18,19,19,20,20,21,21,22,22,23,23,24,24,25,25,26,26],"right_children":[2,4,6,8,10,12,14,16,18,-1,20,22,24,-1,26,28,30,32,34,36,38,40,42,44,46,48,50,-1,-1,-1,-1,-1,-1,-1,-1,-1,-1,-1,-1,-1,-1,-1,-1,-1,-1,-1,-1,-1,-1,-1,-1],"split_conditions":[1.665978E-3,-1.07328845E-2,2.7500086E-3,-8.04483E-3,-9.730671E-3,1.0045315E0,2.86338E-3,-2.119612E-2,2.8613324E-3,9.67681E-3,1.018346E0,9.88411E-1,8.2091324E-2,-7.408879E-3,6.984279E-3,9.917068E-1,-1.1974609E-2,-1.8380951E-2,-1.9240115E-2,-2.9363226E-2,9.9983186E-1,1.5533498E-1,-4.978198E-3,-5.2494355E-3,0E0,6.779675E-1,3.6884987E-1,1.9055016E-4,-6.800898E-3,-3.6781242E-3,-9.781773E-3,6.9921617E-3,-2.628155E-3,-6.0155443E-3,2.432738E-3,-2.8103609E-3,2.9023357E-3,1.2480716E-4,-5.3936443E-3,4.025417E-3,-3.5924313E-3,-4.673885E-3,-1.1502635E-2,7.58686E-5,-3.8941405E-3,1.1474935E-3,-1.2942082E-3,7.4244263E-3,5.6639937E-4,1.0521435E-3,-2.9854374E-3],"split_indices":[21,21,20,20,21,22,21,21,20,0,22,22,16,0,21,2,20,21,21,10,2,16,20,20,11,5,15,0,0,0,0,0,0,0,0,0,0,0,0,0,0,0,0,0,0,0,0,0,0,0,0],"split_type":[0,0,0,0,0,0,0,0,0,0,0,0,0,0,0,0,0,0,0,0,0,0,0,0,0,0,0,0,0,0,0,0,0,0,0,0,0,0,0,0,0,0,0,0,0,0,0,0,0,0,0],"sum_hessian":[1.8245162E3,8.118626E2,1.0126537E3,4.2204898E2,3.8981363E2,5.12598E2,5.0005566E2,1.8275262E2,2.3929636E2,2.6849646E1,3.62964E2,8.920084E1,4.233972E2,2.0043795E1,4.8001184E2,1.2142021E2,6.133242E1,1.541549E2,8.514146E1,3.2350555E2,3.9458435E1,3.7725964E1,5.1474876E1,1.4053943E2,2.8285773E2,5.4893673E1,4.251182E2,1.0543462E2,1.5985588E1,4.0916664E1,2.0415756E1,1.0784154E2,4.6313366E1,5.9739548E1,2.5401907E1,3.1844955E1,2.9166058E2,2.2485594E1,1.6972841E1,1.620541E1,2.1520554E1,2.3995466E1,2.747941E1,2.315439E1,1.1738504E2,1.0013837E2,1.8271936E2,3.980565E1,1.5088026E1,3.5207867E2,7.30395E1],"tree_param":{"num_deleted":"0","num_feature":"23","num_nodes":"51","size_leaf_vector":"1"}},{"base_weights":[4.1673165E-3,6.5857265E-3,-6.797972E-3,3.8361043E-2,-1.6161565E-1,-1.9316682E-1,9.402849E-2,-2.640592E-1,-2.5215704E-2,-4.6179023E-2,-4.8777142E-1,2.9159817E-1,4.128019E-2,-3.8875347E-1,1.7707683E-1,1.0477482E-1,-3.142477E-1,-2.9598882E-3,1.7568276E-3,-7.981655E-3,-2.2861876E-3,6.8524556E-4,4.254055E-3,7.5015414E-4,-3.4019558E-3,-3.828462E-3,3.3482147E-4,4.597937E-3,-6.2835246E-4,-3.6778848E-3,2.4784561E-3,-4.9293577E-4,-6.4167567E-3],"categories":[],"categories_nodes":[],"categories_segments":[],"categories_sizes":[],"default_left":[0,0,0,0,0,0,0,0,0,0,0,0,0,0,0,0,0,0,0,0,0,0,0,0,0,0,0,0,0,0,0,0,0],"id":21,"left_children":[1,-1,3,5,7,9,11,13,15,17,19,21,23,25,27,29,31,-1,-1,-1,-1,-1,-1,-1,-1,-1,-1,-1,-1,-1,-1,-1,-1],"loss_changes":[1.5717753E1,0E0,1.2651166E1,1.8103739E1,5.6889734E0,1.172974E1,1.175395E1,1.3002113E1,6.7851624E0,1.4721008E1,8.332106E0,1.0683693E1,1.946007E1,5.40765E0,5.0979424E0,1.332924E1,6.333482E0,0E0,0E0,0E0,0E0,0E0,0E0,0E0,0E0,0E0,0E0,0E0,0E0,0E0,0E0,0E0,0E0],"parents":[2147483647,0,0,2,2,3,3,4,4,5,5,6,6,7,7,8,8,9,9,10,10,11,11,12,12,13,13,14,14,15,15,16,16],"right_children":[2,-1,4,6,8,10,12,14,16,18,20,22,24,26,28,30,32,-1,-1,-1,-1,-1,-1,-1,-1,-1,-1,-1,-1,-1,-1,-1,-1],"split_conditions":[9.3790895E-1,6.5857265E-3,1.0232576E0,-8.257137E-3,8.211529E-3,-1.1648865E-2,-3.0702723E-3,1.0627596E-2,6.6163912E-3,-1.7092345E-2,9.6997285E-1,-5.5833585E-3,2.616478E-2,9.432214E-1,1.4117376E-2,1.026102E0,1.037582E0,-2.9598882E-3,1.7568276E-3,-7.981655E-3,-2.2861876E-3,6.8524556E-4,4.254055E-3,7.5015414E-4,-3.4019558E-3,-3.828462E-3,3.3482147E-4,4.597937E-3,-6.2835246E-4,-3.6778848E-3,2.4784561E-3,-4.9293577E-4,-6.4167567E-3],"split_indices":[22,0,22,20,12,20,20,20,20,20,22,20,12,7,20,22,22,0,0,0,0,0,0,0,0,0,0,0,0,0,0,0,0],"split_type":[0,0,0,0,0,0,0,0,0,0,0,0,0,0,0,0,0,0,0,0,0,0,0,0,0,0,0,0,0,0,0,0,0],"sum_hessian":[1.8270557E3,2.2694864E1,1.8043607E3,1.3983755E3,4.0598532E2,2.697486E2,1.1286268E3,2.303971E2,1.7558823E2,1.8201886E2,8.7729744E1,2.3527156E2,8.933553E2,1.798873E2,5.0509796E1,1.2224827E2,5.3339962E1,8.228329E1,9.973557E1,2.4825533E1,6.2904213E1,1.2133809E2,1.13933464E2,8.082547E2,8.5100586E1,1.5499986E2,2.4887432E1,1.916838E1,3.1341417E1,3.0888914E1,9.135935E1,3.600183E1,1.7338129E1],"tree_param":{"num_deleted":"0","num_feature":"23","num_nodes":"33","size_leaf_vector":"1"}},{"base_weights":[1.0203879E-3,4.9128745E-2,-1.659352E-1,-1.5375529E-1,1.0025014E-1,-2.847576E-1,-8.36396E-3,7.918306E-3,-4.9307543E-1,3.1489217E-1,4.3598484E-2,-4.1592738E-1,2.5532693E-1,1.0879826E-1,-3.0811107E-1,4.18637E-1,-1.399658E-1,-7.680553E-3,-2.8219193E-1,4.4881216E-1,-7.339885E-2,9.758643E-2,-4.642824E-1,-2.8141937E-1,-6.548828E-1,5.7912953E-3,-4.4753455E-5,-3.8675478E-1,2.787755E-1,-5.5838242E-2,-5.77836E-3,6.0845967E-3,-7.529906E-4,-4.4692317E-3,8.578862E-4,2.5127755E-4,-6.6474713E-3,1.7420589E-3,5.826191E-3,-2.4816534E-3,3.6213086E-3,-4.505427E-3,1.0494723E-3,-1.8352695E-3,-6.801724E-3,-4.156768E-3,-1.129309E-4,-7.2566546E-3,-1.4009832E-3,-6.3838065E-3,3.487293E-4,3.9931415E-3,2.945577E-4,2.2721537E-3,-3.2129008E-3],"categories":[],"categories_nodes":[],"categories_segments":[],"categories_sizes":[],"default_left":[0,0,0,0,0,0,0,0,0,0,0,0,0,0,0,0,0,0,0,0,0,0,0,0,0,0,0,0,0,0,0,0,0,0,0,0,0,0,0,0,0,0,0,0,0,0,0,0,0,0,0,0,0,0,0],"id":22,"left_children":[1,3,5,7,9,11,13,15,17,19,21,23,25,27,29,31,33,-1,35,37,39,41,43,45,47,-1,-1,49,51,53,-1,-1,-1,-1,-1,-1,-1,-1,-1,-1,-1,-1,-1,-1,-1,-1,-1,-1,-1,-1,-1,-1,-1,-1,-1],"loss_changes":[1.4772065E1,1.4849662E1,7.692996E0,1.5835667E1,1.3848145E1,1.6888187E1,6.3984504E0,1.2176731E1,7.6335278E0,1.2469023E1,2.4977663E1,5.5988617E0,5.410249E0,1.13222275E1,4.822276E0,8.490648E0,1.422245E1,0E0,1.061665E1,1.0155373E1,7.4735394E0,1.4662085E1,6.987873E0,7.23271E0,6.4475784E0,0E0,0E0,5.6521873E0,4.7333136E0,3.8913884E0,0E0,0E0,0E0,0E0,0E0,0E0,0E0,0E0,0E0,0E0,0E0,0E0,0E0,0E0,0E0,0E0,0E0,0E0,0E0,0E0,0E0,0E0,0E0,0E0,0E0],"parents":[2147483647,0,0,1,1,2,2,3,3,4,4,5,5,6,6,7,7,8,8,9,9,10,10,11,11,12,12,13,13,14,14,15,15,16,16,18,18,19,19,20,20,21,21,22,22,23,23,24,24,27,27,28,28,29,29],"right_children":[2,4,6,8,10,12,14,16,18,20,22,24,26,28,30,32,34,-1,36,38,40,42,44,46,48,-1,-1,50,52,54,-1,-1,-1,-1,-1,-1,-1,-1,-1,-1,-1,-1,-1,-1,-1,-1,-1,-1,-1,-1,-1,-1,-1,-1,-1],"split_conditions":[1.0232576E0,-8.257137E-3,8.211529E-3,-1.1648865E-2,-3.0702723E-3,1.2138819E-2,7.7550043E-3,9.6536833E-1,9.6997285E-1,2.8639337E-1,2.6720848E-2,1.0325989E0,1.4534815E-2,1.026102E0,1.037582E0,5.8297906E-3,-1.7092345E-2,-7.680553E-3,1.0044553E0,9.2429304E-1,1.1200635E0,-2.552639E-3,6.5620686E-3,2.783956E-3,1.0167615E0,5.7912953E-3,-4.4753455E-5,1.6576236E-2,2.721048E-2,2.1351078E-1,-5.77836E-3,6.0845967E-3,-7.529906E-4,-4.4692317E-3,8.578862E-4,2.5127755E-4,-6.6474713E-3,1.7420589E-3,5.826191E-3,-2.4816534E-3,3.6213086E-3,-4.505427E-3,1.0494723E-3,-1.8352695E-3,-6.801724E-3,-4.156768E-3,-1.129309E-4,-7.2566546E-3,-1.4009832E-3,-6.3838065E-3,3.487293E-4,3.9931415E-3,2.945577E-4,2.2721537E-3,-3.2129008E-3],"split_indices":[22,20,12,20,20,20,20,22,22,16,12,22,20,22,22,10,20,0,22,9,9,20,20,0,2,0,0,19,19,15,0,0,0,0,0,0,0,0,0,0,0,0,0,0,0,0,0,0,0,0,0,0,0,0,0],"split_type":[0,0,0,0,0,0,0,0,0,0,0,0,0,0,0,0,0,0,0,0,0,0,0,0,0,0,0,0,0,0,0,0,0,0,0,0,0,0,0,0,0,0,0,0,0,0,0,0,0,0,0,0,0,0,0],"sum_hessian":[1.8340161E3,1.4252545E3,4.087616E2,2.8573953E2,1.139515E3,2.3178096E2,1.7698064E2,1.9524988E2,9.048966E1,2.35405E2,9.0411E2,1.8699265E2,4.4788315E1,1.2842413E2,4.8556496E1,5.0433575E1,1.448163E2,2.710404E1,6.3385624E1,1.7475206E2,6.065295E1,8.1918097E2,8.492901E1,1.23345345E2,6.36473E1,1.5139595E1,2.9648718E1,3.1924747E1,9.649938E1,3.107755E1,1.7478945E1,3.072196E1,1.9711615E1,5.3995483E1,9.0820816E1,4.0891308E1,2.2494314E1,9.095849E1,8.379357E1,4.2870743E1,1.7782204E1,3.2210896E1,7.869701E2,5.2365578E1,3.256343E1,6.71675E1,5.617784E1,4.2936058E1,2.0711243E1,1.5930885E1,1.5993862E1,5.180671E1,4.4692677E1,1.5764632E1,1.5312918E1],"tree_param":{"num_deleted":"0","num_feature":"23","num_nodes":"55","size_leaf_vector":"1"}},{"base_weights":[-6.242583E-3,6.277194E-3,-1.6547522E-2,-1.97965E-1,1.633236E-2,-2.332578E-2,-5.7363343E-1,2.2664659E-1,-3.1839278E-2,-3.4407124E-1,2.3015513E-1,-7.9887056E-1,-4.81298E-4,2.8397083E-1,-3.6371837E-3,-2.5921166E-1,3.0988928E-2,1.787663E-3,-4.532432E-3,9.187736E-4,6.1145173E-3,-3.5158126E-3,-8.395465E-3,7.09297E-4,4.1298326E-3,3.152671E-3,-3.2252057E-3,-6.9429255E-3,4.1172627E-4],"categories":[],"categories_nodes":[],"categories_segments":[],"categories_sizes":[],"default_left":[0,0,0,0,0,0,0,0,0,0,0,0,0,0,0,0,0,0,0,0,0,0,0,0,0,0,0,0,0],"id":23,"left_children":[1,-1,3,5,7,9,11,13,15,17,19,21,-1,23,-1,25,27,-1,-1,-1,-1,-1,-1,-1,-1,-1,-1,-1,-1],"loss_changes":[1.4321499E1,0E0,1.0827846E1,1.8229115E1,1.5598937E1,1.58917055E1,1.0128948E1,1.1194681E1,1.7927912E1,9.786612E0,6.36154E0,3.6014214E0,0E0,1.0956741E1,0E0,2.2129776E1,1.5487813E1,0E0,0E0,0E0,0E0,0E0,0E0,0E0,0E0,0E0,0E0,0E0,0E0],"parents":[2147483647,0,0,2,2,3,3,4,4,5,5,6,6,7,7,8,8,9,9,10,10,11,11,13,13,15,15,16,16],"right_children":[2,-1,4,6,8,10,12,14,16,18,20,22,-1,24,-1,26,28,-1,-1,-1,-1,-1,-1,-1,-1,-1,-1,-1,-1],"split_conditions":[9.3790895E-1,6.277194E-3,-8.506915E-3,-1.1648865E-2,-3.0702723E-3,-1.7092345E-2,2.5239345E-1,1.0294691E0,-1.870928E-5,9.591446E-1,-1.2427864E-2,9.637313E-1,-4.81298E-4,-5.5833585E-3,-3.6371837E-3,9.900689E-1,9.561248E-1,1.787663E-3,-4.532432E-3,9.187736E-4,6.1145173E-3,-3.5158126E-3,-8.395465E-3,7.09297E-4,4.1298326E-3,3.152671E-3,-3.2252057E-3,-6.9429255E-3,4.1172627E-4],"split_indices":[22,0,20,20,20,20,15,22,20,22,20,9,0,20,0,22,22,0,0,0,0,0,0,0,0,0,0,0,0],"split_type":[0,0,0,0,0,0,0,0,0,0,0,0,0,0,0,0,0,0,0,0,0,0,0,0,0,0,0,0,0],"sum_hessian":[1.8329268E3,2.2096762E1,1.81083E3,2.7586072E2,1.5349692E3,1.9024716E2,8.561354E1,2.8428268E2,1.2506865E3,8.358483E1,1.0666234E2,5.858433E1,2.702921E1,2.6299402E2,2.1288649E1,2.690287E2,9.816579E2,2.1765306E1,6.1819523E1,8.856484E1,1.8097492E1,2.3316425E1,3.5267906E1,1.3661708E2,1.26376945E2,4.360151E1,2.2542719E2,1.7872871E1,9.6378503E2],"tree_param":{"num_deleted":"0","num_feature":"23","num_nodes":"29","size_leaf_vector":"1"}},{"base_weights":[1.0018826E-2,1.14312015E-1,-7.476828E-2,-5.294588E-2,2.9150838E-1,-7.976117E-1,-3.4614135E-2,-3.273743E-1,1.6224478E-1,1.0285746E0,2.0023723E-1,-4.059593E-3,-8.13204E-3,-1.9269924E-1,1.24616064E-1,-1.8251748E-1,-9.179382E-1,5.133337E-1,-4.5006076E-1,1.1590165E-2,3.2511326E-3,2.6670018E-1,-3.185855E-1,-5.702281E-1,-1.0565114E-1,1.8194275E-1,-5.6566125E-1,3.81738E-3,-2.3980013E-3,-4.101266E-3,-9.806663E-3,6.7211785E-3,-1.6121914E-3,-6.453464E-3,2.6706299E-3,-3.96863E-3,2.743925E-3,2.9888557E-4,-6.0614976E-3,-9.707859E-6,-8.385187E-3,-2.4780552E-3,-2.489886E-6,3.1650772E-3,-2.8381106E-5,-1.7311104E-3,-7.2325757E-3],"categories":[],"categories_nodes":[],"categories_segments":[],"categories_sizes":[],"default_left":[0,0,0,0,0,0,0,0,0,0,0,0,0,0,0,0,0,0,0,0,0,0,0,0,0,0,0,0,0,0,0,0,0,0,0,0,0,0,0,0,0,0,0,0,0,0,0],"id":24,"left_children":[1,3,5,7,9,11,13,15,17,19,21,-1,-1,23,25,27,29,31,33,-1,-1,35,37,39,41,43,45,-1,-1,-1,-1,-1,-1,-1,-1,-1,-1,-1,-1,-1,-1,-1,-1,-1,-1,-1,-1],"loss_changes":[1.6209692E1,2.4403519E1,2.9268503E1,2.5241295E1,2.6322441E1,1.6244011E0,2.424828E1,1.5603182E1,5.2194714E1,8.437817E0,1.2595871E1,0E0,0E0,1.5712698E1,1.9269444E1,1.0552788E1,2.4051647E0,3.1809914E1,2.2554232E1,0E0,0E0,1.483551E1,6.0953083E0,2.2043423E1,7.9326825E0,1.6188358E1,3.5237007E0,0E0,0E0,0E0,0E0,0E0,0E0,0E0,0E0,0E0,0E0,0E0,0E0,0E0,0E0,0E0,0E0,0E0,0E0,0E0,0E0],"parents":[2147483647,0,0,1,1,2,2,3,3,4,4,5,5,6,6,7,7,8,8,9,9,10,10,13,13,14,14,15,15,16,16,17,17,18,18,21,21,22,22,23,23,24,24,25,25,26,26],"right_children":[2,4,6,8,10,12,14,16,18,20,22,-1,-1,24,26,28,30,32,34,-1,-1,36,38,40,42,44,46,-1,-1,-1,-1,-1,-1,-1,-1,-1,-1,-1,-1,-1,-1,-1,-1,-1,-1,-1,-1],"split_conditions":[1.665978E-3,-1.07328845E-2,3.0327628E-3,-8.04483E-3,-9.149272E-3,9.996183E-1,2.7500086E-3,-1.8249756E-2,2.8613324E-3,9.981779E-1,1.018346E0,-4.059593E-3,-8.13204E-3,1.0045315E0,4.6584498E-2,2.2431886E-2,-4.2870957E-3,-1.8380951E-2,-1.9240115E-2,1.1590165E-2,3.2511326E-3,-3.3530995E-2,9.9983186E-1,9.88411E-1,9.6708484E-2,1.0200822E0,1.0390406E-2,3.81738E-3,-2.3980013E-3,-4.101266E-3,-9.806663E-3,6.7211785E-3,-1.6121914E-3,-6.453464E-3,2.6706299E-3,-3.96863E-3,2.743925E-3,2.9888557E-4,-6.0614976E-3,-9.707859E-6,-8.385187E-3,-2.4780552E-3,-2.489886E-6,3.1650772E-3,-2.8381106E-5,-1.7311104E-3,-7.2325757E-3],"split_indices":[21,21,21,20,21,2,20,21,20,22,22,0,0,22,21,8,12,21,21,0,0,10,2,22,16,22,12,0,0,0,0,0,0,0,0,0,0,0,0,0,0,0,0,0,0,0,0],"split_type":[0,0,0,0,0,0,0,0,0,0,0,0,0,0,0,0,0,0,0,0,0,0,0,0,0,0,0,0,0,0,0,0,0,0,0,0,0,0,0,0,0,0,0,0,0,0,0],"sum_hessian":[1.827881E3,8.193037E2,1.0085773E3,4.223891E2,3.9691464E2,5.044831E1,9.5812897E2,1.8506201E2,2.3732709E2,4.0739994E1,3.5617465E2,2.1585854E1,2.8862455E1,4.805508E2,4.7757812E2,1.5139459E2,3.366742E1,1.511205E2,8.620659E1,2.4218042E1,1.6521952E1,3.1688272E2,3.929194E1,8.7277145E1,3.9327368E2,4.4276343E2,3.4814716E1,1.9917065E1,1.3147752E2,1.5397885E1,1.8269533E1,1.0694505E2,4.417545E1,6.0847767E1,2.5358828E1,2.2731483E1,2.941512E2,2.2231627E1,1.7060312E1,3.876874E1,4.8508408E1,1.384179E2,2.5485577E2,2.138757E2,2.2888771E2,1.7834557E1,1.6980162E1],"tree_param":{"num_deleted":"0","num_feature":"23","num_nodes":"47","size_leaf_vector":"1"}},{"base_weights":[4.3383506E-4,4.7006324E-2,-1.7005487E-1,-1.5596452E-1,9.566937E-2,-2.3406762E-1,6.796346E-2,9.509255E-4,-5.06434E-1,4.5832568E-1,6.467581E-2,-1.55184E-1,-7.043805E-1,4.4409683E-1,-3.3467168E-1,4.2114282E-1,-1.5377882E-1,-4.3744512E-4,-7.086022E-1,9.1182894E-1,-4.102779E-1,-3.9564434E-2,2.0137599E-1,-2.4446152E-1,5.043847E-1,-3.2261922E-3,-7.0646643E-3,5.826084E-3,-1.8596296E-5,-5.7408614E-3,1.5892744E-3,6.2220753E-3,-1.0645379E-3,-3.5602713E-3,2.830059E-3,-7.988159E-3,-2.6206379E-3,5.5647553E-3,1.0962083E-2,-6.369715E-3,1.6173386E-5,1.6069983E-3,-2.0046025E-3,-6.4136656E-3,2.6665325E-3,-1.2344458E-3,-7.108286E-3,1.4045793E-3,6.4316005E-3],"categories":[],"categories_nodes":[],"categories_segments":[],"categories_sizes":[],"default_left":[0,0,0,0,0,0,0,0,0,0,0,0,0,0,0,0,0,0,0,0,0,0,0,0,0,0,0,0,0,0,0,0,0,0,0,0,0,0,0,0,0,0,0,0,0,0,0,0,0],"id":25,"left_children":[1,3,5,7,9,11,13,15,17,19,21,23,25,27,29,31,33,-1,35,37,39,41,43,45,47,-1,-1,-1,-1,-1,-1,-1,-1,-1,-1,-1,-1,-1,-1,-1,-1,-1,-1,-1,-1,-1,-1,-1,-1],"loss_changes":[1.452752E1,1.4234564E1,6.024807E0,1.534498E1,1.2965426E1,1.1202856E1,1.3296227E1,1.2868417E1,7.816656E0,3.6816406E1,1.5307905E1,1.6153639E1,1.0746746E0,5.0879545E0,8.194956E0,9.657201E0,1.9677942E1,0E0,4.9724426E0,3.637024E0,4.7791266E0,2.836925E1,5.3235348E1,1.36539135E1,2.5702267E0,0E0,0E0,0E0,0E0,0E0,0E0,0E0,0E0,0E0,0E0,0E0,0E0,0E0,0E0,0E0,0E0,0E0,0E0,0E0,0E0,0E0,0E0,0E0,0E0],"parents":[2147483647,0,0,1,1,2,2,3,3,4,4,5,5,6,6,7,7,8,8,9,9,10,10,11,11,12,12,13,13,14,14,15,15,16,16,18,18,19,19,20,20,21,21,22,22,23,23,24,24],"right_children":[2,4,6,8,10,12,14,16,18,20,22,24,26,28,30,32,34,-1,36,38,40,42,44,46,48,-1,-1,-1,-1,-1,-1,-1,-1,-1,-1,-1,-1,-1,-1,-1,-1,-1,-1,-1,-1,-1,-1,-1,-1],"split_conditions":[1.0235151E0,-8.506915E-3,1.0627596E-2,-1.1648865E-2,-2.8416172E-2,7.539338E-3,1.0370067E0,9.6536833E-1,9.052545E-1,2.1774357E-3,2.8613324E-3,3.9250933E-2,1.1548033E-2,1.0540513E0,1.3430902E-2,5.8297906E-3,-7.4018054E-3,-4.3744512E-4,9.952862E-1,-1.8128938E-3,9.561248E-1,6.9533376E-4,-1.3658245E-2,3.0644123E-2,8.45679E1,-3.2261922E-3,-7.0646643E-3,5.826084E-3,-1.8596296E-5,-5.7408614E-3,1.5892744E-3,6.2220753E-3,-1.0645379E-3,-3.5602713E-3,2.830059E-3,-7.988159E-3,-2.6206379E-3,5.5647553E-3,1.0962083E-2,-6.369715E-3,1.6173386E-5,1.6069983E-3,-2.0046025E-3,-6.4136656E-3,2.6665325E-3,-1.2344458E-3,-7.108286E-3,1.4045793E-3,6.4316005E-3],"split_indices":[22,20,20,20,21,20,22,22,9,20,20,21,0,9,11,10,21,0,22,20,22,21,21,21,6,0,0,0,0,0,0,0,0,0,0,0,0,0,0,0,0,0,0,0,0,0,0,0,0],"split_type":[0,0,0,0,0,0,0,0,0,0,0,0,0,0,0,0,0,0,0,0,0,0,0,0,0,0,0,0,0,0,0,0,0,0,0,0,0,0,0,0,0,0,0,0,0,0,0,0,0],"sum_hessian":[1.824531E3,1.4346115E3,3.8991965E2,2.7626907E2,1.1583423E3,3.0735138E2,8.256829E1,1.9262178E2,8.3647285E1,8.8312454E1,1.0700299E3,2.6622586E2,4.1125526E1,4.256323E1,4.000506E1,5.063948E1,1.419823E2,2.6802568E1,5.6844715E1,5.7942272E1,3.037018E1,6.081086E2,4.6192133E2,2.3596165E2,3.026419E1,1.5533174E1,2.5592352E1,2.6292498E1,1.6270731E1,2.3496918E1,1.6508142E1,3.1330606E1,1.9308876E1,9.173528E1,5.0247013E1,3.2776752E1,2.4067963E1,4.0067047E1,1.7875227E1,1.5227479E1,1.5142701E1,2.8176468E2,3.2634387E2,4.827745E1,4.136439E2,2.0615431E2,2.9807352E1,1.5203758E1,1.5060432E1],"tree_param":{"num_deleted":"0","num_feature":"23","num_nodes":"49","size_leaf_vector":"1"}},{"base_weights":[2.089723E-3,6.903514E-3,-9.2277825E-3,-4.1844964E-1,9.5620155E-3,-2.2165751E-1,-8.615949E-3,5.4146178E-2,-1.5777378E-1,-5.705073E-3,2.0764215E-1,-5.418635E-1,7.313056E-2,-7.7238027E-3,-1.15393974E-1,-1.1691574E-3,4.444603E-3,-7.2471257E-3,-2.3379563E-3,7.0916617E-4,-6.058186E-3,-5.1923255E-3,-6.323979E-4],"categories":[],"categories_nodes":[],"categories_segments":[],"categories_sizes":[],"default_left":[0,0,0,0,0,0,0,0,0,0,0,0,0,0,0,0,0,0,0,0,0,0,0],"id":26,"left_children":[1,-1,3,5,7,9,-1,11,13,-1,15,17,19,-1,21,-1,-1,-1,-1,-1,-1,-1,-1],"loss_changes":[1.7021025E1,0E0,1.38835E1,8.907142E0,1.2905576E1,1.2870518E1,0E0,1.5551566E1,1.1500811E1,0E0,4.097891E0,2.9587212E0,1.2358788E1,0E0,6.8688684E0,0E0,0E0,0E0,0E0,0E0,0E0,0E0,0E0],"parents":[2147483647,0,0,2,2,3,3,4,4,5,5,7,7,8,8,10,10,11,11,12,12,14,14],"right_children":[2,-1,4,6,8,10,-1,12,14,-1,16,18,20,-1,22,-1,-1,-1,-1,-1,-1,-1,-1],"split_conditions":[9.3790895E-1,6.903514E-3,-1.773849E-2,-1.9603165E-2,1.0247395E0,-2.7706739E-2,-8.615949E-3,-4.989012E-2,1.0250645E0,-5.705073E-3,0E0,-1.2213652E-1,2.5259111E-2,-7.7238027E-3,2.86338E-3,-1.1691574E-3,4.444603E-3,-7.2471257E-3,-2.3379563E-3,7.0916617E-4,-6.058186E-3,-5.1923255E-3,-6.323979E-4],"split_indices":[22,0,20,20,22,21,0,10,22,0,10,14,20,0,21,0,0,0,0,0,0,0,0],"split_type":[0,0,0,0,0,0,0,0,0,0,0,0,0,0,0,0,0,0,0,0,0,0,0],"sum_hessian":[1.8231791E3,2.2196093E1,1.800983E3,7.662994E1,1.724353E3,6.0677963E1,1.5951979E1,1.3630402E3,3.6131296E2,2.8569918E1,3.2108044E1,3.9817974E1,1.3232222E3,1.608885E1,3.452241E2,1.618022E1,1.5927824E1,1.5113349E1,2.4704626E1,1.3066355E3,1.6586582E1,2.2452782E1,3.2277133E2],"tree_param":{"num_deleted":"0","num_feature":"23","num_nodes":"23","size_leaf_vector":"1"}},{"base_weights":[-8.308476E-5,6.3890647E-3,-1.0763813E-2,5.6029606E-4,-5.717943E-1,-6.353798E-2,1.0347659E-1,-7.2735758E-3,-1.7990366E-3,9.2006385E-2,-2.344951E-1,-6.507001E-1,2.0054166E-1,-1.165333E-3,2.34337E-3,-4.688147E-3,-1.4365445E-3,-1.6992071E-3,-7.0951045E-3,3.1279258E-3,-4.0568836E-4],"categories":[],"categories_nodes":[],"categories_segments":[],"categories_sizes":[],"default_left":[0,0,0,0,0,0,0,0,0,0,0,0,0,0,0,0,0,0,0,0,0],"id":27,"left_children":[1,-1,3,5,7,9,11,-1,-1,13,15,17,19,-1,-1,-1,-1,-1,-1,-1,-1],"loss_changes":[1.4954742E1,0E0,1.1510653E1,1.1743121E1,3.2939053E0,2.92251E1,5.035411E1,0E0,0E0,2.5121578E1,1.0456137E1,6.446396E0,2.6210598E1,0E0,0E0,0E0,0E0,0E0,0E0,0E0,0E0],"parents":[2147483647,0,0,2,2,3,3,4,4,5,5,6,6,9,9,10,10,11,11,12,12],"right_children":[2,-1,4,6,8,10,12,-1,-1,14,16,18,20,-1,-1,-1,-1,-1,-1,-1,-1],"split_conditions":[9.3790895E-1,6.3890647E-3,4.939319E-2,2.7500086E-3,1.0317551E0,1.1565721E-3,-1.3658245E-2,-7.2735758E-3,-1.7990366E-3,-7.470275E-3,4.210295E-3,-3.0405158E-2,1.0200822E0,-1.165333E-3,2.34337E-3,-4.688147E-3,-1.4365445E-3,-1.6992071E-3,-7.0951045E-3,3.1279258E-3,-4.0568836E-4],"split_indices":[22,0,21,20,22,21,21,0,0,20,21,21,22,0,0,0,0,0,0,0,0],"split_type":[0,0,0,0,0,0,0,0,0,0,0,0,0,0,0,0,0,0,0,0,0],"sum_hessian":[1.8307155E3,2.2695915E1,1.8080195E3,1.7748076E3,3.3211903E1,1.0942107E3,6.805969E2,1.6055449E1,1.7156452E1,5.735345E2,5.206762E2,7.588032E1,6.047166E2,2.573871E2,3.1614737E2,8.1008255E1,4.3966797E2,2.479932E1,5.1080997E1,3.560661E2,2.4865051E2],"tree_param":{"num_deleted":"0","num_feature":"23","num_nodes":"21","size_leaf_vector":"1"}},{"base_weights":[-8.7945415E-3,6.7286342E-3,-1.9925486E-2,-2.1283387E-1,1.5354013E-2,-4.9099263E-2,-5.690565E-1,7.338174E-2,-1.491445E-1,-3.8118213E-1,2.124083E-1,-7.690094E-1,-8.2311494E-4,2.5895187E-1,2.221191E-2,-3.5302168E-1,-4.8642393E-2,1.3858537E-3,-4.7411243E-3,6.476111E-4,6.386349E-3,-4.0948982E-3,-9.345893E-3,6.743559E-4,3.8251425E-3,-5.353208E-3,4.9213046E-4,-2.272061E-4,-4.0447996E-3,1.617975E-3,-1.4498052E-3],"categories":[],"categories_nodes":[],"categories_segments":[],"categories_sizes":[],"default_left":[0,0,0,0,0,0,0,0,0,0,0,0,0,0,0,0,0,0,0,0,0,0,0,0,0,0,0,0,0,0,0],"id":28,"left_children":[1,-1,3,5,7,9,11,13,15,17,19,21,-1,23,25,27,29,-1,-1,-1,-1,-1,-1,-1,-1,-1,-1,-1,-1,-1,-1],"loss_changes":[1.647442E1,0E0,1.2236307E1,1.6131514E1,1.4546972E1,1.7004595E1,8.004772E0,1.0675751E1,8.094145E0,8.961966E0,7.9980125E0,4.4566956E0,0E0,8.479046E0,2.1510279E1,5.4999695E0,8.196438E0,0E0,0E0,0E0,0E0,0E0,0E0,0E0,0E0,0E0,0E0,0E0,0E0,0E0,0E0],"parents":[2147483647,0,0,2,2,3,3,4,4,5,5,6,6,7,7,8,8,9,9,10,10,11,11,13,13,14,14,15,15,16,16],"right_children":[2,-1,4,6,8,10,12,14,16,18,20,22,-1,24,26,28,30,-1,-1,-1,-1,-1,-1,-1,-1,-1,-1,-1,-1,-1,-1],"split_conditions":[9.3790895E-1,6.7286342E-3,-8.506915E-3,-1.1648865E-2,1.0232576E0,-1.7092345E-2,2.5239345E-1,-3.0702723E-3,7.889723E-1,9.591446E-1,-1.2427864E-2,1.5495043E-1,-8.2311494E-4,-5.5833585E-3,-2.4323782E-3,1.0190092E0,1.5206383E-1,1.3858537E-3,-4.7411243E-3,6.476111E-4,6.386349E-3,-4.0948982E-3,-9.345893E-3,6.743559E-4,3.8251425E-3,-5.353208E-3,4.9213046E-4,-2.272061E-4,-4.0447996E-3,1.617975E-3,-1.4498052E-3],"split_indices":[22,0,20,20,22,20,15,20,9,22,20,15,0,20,20,3,15,0,0,0,0,0,0,0,0,0,0,0,0,0,0],"split_type":[0,0,0,0,0,0,0,0,0,0,0,0,0,0,0,0,0,0,0,0,0,0,0,0,0,0,0,0,0,0,0],"sum_hessian":[1.8157173E3,2.1995651E1,1.7937217E3,2.753218E2,1.5183999E3,1.9069807E2,8.462373E1,1.1235789E3,3.9482095E2,8.350027E1,1.0719781E2,5.820767E1,2.6416067E1,2.4049484E2,8.8308405E2,1.2814238E2,2.6667856E2,2.1166298E1,6.233397E1,8.849791E1,1.8699898E1,3.5745426E1,2.2462242E1,1.2842992E2,1.1206493E2,4.3957466E1,8.391266E2,3.747225E1,9.067013E1,9.009604E1,1.7658253E2],"tree_param":{"num_deleted":"0","num_feature":"23","num_nodes":"31","size_leaf_vector":"1"}},{"base_weights":[-1.8379427E-3,7.9102896E-2,-6.730437E-2,-7.1455434E-2,2.4019267E-1,-2.3132719E-1,1.0219593E-1,-3.209481E-1,1.4071564E-1,9.3923835E-3,1.664151E-1,-6.269813E-1,-1.7551069E-1,-7.395329E-3,1.4867856E-1,-1.6380316E-1,-9.026468E-1,5.077507E-1,-4.2341375E-1,4.040115E-2,3.6309564E-1,-3.161331E-1,-7.4838926E-3,5.8990913E-3,-2.1578373E-1,6.880883E-1,7.320615E-2,4.005627E-3,-2.2633441E-3,-4.327772E-3,-9.005989E-3,7.2121583E-3,-3.9930195E-3,-6.1410014E-3,2.6914878E-3,1.8035347E-3,-5.5539473E-3,-1.7952952E-3,5.6272484E-3,-1.7798004E-4,-4.766221E-3,-2.6039914E-3,-4.2414368E-4,9.551106E-3,1.4284028E-3,1.0776075E-3,-4.3363427E-3],"categories":[],"categories_nodes":[],"categories_segments":[],"categories_sizes":[],"default_left":[0,0,0,0,0,0,0,0,0,0,0,0,0,0,0,0,0,0,0,0,0,0,0,0,0,0,0,0,0,0,0,0,0,0,0,0,0,0,0,0,0,0,0,0,0,0,0],"id":29,"left_children":[1,3,5,7,9,11,13,15,17,-1,19,21,23,-1,25,27,29,31,33,35,37,39,-1,-1,41,43,45,-1,-1,-1,-1,-1,-1,-1,-1,-1,-1,-1,-1,-1,-1,-1,-1,-1,-1,-1,-1],"loss_changes":[9.71006E0,1.9919226E1,2.8230503E1,2.2645699E1,2.5275915E1,1.1090317E1,2.3239452E1,1.7550293E1,4.8555313E1,0E0,9.101181E0,4.4414883E0,1.6542416E1,0E0,1.9390656E1,1.1131038E1,1.2631531E0,5.0377335E1,2.2042374E1,2.842626E1,2.6020412E1,2.4279177E0,0E0,0E0,6.8342304E0,1.3184532E1,1.40691595E1,0E0,0E0,0E0,0E0,0E0,0E0,0E0,0E0,0E0,0E0,0E0,0E0,0E0,0E0,0E0,0E0,0E0,0E0,0E0,0E0],"parents":[2147483647,0,0,1,1,2,2,3,3,4,4,5,5,6,6,7,7,8,8,10,10,11,11,12,12,14,14,15,15,16,16,17,17,18,18,19,19,20,20,21,21,24,24,25,25,26,26],"right_children":[2,4,6,8,10,12,14,16,18,-1,20,22,24,-1,26,28,30,32,34,36,38,40,-1,-1,42,44,46,-1,-1,-1,-1,-1,-1,-1,-1,-1,-1,-1,-1,-1,-1,-1,-1,-1,-1,-1,-1],"split_conditions":[1.665978E-3,-1.07328845E-2,2.7500086E-3,-7.6289224E-3,-9.730671E-3,4.046447E-3,2.86338E-3,-1.8249756E-2,2.1774357E-3,9.3923835E-3,1.1034323E-3,-2.1233955E-4,4.8747202E-3,-7.395329E-3,6.984279E-3,2.2431886E-2,-6.7275437E-3,-1.7831145E-2,-1.9240115E-2,-3.452681E-4,-5.934072E-3,1.0004725E0,-7.4838926E-3,5.8990913E-3,1.1823828E-2,-2.646934E-3,4.6584498E-2,4.005627E-3,-2.2633441E-3,-4.327772E-3,-9.005989E-3,7.2121583E-3,-3.9930195E-3,-6.1410014E-3,2.6914878E-3,1.8035347E-3,-5.5539473E-3,-1.7952952E-3,5.6272484E-3,-1.7798004E-4,-4.766221E-3,-2.6039914E-3,-4.2414368E-4,9.551106E-3,1.4284028E-3,1.0776075E-3,-4.3363427E-3],"split_indices":[21,21,20,20,21,21,21,21,20,0,20,12,21,0,21,8,12,21,21,20,21,2,0,0,12,12,21,0,0,0,0,0,0,0,0,0,0,0,0,0,0,0,0,0,0,0,0],"split_type":[0,0,0,0,0,0,0,0,0,0,0,0,0,0,0,0,0,0,0,0,0,0,0,0,0,0,0,0,0,0,0,0,0,0,0,0,0,0,0,0,0,0,0,0,0,0,0],"sum_hessian":[1.8272085E3,8.1671936E2,1.0104891E3,4.228809E2,3.9383847E2,5.130876E2,4.9740152E2,1.9375093E2,2.2912997E2,2.7517902E1,3.663206E2,6.007676E1,4.530108E2,2.0260923E1,4.771406E2,1.5521524E2,3.853569E1,1.3898587E2,9.01441E1,2.2524063E2,1.4107996E2,3.0421244E1,2.9655516E1,1.7912006E1,4.350988E2,5.592273E1,4.2121786E2,2.0753069E1,1.3446216E2,1.5192897E1,2.3342794E1,1.0251916E2,3.6466717E1,6.369569E1,2.6448402E1,1.8186157E2,4.337905E1,4.9432945E1,9.1647E1,1.53881855E1,1.5033057E1,2.7449622E2,1.6060258E2,2.8132565E1,2.7790165E1,3.8697406E2,3.4243813E1],"tree_param":{"num_deleted":"0","num_feature":"23","num_nodes":"47","size_leaf_vector":"1"}},{"base_weights":[-1.2518407E-3,8.981161E-2,-7.485477E-2,-7.094236E-2,2.4956226E-1,-7.4170125E-1,-3.7412405E-2,3.7223924E-2,-4.6802437E-1,7.5943387E-1,1.660572E-1,-9.5513624E-1,-2.2826586E-3,-1.798621E-2,-5.4638976E-1,2.2773686E-1,-2.5768763E-1,-6.817304E-1,-3.7096834E-5,4.8093897E-1,9.029283E-3,-3.948542E-1,2.2696394E-1,-5.0822706E-3,-9.458606E-3,-4.868408E-2,4.4422954E-1,-6.8109585E-3,-1.332231E-3,-1.8827348E-5,3.0892217E-3,-3.0239124E-5,-4.877272E-3,-8.165833E-3,-3.8887032E-3,6.8445876E-3,7.328995E-4,-1.1274682E-3,-5.368828E-3,4.6949557E-4,3.0752202E-3,-2.1560336E-4,-5.400007E-3,8.866732E-3,4.0214963E-4],"categories":[],"categories_nodes":[],"categories_segments":[],"categories_sizes":[],"default_left":[0,0,0,0,0,0,0,0,0,0,0,0,0,0,0,0,0,0,0,0,0,0,0,0,0,0,0,0,0,0,0,0,0,0,0,0,0,0,0,0,0,0,0,0,0],"id":30,"left_children":[1,3,5,7,9,11,13,15,17,19,21,23,-1,25,27,29,31,33,-1,35,-1,37,39,-1,-1,41,43,-1,-1,-1,-1,-1,-1,-1,-1,-1,-1,-1,-1,-1,-1,-1,-1,-1,-1],"loss_changes":[1.2301947E1,2.1115889E1,2.5262875E1,1.769973E1,1.7202505E1,4.6879787E0,9.498338E0,1.8434381E1,8.721218E0,3.6982155E0,1.2446886E1,3.554802E-1,0E0,1.3265498E1,3.3005676E0,6.4699945E0,1.062371E1,2.6382008E0,0E0,4.476597E0,0E0,2.0682573E0,7.711569E0,0E0,0E0,1.1922328E1,1.4033651E1,0E0,0E0,0E0,0E0,0E0,0E0,0E0,0E0,0E0,0E0,0E0,0E0,0E0,0E0,0E0,0E0,0E0,0E0],"parents":[2147483647,0,0,1,1,2,2,3,3,4,4,5,5,6,6,7,7,8,8,9,9,10,10,11,11,13,13,14,14,15,15,16,16,17,17,19,19,21,21,22,22,25,25,26,26],"right_children":[2,4,6,8,10,12,14,16,18,20,22,24,-1,26,28,30,32,34,-1,36,-1,38,40,-1,-1,42,44,-1,-1,-1,-1,-1,-1,-1,-1,-1,-1,-1,-1,-1,-1,-1,-1,-1,-1],"split_conditions":[1.665978E-3,-1.1810946E-2,3.0327628E-3,-1.8249756E-2,-9.149272E-3,7.70148E-2,4.939319E-2,-3.234938E-3,1.8777354E-3,2.2557491E-1,-2.9363226E-2,9.9983186E-1,-2.2826586E-3,3.9858785E-2,7.289716E-1,-1.4116976E-2,9.93729E-1,-2.837538E-3,-3.7096834E-5,-2.2827184E-3,9.029283E-3,6.5110605E-3,-2.9392976E-3,-5.0822706E-3,-9.458606E-3,3.715674E-2,4.2219844E-2,-6.8109585E-3,-1.332231E-3,-1.8827348E-5,3.0892217E-3,-3.0239124E-5,-4.877272E-3,-8.165833E-3,-3.8887032E-3,6.8445876E-3,7.328995E-4,-1.1274682E-3,-5.368828E-3,4.6949557E-4,3.0752202E-3,-2.1560336E-4,-5.400007E-3,8.866732E-3,4.0214963E-4],"split_indices":[21,21,21,21,21,14,21,10,0,16,10,2,0,21,7,0,2,19,0,10,0,11,21,0,0,21,21,0,0,0,0,0,0,0,0,0,0,0,0,0,0,0,0,0,0],"split_type":[0,0,0,0,0,0,0,0,0,0,0,0,0,0,0,0,0,0,0,0,0,0,0,0,0,0,0,0,0,0,0,0,0,0,0,0,0,0,0,0,0,0,0,0,0],"sum_hessian":[1.8301649E3,8.177235E2,1.0124414E3,4.0827676E2,4.0944678E2,5.1174637E1,9.612668E2,3.227247E2,8.5552055E1,5.460112E1,3.5484564E2,3.3279896E1,1.789474E1,9.2857526E2,3.269155E1,1.964537E2,1.2627101E2,5.7693127E1,2.7858927E1,3.2689323E1,2.1911795E1,3.33241E1,3.2152155E2,1.5064308E1,1.8215588E1,8.729779E2,5.5597313E1,1.7619892E1,1.5071661E1,7.567678E1,1.20776924E2,7.235707E1,5.391394E1,2.0620956E1,3.707217E1,1.6075575E1,1.661375E1,1.820675E1,1.511735E1,1.4663461E2,1.7488693E2,8.432991E2,2.9678875E1,2.0054348E1,3.5542965E1],"tree_param":{"num_deleted":"0","num_feature":"23","num_nodes":"45","size_leaf_vector":"1"}},{"base_weights":[7.002379E-4,5.945567E-3,-8.874526E-3,1.820681E-2,-2.0855938E-1,-1.1464598E-1,6.294037E-2,-4.585942E-1,-9.659702E-2,6.065982E-2,-2.9673302E-1,1.5952466E-1,-8.795548E-3,-7.685626E-3,-1.8898839E-1,1.9868937E-1,-2.64253E-1,-6.0661376E-4,2.986191E-3,-4.952682E-4,-3.5125215E-3,1.8137669E-3,-5.530756E-4,3.9767665E-3,-2.5878672E-4,6.3927885E-4,-4.0224725E-3,5.352683E-3,-3.9309709E-4,-3.6364624E-3,-1.856346E-5],"categories":[],"categories_nodes":[],"categories_segments":[],"categories_sizes":[],"default_left":[0,0,0,0,0,0,0,0,0,0,0,0,0,0,0,0,0,0,0,0,0,0,0,0,0,0,0,0,0,0,0],"id":31,"left_children":[1,-1,3,5,7,9,11,13,15,17,19,21,23,-1,25,27,29,-1,-1,-1,-1,-1,-1,-1,-1,-1,-1,-1,-1,-1,-1],"loss_changes":[1.2506356E1,0E0,9.832629E0,9.536146E0,5.955681E0,1.2955244E1,8.31866E0,7.754115E0,7.7306905E0,8.26958E0,5.725313E0,6.6248846E0,7.4219303E0,0E0,3.5942292E0,6.254828E0,4.401164E0,0E0,0E0,0E0,0E0,0E0,0E0,0E0,0E0,0E0,0E0,0E0,0E0,0E0,0E0],"parents":[2147483647,0,0,2,2,3,3,4,4,5,5,6,6,7,7,8,8,9,9,10,10,11,11,12,12,14,14,15,15,16,16],"right_children":[2,-1,4,6,8,10,12,14,16,18,20,22,24,-1,26,28,30,-1,-1,-1,-1,-1,-1,-1,-1,-1,-1,-1,-1,-1,-1],"split_conditions":[9.3790895E-1,5.945567E-3,1.0304543E0,2.5531803E1,7.889723E-1,-4.2310372E-2,-1.9977202E-4,-2.2913192E-3,2.740027E-2,2.4276222E-1,2.4287643E-2,1.9202938E-2,9.7423506E-1,-7.685626E-3,4.443972E-3,8.580397E1,1.3109046E0,-6.0661376E-4,2.986191E-3,-4.952682E-4,-3.5125215E-3,1.8137669E-3,-5.530756E-4,3.9767665E-3,-2.5878672E-4,6.3927885E-4,-4.0224725E-3,5.352683E-3,-3.9309709E-4,-3.6364624E-3,-1.856346E-5],"split_indices":[22,0,22,6,9,1,11,12,8,15,8,12,22,0,11,6,5,0,0,0,0,0,0,0,0,0,0,0,0,0,0],"split_type":[0,0,0,0,0,0,0,0,0,0,0,0,0,0,0,0,0,0,0,0,0,0,0,0,0,0,0,0,0,0,0],"sum_hessian":[1.835267E3,2.1893023E1,1.8133739E3,1.5988722E3,2.145018E2,4.0165155E2,1.1972206E3,6.3789867E1,1.5071193E2,2.0549988E2,1.9615166E2,5.089328E2,6.8828784E2,2.12394E1,4.2550465E1,5.4379925E1,9.6332E1,1.430946E2,6.2405277E1,6.816953E1,1.27982124E2,4.06295E2,1.02637794E2,2.7704046E1,6.6058374E2,2.3267471E1,1.9282993E1,1.7972782E1,3.6407143E1,5.7350483E1,3.898152E1],"tree_param":{"num_deleted":"0","num_feature":"23","num_nodes":"31","size_leaf_vector":"1"}},{"base_weights":[-2.6111554E-3,-1.4768855E-1,2.4495255E-2,1.9697888E-2,-5.2056205E-1,2.297885E-1,-2.1794105E-2,-9.5353246E-2,5.515648E-1,-7.467997E-1,-2.513293E-1,3.240873E-1,-1.3596556E-1,-1.8084241E-1,5.536424E-2,-2.5539124E-1,8.6243816E-2,7.0887273E-3,9.580481E-4,-8.694441E-3,-4.2424663E-3,8.0463453E-4,-3.7120315E-3,7.022085E-1,1.9795878E-1,-4.6805455E-3,2.259685E-3,5.6496575E-3,-2.3154923E-1,9.757828E-2,-2.7229592E-1,-5.067391E-4,-6.536069E-3,-1.010341E-3,4.583966E-3,1.555231E-3,8.317771E-3,3.8028667E-3,4.4075126E-4,-6.299848E-3,-1.5669728E-3,-3.35467E-3,1.0216862E-3,1.4289896E-3,-5.1515247E-3],"categories":[],"categories_nodes":[],"categories_segments":[],"categories_sizes":[],"default_left":[0,0,0,0,0,0,0,0,0,0,0,0,0,0,0,0,0,0,0,0,0,0,0,0,0,0,0,0,0,0,0,0,0,0,0,0,0,0,0,0,0,0,0,0,0],"id":32,"left_children":[1,3,5,7,9,11,13,15,17,19,21,23,25,27,29,31,33,-1,-1,-1,-1,-1,-1,35,37,-1,-1,-1,39,41,43,-1,-1,-1,-1,-1,-1,-1,-1,-1,-1,-1,-1,-1,-1],"loss_changes":[7.207348E0,1.8040821E1,1.4688785E1,1.24831505E1,4.9464703E0,9.926262E0,1.5519159E1,4.942935E0,4.410488E0,1.906704E0,3.1079645E0,1.0444357E1,1.0719939E1,1.8323242E1,1.18522415E1,9.077158E0,7.8731422E0,0E0,0E0,0E0,0E0,0E0,0E0,7.8737125E0,6.402482E0,0E0,0E0,0E0,8.684946E0,9.334349E0,1.51502E1,0E0,0E0,0E0,0E0,0E0,0E0,0E0,0E0,0E0,0E0,0E0,0E0,0E0,0E0],"parents":[2147483647,0,0,1,1,2,2,3,3,4,4,5,5,6,6,7,7,8,8,9,9,10,10,11,11,12,12,13,13,14,14,15,15,16,16,23,23,24,24,28,28,29,29,30,30],"right_children":[2,4,6,8,10,12,14,16,18,20,22,24,26,28,30,32,34,-1,-1,-1,-1,-1,-1,36,38,-1,-1,-1,40,42,44,-1,-1,-1,-1,-1,-1,-1,-1,-1,-1,-1,-1,-1,-1],"split_conditions":[-8.506915E-3,-1.1648865E-2,-3.0702723E-3,-1.2895856E-2,-1.0315686E-2,3.1678444E-1,1.2230999E-3,-1.7092345E-2,3.18962E1,-3.6048148E-2,-3.5638455E-1,4.409702E1,1.001639E0,-6.671924E-2,2.6720848E-2,-1.9603165E-2,2.692705E-1,7.0887273E-3,9.580481E-4,-8.694441E-3,-4.2424663E-3,8.0463453E-4,-3.7120315E-3,9.328881E0,-6.612376E-3,-4.6805455E-3,2.259685E-3,5.6496575E-3,-2.763051E-3,-4.2740718E-2,6.6163912E-3,-5.067391E-4,-6.536069E-3,-1.010341E-3,4.583966E-3,1.555231E-3,8.317771E-3,3.8028667E-3,4.4075126E-4,-6.299848E-3,-1.5669728E-3,-3.35467E-3,1.0216862E-3,1.4289896E-3,-5.1515247E-3],"split_indices":[20,20,20,20,20,16,20,20,6,1,5,13,3,1,12,20,16,0,0,0,0,0,0,6,20,0,0,0,20,12,20,0,0,0,0,0,0,0,0,0,0,0,0,0,0],"split_type":[0,0,0,0,0,0,0,0,0,0,0,0,0,0,0,0,0,0,0,0,0,0,0,0,0,0,0,0,0,0,0,0,0,0,0,0,0,0,0,0,0,0,0,0,0],"sum_hessian":[1.8273425E3,2.8589377E2,1.5414489E3,1.9901782E2,8.6875946E1,2.8173853E2,1.2597103E3,1.6538368E2,3.363415E1,4.4645554E1,4.2230392E1,2.2425252E2,5.7486027E1,4.1038324E2,8.49327E2,8.737401E1,7.800967E1,1.859545E1,1.5038704E1,1.6193773E1,2.8451782E1,1.5476322E1,2.6754072E1,5.3060658E1,1.7119185E2,2.7674719E1,2.9811306E1,2.1136642E1,3.8924658E2,7.540617E2,9.526532E1,6.58834E1,2.1490604E1,5.5176067E1,2.28336E1,2.0694117E1,3.2366543E1,5.991109E1,1.1128076E2,2.7277567E1,3.6196902E2,3.332907E1,7.2073267E2,4.2130684E1,5.313464E1],"tree_param":{"num_deleted":"0","num_feature":"23","num_nodes":"45","size_leaf_vector":"1"}},{"base_weights":[-4.6279477E-3,6.285853E-3,-1.4948423E-2,-5.517393E-3,-4.8145317E-3,-6.301859E-2,8.60246E-2,7.768746E-2,-2.1681525E-1,-6.1431533E-1,1.7657508E-1,-1.1383214E-3,2.0097103E-3,-2.1054293E-3,3.159145E-3,-1.2286869E-3,-6.9755153E-3,2.7877712E-3,-3.668542E-4],"categories":[],"categories_nodes":[],"categories_segments":[],"categories_sizes":[],"default_left":[0,0,0,0,0,0,0,0,0,0,0,0,0,0,0,0,0,0,0],"id":33,"left_children":[1,-1,3,5,-1,7,9,11,13,15,17,-1,-1,-1,-1,-1,-1,-1,-1],"loss_changes":[1.4267465E1,0E0,9.521156E0,9.375177E0,0E0,2.3717892E1,4.385745E1,1.9959696E1,1.1008709E1,7.7701836E0,2.1076532E1,0E0,0E0,0E0,0E0,0E0,0E0,0E0,0E0],"parents":[2147483647,0,0,2,2,3,3,5,5,6,6,7,7,8,8,9,9,10,10],"right_children":[2,-1,4,6,-1,8,10,12,14,16,18,-1,-1,-1,-1,-1,-1,-1,-1],"split_conditions":[9.3790895E-1,6.285853E-3,5.5251397E-2,2.7500086E-3,-4.8145317E-3,1.1565721E-3,-1.3658245E-2,-7.6289224E-3,3.777669E-2,-3.0405158E-2,1.0200822E0,-1.1383214E-3,2.0097103E-3,-2.1054293E-3,3.159145E-3,-1.2286869E-3,-6.9755153E-3,2.7877712E-3,-3.668542E-4],"split_indices":[22,0,21,20,0,21,21,20,21,21,22,0,0,0,0,0,0,0,0],"split_type":[0,0,0,0,0,0,0,0,0,0,0,0,0,0,0,0,0,0,0],"sum_hessian":[1.8250438E3,2.2040497E1,1.8030033E3,1.775777E3,2.7226437E1,1.0912577E3,6.845192E2,5.7052466E2,5.2073303E2,7.6613075E1,6.079061E2,2.464771E2,3.2404755E2,4.935208E2,2.7212238E1,2.5831614E1,5.078146E1,3.5487668E2,2.5302945E2],"tree_param":{"num_deleted":"0","num_feature":"23","num_nodes":"19","size_leaf_vector":"1"}},{"base_weights":[1.11188665E-2,6.25261E-3,7.00383E-4,-3.518972E-1,1.7035952E-2,-1.3380098E-1,-8.822988E-3,1.1421227E-1,-5.4560795E-2,-4.7309306E-3,2.820603E-1,-4.433877E-2,2.4215488E-1,-7.31278E-1,-1.6104655E-2,-7.0721E-4,4.9034543E-3,8.57338E-4,-4.1217287E-3,3.0087905E-3,-1.7665104E-3,-8.7541565E-3,-1.8821139E-3,-1.4042741E-3,1.1205169E-3],"categories":[],"categories_nodes":[],"categories_segments":[],"categories_sizes":[],"default_left":[0,0,0,0,0,0,0,0,0,0,0,0,0,0,0,0,0,0,0,0,0,0,0,0,0],"id":34,"left_children":[1,-1,3,5,7,9,-1,11,13,-1,15,17,19,21,23,-1,-1,-1,-1,-1,-1,-1,-1,-1,-1],"loss_changes":[1.4003845E1,0E0,1.0413119E1,1.1865845E1,1.2042222E1,1.1915501E1,0E0,1.4922552E1,2.5903257E1,0E0,3.959127E0,2.182375E1,2.178994E1,7.8835354E0,2.1557144E1,0E0,0E0,0E0,0E0,0E0,0E0,0E0,0E0,0E0,0E0],"parents":[2147483647,0,0,2,2,3,3,4,4,5,5,7,7,8,8,10,10,11,11,12,12,13,13,14,14],"right_children":[2,-1,4,6,8,10,-1,12,14,-1,16,18,20,22,24,-1,-1,-1,-1,-1,-1,-1,-1,-1,-1],"split_conditions":[9.3790895E-1,6.25261E-3,-1.773849E-2,-1.9603165E-2,1.665978E-3,-2.7706739E-2,-8.822988E-3,-1.1810946E-2,3.0327628E-3,-4.7309306E-3,0E0,-1.8249756E-2,1.0134325E0,2.4115786E-1,2.7500086E-3,-7.0721E-4,4.9034543E-3,8.57338E-4,-4.1217287E-3,3.0087905E-3,-1.7665104E-3,-8.7541565E-3,-1.8821139E-3,-1.4042741E-3,1.1205169E-3],"split_indices":[22,0,20,20,21,21,0,21,21,0,10,21,22,15,20,0,0,0,0,0,0,0,0,0,0],"split_type":[0,0,0,0,0,0,0,0,0,0,0,0,0,0,0,0,0,0,0,0,0,0,0,0,0],"sum_hessian":[1.8260352E3,2.2888145E1,1.8031471E3,7.7413E1,1.725734E3,6.1462734E1,1.5950267E1,7.3149066E2,9.942434E2,2.9726189E1,3.1736546E1,3.2739932E2,4.040913E2,5.089453E1,9.433489E2,1.5220206E1,1.651634E1,2.481222E2,7.9277145E1,3.2153302E2,8.255828E1,2.9670155E1,2.1224379E1,4.6893433E2,4.7441455E2],"tree_param":{"num_deleted":"0","num_feature":"23","num_nodes":"25","size_leaf_vector":"1"}},{"base_weights":[-1.9405633E-3,9.105595E-2,-7.756772E-2,-6.206453E-2,2.5422734E-1,-7.4377257E-1,-4.079736E-2,1.7673692E-1,-2.2277264E-1,9.772566E-1,1.6476193E-1,-8.649671E-3,-2.2190984E-3,5.285104E-3,-2.8604603E-1,-2.3040842E-2,4.66346E-1,1.6249067E-1,-3.595027E-1,5.347376E-3,1.114181E-2,-1.6508017E-1,2.6921648E-1,1.6571468E-1,-8.575983E-2,-7.775943E-1,-1.3088632E-1,1.2533119E-3,-4.9500614E-3,-1.2053231E-3,5.700496E-3,3.1139846E-3,-8.6855824E-4,-4.224499E-3,-1.2593023E-3,3.3132828E-4,-6.819415E-3,7.716359E-3,1.5996107E-3,-7.2898204E-4,2.1338821E-3,2.6591416E-4,-1.4762974E-3,-7.992293E-3,-3.8558093E-3,-2.2952373E-3,1.0881517E-3],"categories":[],"categories_nodes":[],"categories_segments":[],"categories_sizes":[],"default_left":[0,0,0,0,0,0,0,0,0,0,0,0,0,0,0,0,0,0,0,0,0,0,0,0,0,0,0,0,0,0,0,0,0,0,0,0,0,0,0,0,0,0,0,0,0,0,0],"id":35,"left_children":[1,3,5,7,9,11,13,15,17,19,21,-1,-1,23,25,27,29,31,33,-1,-1,35,37,39,41,43,45,-1,-1,-1,-1,-1,-1,-1,-1,-1,-1,-1,-1,-1,-1,-1,-1,-1,-1,-1,-1],"loss_changes":[1.2927679E1,2.0640347E1,2.4745321E1,1.6505234E1,2.5413916E1,6.581787E0,1.0896882E1,1.0063038E1,1.3675306E1,2.9391327E0,1.2480637E1,0E0,0E0,1.1923288E1,1.1352634E1,1.0546969E1,9.542233E0,3.9514344E0,5.56089E0,0E0,0E0,1.1773877E1,1.3475277E1,6.716688E0,5.5570984E0,8.473358E-1,4.543911E0,0E0,0E0,0E0,0E0,0E0,0E0,0E0,0E0,0E0,0E0,0E0,0E0,0E0,0E0,0E0,0E0,0E0,0E0,0E0,0E0],"parents":[2147483647,0,0,1,1,2,2,3,3,4,4,5,5,6,6,7,7,8,8,9,9,10,10,13,13,14,14,15,15,16,16,17,17,18,18,21,21,22,22,23,23,24,24,25,25,26,26],"right_children":[2,4,6,8,10,12,14,16,18,20,22,-1,-1,24,26,28,30,32,34,-1,-1,36,38,40,42,44,46,-1,-1,-1,-1,-1,-1,-1,-1,-1,-1,-1,-1,-1,-1,-1,-1,-1,-1,-1,-1],"split_conditions":[1.665978E-3,-1.07328845E-2,3.0327628E-3,-2.8416172E-2,-9.149272E-3,2.4115786E-1,2.5192412E-2,-3.5675827E-2,2.3924695E-2,2.2254537E-1,2.5531803E1,-8.649671E-3,-2.2190984E-3,-7.4487587E-4,5.949095E1,-3.8742993E-2,-1.0892823E-1,5.6928135E-3,-3.234938E-3,5.347376E-3,1.114181E-2,2.643386E-1,9.7594696E-1,-4.9375985E-3,1.0142268E0,3.872602E1,6.614202E1,1.2533119E-3,-4.9500614E-3,-1.2053231E-3,5.700496E-3,3.1139846E-3,-8.6855824E-4,-4.224499E-3,-1.2593023E-3,3.3132828E-4,-6.819415E-3,7.716359E-3,1.5996107E-3,-7.2898204E-4,2.1338821E-3,2.6591416E-4,-1.4762974E-3,-7.992293E-3,-3.8558093E-3,-2.2952373E-3,1.0881517E-3],"split_indices":[21,21,21,21,21,15,12,21,8,16,6,0,0,11,6,21,18,18,0,0,0,7,3,0,3,6,13,0,0,0,0,0,0,0,0,0,0,0,0,0,0,0,0,0,0,0,0],"split_type":[0,0,0,0,0,0,0,0,0,0,0,0,0,0,0,0,0,0,0,0,0,0,0,0,0,0,0,0,0,0,0,0,0,0,0,0,0,0,0,0,0,0,0,0,0,0,0],"sum_hessian":[1.8328715E3,8.2172906E2,1.01114233E3,4.247273E2,3.9700177E2,5.022419E1,9.6091815E2,1.7071848E2,2.540088E2,4.082238E1,3.5617938E2,2.9397776E1,2.0826412E1,8.1105237E2,1.4986578E2,1.02439644E2,6.827883E1,6.638311E1,1.876257E2,2.4633213E1,1.6189169E1,8.527263E1,2.7090677E2,2.928994E2,5.1815295E2,3.3403336E1,1.16462456E2,8.002959E1,2.2410055E1,1.7961792E1,5.031704E1,3.6596897E1,2.9786211E1,1.08579E2,7.90467E1,6.670434E1,1.8568289E1,2.5944878E1,2.4496188E2,7.632469E1,2.1657474E2,2.2616988E2,2.919831E2,1.8025045E1,1.537829E1,7.512547E1,4.133698E1],"tree_param":{"num_deleted":"0","num_feature":"23","num_nodes":"47","size_leaf_vector":"1"}},{"base_weights":[-2.9314E-4,1.0763429E-2,-5.608957E-1,-4.157705E-3,4.625505E-1,-7.046333E-3,-1.3012402E-3,1.0736941E-2,-6.41863E-1,8.846678E-3,6.208628E-2,-6.3481286E-2,1.0270063E-1,-7.8978585E-3,-2.1900227E-3,-2.3722008E-3,2.8252364E-3,1.5091702E-3,-1.2529335E-3,-4.9288142E-3,1.4535338E-3],"categories":[],"categories_nodes":[],"categories_segments":[],"categories_sizes":[],"default_left":[0,0,0,0,0,0,0,0,0,0,0,0,0,0,0,0,0,0,0,0,0],"id":36,"left_children":[1,3,5,7,9,-1,-1,11,13,-1,15,17,19,-1,-1,-1,-1,-1,-1,-1,-1],"loss_changes":[1.1325981E1,1.2083593E1,3.665059E0,1.6517467E1,1.3444154E1,0E0,0E0,1.16157255E1,3.8845444E0,0E0,3.7738166E0,1.9843819E1,3.7499695E1,0E0,0E0,0E0,0E0,0E0,0E0,0E0,0E0],"parents":[2147483647,0,0,1,1,2,2,3,3,4,4,7,7,8,8,10,10,11,11,12,12],"right_children":[2,4,6,8,10,-1,-1,12,14,-1,16,18,20,-1,-1,-1,-1,-1,-1,-1,-1],"split_conditions":[4.939319E-2,3.9858785E-2,5.209107E1,3.5659254E-2,4.2219844E-2,-7.046333E-3,-1.3012402E-3,1.1566521E-3,9.953632E-3,8.846678E-3,5.776238E-2,-1.8249756E-2,-1.9240115E-2,-7.8978585E-3,-2.1900227E-3,-2.3722008E-3,2.8252364E-3,1.5091702E-3,-1.2529335E-3,-4.9288142E-3,1.4535338E-3],"split_indices":[21,21,13,21,21,0,0,20,11,0,1,21,21,0,0,0,0,0,0,0,0],"split_type":[0,0,0,0,0,0,0,0,0,0,0,0,0,0,0,0,0,0,0,0,0],"sum_hessian":[1.821063E3,1.7883556E3,3.270741E1,1.7336826E3,5.4672974E1,1.764189E1,1.5065518E1,1.6966274E3,3.7055145E1,2.0269709E1,3.4403267E1,9.392834E2,7.5734406E2,1.8485098E1,1.8570047E1,1.5207575E1,1.919569E1,2.4451366E2,6.947697E2,6.862369E1,6.887204E2],"tree_param":{"num_deleted":"0","num_feature":"23","num_nodes":"21","size_leaf_vector":"1"}},{"base_weights":[4.2850054E-3,6.1847E-3,-5.7760095E-3,2.3686044E-2,-2.2830822E-1,-3.8324854E-1,3.5776738E-2,-5.01859E-1,-8.179821E-2,-6.0649286E-3,-1.17909E-3,1.803353E-1,5.887986E-3,-6.807609E-1,-6.32205E-4,-1.5987937E-1,3.7093363E-3,-7.049295E-4,2.4790028E-3,-4.600958E-3,1.3344862E-4,-6.949178E-3,-2.4563181E-3,1.9935095E-3,-3.2424172E-3],"categories":[],"categories_nodes":[],"categories_segments":[],"categories_sizes":[],"default_left":[0,0,0,0,0,0,0,0,0,0,0,0,0,0,0,0,0,0,0,0,0,0,0,0,0],"id":37,"left_children":[1,-1,3,5,7,9,11,13,15,-1,-1,17,19,21,-1,23,-1,-1,-1,-1,-1,-1,-1,-1,-1],"loss_changes":[1.3483387E1,0E0,1.1820998E1,7.8666472E0,8.333617E0,3.5365705E0,6.6870384E0,5.423031E0,5.938055E0,0E0,0E0,8.184608E0,7.1940894E0,2.2956657E0,0E0,1.1480558E1,0E0,0E0,0E0,0E0,0E0,0E0,0E0,0E0,0E0],"parents":[2147483647,0,0,2,2,3,3,4,4,5,5,6,6,7,7,8,8,11,11,12,12,13,13,15,15],"right_children":[2,-1,4,6,8,10,12,14,16,-1,-1,18,20,22,-1,24,-1,-1,-1,-1,-1,-1,-1,-1,-1],"split_conditions":[9.3790895E-1,6.1847E-3,1.0304543E0,-4.989012E-2,8.0864215E-1,-1.2213652E-1,-1.627868E-2,8E0,2.905782E-1,-6.0649286E-3,-1.17909E-3,1.4600456E1,9.505791E-1,1.037582E0,-6.32205E-4,1.4556783E-1,3.7093363E-3,-7.049295E-4,2.4790028E-3,-4.600958E-3,1.3344862E-4,-6.949178E-3,-2.4563181E-3,1.9935095E-3,-3.2424172E-3],"split_indices":[22,0,22,10,9,14,10,17,18,0,0,6,22,22,0,15,0,0,0,0,0,0,0,0,0],"split_type":[0,0,0,0,0,0,0,0,0,0,0,0,0,0,0,0,0,0,0,0,0,0,0,0,0],"sum_hessian":[1.8198888E3,2.2035944E1,1.7978528E3,1.58969E3,2.0816284E2,4.350925E1,1.5461808E3,7.03484E1,1.3781444E2,1.588506E1,2.7624191E1,2.6257703E2,1.2836038E3,4.8429306E1,2.1919092E1,1.2157739E2,1.623705E1,8.0090805E1,1.824862E2,2.027977E1,1.263324E3,3.2778763E1,1.5650544E1,4.413765E1,7.743974E1],"tree_param":{"num_deleted":"0","num_feature":"23","num_nodes":"25","size_leaf_vector":"1"}},{"base_weights":[3.0094325E-3,3.3785976E-2,-2.3057216E-1,6.044201E-3,2.3183202E-2,-1.679835E-1,-5.895713E-3,-1.5085492E-1,6.0035758E-2,-3.285116E-1,8.946734E-2,1.0608522E-2,-4.807172E-1,2.9697138E-1,2.4833796E-3,-5.6520414E-1,-1.5559189E-1,3.35687E-1,-1.640097E-1,-9.850194E-4,4.765351E-3,-1.3428251E-3,-6.339588E-3,1.6083062E-3,5.468758E-3,-1.4678673E-3,7.9454994E-4,-8.525165E-3,-6.26332E-5,4.3298854E-3,-3.0451694E-3,5.9591755E-3,8.938783E-5,-3.2623783E-3,1.18044E-3],"categories":[],"categories_nodes":[],"categories_segments":[],"categories_sizes":[],"default_left":[0,0,0,0,0,0,0,0,0,0,0,0,0,0,0,0,0,0,0,0,0,0,0,0,0,0,0,0,0,0,0,0,0,0,0],"id":38,"left_children":[1,3,5,-1,7,9,-1,11,13,15,17,19,21,23,25,27,29,31,33,-1,-1,-1,-1,-1,-1,-1,-1,-1,-1,-1,-1,-1,-1,-1,-1],"loss_changes":[1.3170509E1,1.1756665E1,5.9992523E0,0E0,1.0265887E1,8.009572E0,0E0,1.4919775E1,1.7993176E1,4.621318E0,4.87343E0,1.3815882E1,7.816345E0,9.294479E0,1.7530712E1,1.237195E1,1.0610721E1,4.77406E0,2.834748E0,0E0,0E0,0E0,0E0,0E0,0E0,0E0,0E0,0E0,0E0,0E0,0E0,0E0,0E0,0E0,0E0],"parents":[2147483647,0,0,1,1,2,2,4,4,5,5,7,7,8,8,9,9,10,10,11,11,12,12,13,13,14,14,15,15,16,16,17,17,18,18],"right_children":[2,4,6,-1,8,10,-1,12,14,16,18,20,22,24,26,28,30,32,34,-1,-1,-1,-1,-1,-1,-1,-1,-1,-1,-1,-1,-1,-1,-1,-1],"split_conditions":[1.0304543E0,9.3790895E-1,3.0741024E-1,6.044201E-3,-8.257137E-3,2.3673126E-2,-5.895713E-3,-1.1648865E-2,-3.0702723E-3,2.7034194E-3,9.044042E1,-1.2895856E-2,1.0050398E0,1.1683501E0,1.2481519E-3,1.033284E0,1.033284E0,2.5207754E-3,2.1154303E-2,-9.850194E-4,4.765351E-3,-1.3428251E-3,-6.339588E-3,1.6083062E-3,5.468758E-3,-1.4678673E-3,7.9454994E-4,-8.525165E-3,-6.26332E-5,4.3298854E-3,-3.0451694E-3,5.9591755E-3,8.938783E-5,-3.2623783E-3,1.18044E-3],"split_indices":[22,22,19,0,20,18,0,20,20,20,6,20,9,9,20,22,22,19,0,0,0,0,0,0,0,0,0,0,0,0,0,0,0,0,0],"split_type":[0,0,0,0,0,0,0,0,0,0,0,0,0,0,0,0,0,0,0,0,0,0,0,0,0,0,0,0,0,0,0,0,0,0,0],"sum_hessian":[1.8268971E3,1.6162434E3,2.106537E2,2.1832329E1,1.5944111E3,1.892318E2,2.1421907E1,2.7714157E2,1.3172695E3,1.1613485E2,7.309694E1,1.8775394E2,8.9387634E1,2.5525677E2,1.0620127E3,4.6476555E1,6.965829E1,3.6668365E1,3.6428577E1,1.543665E2,3.338743E1,4.3342934E1,4.60447E1,2.0032332E2,5.4933456E1,3.6236203E2,6.996507E2,2.4438988E1,2.2037567E1,1.5518596E1,5.4139694E1,1.553317E1,2.1135197E1,2.054129E1,1.5887286E1],"tree_param":{"num_deleted":"0","num_feature":"23","num_nodes":"35","size_leaf_vector":"1"}},{"base_weights":[3.9148564E-3,7.279281E-2,-5.7801906E-2,9.355171E-2,-4.411081E-1,-1.5765323E-1,1.1578022E-1,-1.4349477E-1,1.3167675E-1,-7.093084E-3,4.0816417E-6,3.2704172E-1,-1.9314331E-1,7.6216874E-3,6.9421254E-2,1.43512E-2,-5.9085255E-3,3.4517202E-1,5.06396E-2,-3.0075063E-5,4.805316E-3,-7.104314E-3,-1.6367272E-1,2.5265566E-1,-1.1397279E-1,-1.5387342E-3,6.597438E-3,4.4144914E-3,8.4233587E-4,-5.432164E-3,6.2637526E-4,3.550926E-5,-2.48794E-3,2.7105133E-3,-3.2916951E-3,-4.1814675E-3,-4.0408102E-4],"categories":[],"categories_nodes":[],"categories_segments":[],"categories_sizes":[],"default_left":[0,0,0,0,0,0,0,0,0,0,0,0,0,0,0,0,0,0,0,0,0,0,0,0,0,0,0,0,0,0,0,0,0,0,0,0,0],"id":39,"left_children":[1,3,5,7,9,11,13,15,17,-1,-1,19,21,-1,23,25,-1,27,29,-1,-1,-1,31,33,35,-1,-1,-1,-1,-1,-1,-1,-1,-1,-1,-1,-1],"loss_changes":[7.7698617E0,9.319722E0,1.6757046E1,7.5727963E0,6.101256E0,1.071185E1,1.2841019E1,1.0375496E1,1.2380746E1,0E0,0E0,3.5032325E0,1.0687014E1,0E0,1.1397993E1,1.4725365E1,0E0,8.631178E0,8.974083E0,0E0,0E0,0E0,1.2364775E1,8.101999E0,4.2395835E0,0E0,0E0,0E0,0E0,0E0,0E0,0E0,0E0,0E0,0E0,0E0,0E0],"parents":[2147483647,0,0,1,1,2,2,3,3,4,4,5,5,6,6,7,7,8,8,11,11,12,12,14,14,15,15,17,17,18,18,22,22,23,23,24,24],"right_children":[2,4,6,8,10,12,14,16,18,-1,-1,20,22,-1,24,26,-1,28,30,-1,-1,-1,32,34,36,-1,-1,-1,-1,-1,-1,-1,-1,-1,-1,-1,-1],"split_conditions":[-1.9977202E-4,8.2586415E-2,2.7500086E-3,-1.0315686E-2,1.1200635E0,3.8892975E1,3.2094833E-3,-1.1648865E-2,-2.0739643E-3,-7.093084E-3,4.0816417E-6,1.3733268E-1,-3.8686816E-2,7.6216874E-3,4.6072088E-4,-1.2895856E-2,-5.9085255E-3,1.9819155E-1,-1.7332608E-3,-3.0075063E-5,4.805316E-3,-7.104314E-3,-3.6712142E-3,1.94007E-2,4.8950775E1,-1.5387342E-3,6.597438E-3,4.4144914E-3,8.4233587E-4,-5.432164E-3,6.2637526E-4,3.550926E-5,-2.48794E-3,2.7105133E-3,-3.2916951E-3,-4.1814675E-3,-4.0408102E-4],"split_indices":[11,1,20,20,9,13,20,20,20,0,0,16,10,0,12,20,0,16,20,0,0,0,20,20,6,0,0,0,0,0,0,0,0,0,0,0,0],"split_type":[0,0,0,0,0,0,0,0,0,0,0,0,0,0,0,0,0,0,0,0,0,0,0,0,0,0,0,0,0,0,0,0,0,0,0,0,0],"sum_hessian":[1.8225237E3,8.6115515E2,9.613685E2,8.2981177E2,3.1343403E1,6.104944E2,3.5087415E2,1.1392094E2,7.158908E2,1.5084347E1,1.6259056E1,4.0153442E1,5.7034094E2,1.6627592E1,3.3424658E2,9.093211E1,2.2988825E1,1.945684E2,5.213224E2,1.8251743E1,2.19017E1,2.1381306E1,5.4895966E2,1.6672903E2,1.6751753E2,7.397909E1,1.6953028E1,1.0978723E2,8.478118E1,1.5119384E1,5.0620303E2,2.4416165E2,3.04798E2,1.5140701E2,1.5322023E1,2.1848577E1,1.4566896E2],"tree_param":{"num_deleted":"0","num_feature":"23","num_nodes":"37","size_leaf_vector":"1"}},{"base_weights":[-6.082226E-3,7.934375E-2,-7.4656926E-2,-5.1830832E-2,2.1380465E-1,-6.992806E-1,-3.9989356E-2,5.7601538E-2,-5.214392E-1,9.4122994E-1,1.4197873E-1,-7.702837E-3,-1.6347629E-3,-1.8989684E-1,1.15123585E-1,-2.753203E-1,5.7553434E-1,-8.3755016E-1,2.116817E-3,4.5554065E-3,1.0253733E-2,-2.0925131E-1,2.4961928E-1,-3.2482535E-1,-8.3547965E-2,1.7005323E-1,-5.5759877E-1,6.159461E-5,-5.6970455E-3,6.4626634E-3,-2.829716E-3,-1.0573955E-3,-1.0988837E-2,-3.1682986E-4,-6.594101E-3,6.2115015E-3,1.2406039E-3,-5.340371E-3,-1.6545837E-3,3.034386E-3,-1.076095E-3,5.33517E-3,8.532936E-4,-2.1888304E-3,-6.28908E-3],"categories":[],"categories_nodes":[],"categories_segments":[],"categories_sizes":[],"default_left":[0,0,0,0,0,0,0,0,0,0,0,0,0,0,0,0,0,0,0,0,0,0,0,0,0,0,0,0,0,0,0,0,0,0,0,0,0,0,0,0,0,0,0,0,0],"id":40,"left_children":[1,3,5,7,9,11,13,15,17,19,21,-1,-1,23,25,27,29,31,-1,-1,-1,33,35,37,39,41,43,-1,-1,-1,-1,-1,-1,-1,-1,-1,-1,-1,-1,-1,-1,-1,-1,-1,-1],"loss_changes":[1.0713099E1,1.4394501E1,2.1884094E1,2.1375015E1,2.0675892E1,5.425127E0,2.2470982E1,5.8762753E1,1.9795588E1,2.2428913E0,1.4112283E1,0E0,0E0,6.9722843E0,1.7809473E1,2.380243E1,2.4575512E1,1.8596535E1,0E0,0E0,0E0,8.645403E0,1.3889969E1,8.240446E0,5.698441E0,1.387371E1,1.5616827E0,0E0,0E0,0E0,0E0,0E0,0E0,0E0,0E0,0E0,0E0,0E0,0E0,0E0,0E0,0E0,0E0,0E0,0E0],"parents":[2147483647,0,0,1,1,2,2,3,3,4,4,5,5,6,6,7,7,8,8,9,9,10,10,13,13,14,14,15,15,16,16,17,17,21,21,22,22,23,23,24,24,25,25,26,26],"right_children":[2,4,6,8,10,12,14,16,18,20,22,-1,-1,24,26,28,30,32,-1,-1,-1,34,36,38,40,42,44,-1,-1,-1,-1,-1,-1,-1,-1,-1,-1,-1,-1,-1,-1,-1,-1,-1,-1],"split_conditions":[1.665978E-3,-1.1533013E-2,3.0327628E-3,3.4500635E-3,-9.730671E-3,2.6856285E-1,2.7500086E-3,-7.3041553E-3,-1.9240115E-2,5.146503E1,2.4107607E1,-7.702837E-3,-1.6347629E-3,1.817431E-1,4.6584498E-2,-2.3478968E-2,-1.7262887E-2,-1.0416636E-2,2.116817E-3,4.5554065E-3,1.0253733E-2,2.643386E-1,9.8563933E-1,7.1320343E-1,6.2445956E-1,6.984279E-3,1.2076429E-2,6.159461E-5,-5.6970455E-3,6.4626634E-3,-2.829716E-3,-1.0573955E-3,-1.0988837E-2,-3.1682986E-4,-6.594101E-3,6.2115015E-3,1.2406039E-3,-5.340371E-3,-1.6545837E-3,3.034386E-3,-1.076095E-3,5.33517E-3,8.532936E-4,-2.1888304E-3,-6.28908E-3],"split_indices":[21,21,21,20,21,15,20,20,21,13,6,0,0,15,21,21,21,10,0,0,0,7,3,9,9,21,10,0,0,0,0,0,0,0,0,0,0,0,0,0,0,0,0,0,0],"split_type":[0,0,0,0,0,0,0,0,0,0,0,0,0,0,0,0,0,0,0,0,0,0,0,0,0,0,0,0,0,0,0,0,0,0,0,0,0,0,0,0,0,0,0,0,0],"sum_hessian":[1.8234899E3,8.1172156E2,1.0117683E3,4.1165903E2,4.000625E2,5.0529274E1,9.61239E2,3.3571497E2,7.594405E1,3.3072617E1,3.6698987E2,3.362184E1,1.6907433E1,4.8855817E2,4.7268088E2,2.050946E2,1.3062038E2,5.3783546E1,2.2160507E1,1.6984907E1,1.6087711E1,8.5479614E1,2.8151025E2,2.1291194E2,2.756462E2,4.3883395E2,3.38469E1,1.2229569E2,8.2798904E1,1.0787006E2,2.2750319E1,2.2871767E1,3.0911777E1,6.811252E1,