{"learner":{"attributes":{"best_iteration":"357","best_score":"0.5405013370948308","scikit_learn":"{\"_estimator_type\": \"classifier\"}"},"feature_names":["return_1d","return_5d","price_to_ma5","ma5_to_ma20","rsi","macd_diff","stoch_k","bb_pct","atr_pct","volume_ratio","return_lag1","return_lag2","return_lag3","rsi_lag1","finbert_score_mean","finbert_pos_mean","finbert_neg_mean","news_count","sentiment_lag1","sentiment_lag2","spy_return_1d","spy_return_5d","spy_ma_ratio"],"feature_types":["float","float","float","float","float","float","float","float","float","float","float","float","float","float","float","float","float","float","float","float","float","float","float"],"gradient_booster":{"model":{"cats":{"enc":[],"feature_segments":[],"sorted_idx":[]},"gbtree_model_param":{"num_parallel_tree":"1","num_trees":"458"},"iteration_indptr":[0,1,2,3,4,5,6,7,8,9,10,11,12,13,14,15,16,17,18,19,20,21,22,23,24,25,26,27,28,29,30,31,32,33,34,35,36,37,38,39,40,41,42,43,44,45,46,47,48,49,50,51,52,53,54,55,56,57,58,59,60,61,62,63,64,65,66,67,68,69,70,71,72,73,74,75,76,77,78,79,80,81,82,83,84,85,86,87,88,89,90,91,92,93,94,95,96,97,98,99,100,101,102,103,104,105,106,107,108,109,110,111,112,113,114,115,116,117,118,119,120,121,122,123,124,125,126,127,128,129,130,131,132,133,134,135,136,137,138,139,140,141,142,143,144,145,146,147,148,149,150,151,152,153,154,155,156,157,158,159,160,161,162,163,164,165,166,167,168,169,170,171,172,173,174,175,176,177,178,179,180,181,182,183,184,185,186,187,188,189,190,191,192,193,194,195,196,197,198,199,200,201,202,203,204,205,206,207,208,209,210,211,212,213,214,215,216,217,218,219,220,221,222,223,224,225,226,227,228,229,230,231,232,233,234,235,236,237,238,239,240,241,242,243,244,245,246,247,248,249,250,251,252,253,254,255,256,257,258,259,260,261,262,263,264,265,266,267,268,269,270,271,272,273,274,275,276,277,278,279,280,281,282,283,284,285,286,287,288,289,290,291,292,293,294,295,296,297,298,299,300,301,302,303,304,305,306,307,308,309,310,311,312,313,314,315,316,317,318,319,320,321,322,323,324,325,326,327,328,329,330,331,332,333,334,335,336,337,338,339,340,341,342,343,344,345,346,347,348,349,350,351,352,353,354,355,356,357,358,359,360,361,362,363,364,365,366,367,368,369,370,371,372,373,374,375,376,377,378,379,380,381,382,383,384,385,386,387,388,389,390,391,392,393,394,395,396,397,398,399,400,401,402,403,404,405,406,407,408,409,410,411,412,413,414,415,416,417,418,419,420,421,422,423,424,425,426,427,428,429,430,431,432,433,434,435,436,437,438,439,440,441,442,443,444,445,446,447,448,449,450,451,452,453,454,455,456,457,458],"tree_info":[0,0,0,0,0,0,0,0,0,0,0,0,0,0,0,0,0,0,0,0,0,0,0,0,0,0,0,0,0,0,0,0,0,0,0,0,0,0,0,0,0,0,0,0,0,0,0,0,0,0,0,0,0,0,0,0,0,0,0,0,0,0,0,0,0,0,0,0,0,0,0,0,0,0,0,0,0,0,0,0,0,0,0,0,0,0,0,0,0,0,0,0,0,0,0,0,0,0,0,0,0,0,0,0,0,0,0,0,0,0,0,0,0,0,0,0,0,0,0,0,0,0,0,0,0,0,0,0,0,0,0,0,0,0,0,0,0,0,0,0,0,0,0,0,0,0,0,0,0,0,0,0,0,0,0,0,0,0,0,0,0,0,0,0,0,0,0,0,0,0,0,0,0,0,0,0,0,0,0,0,0,0,0,0,0,0,0,0,0,0,0,0,0,0,0,0,0,0,0,0,0,0,0,0,0,0,0,0,0,0,0,0,0,0,0,0,0,0,0,0,0,0,0,0,0,0,0,0,0,0,0,0,0,0,0,0,0,0,0,0,0,0,0,0,0,0,0,0,0,0,0,0,0,0,0,0,0,0,0,0,0,0,0,0,0,0,0,0,0,0,0,0,0,0,0,0,0,0,0,0,0,0,0,0,0,0,0,0,0,0,0,0,0,0,0,0,0,0,0,0,0,0,0,0,0,0,0,0,0,0,0,0,0,0,0,0,0,0,0,0,0,0,0,0,0,0,0,0,0,0,0,0,0,0,0,0,0,0,0,0,0,0,0,0,0,0,0,0,0,0,0,0,0,0,0,0,0,0,0,0,0,0,0,0,0,0,0,0,0,0,0,0,0,0,0,0,0,0,0,0,0,0,0,0,0,0,0,0,0,0,0,0,0,0,0,0,0,0,0,0,0,0,0,0,0,0,0,0,0,0,0,0,0,0,0,0,0,0,0,0,0,0,0,0,0,0,0,0,0,0,0,0,0,0,0,0,0,0,0,0,0,0,0,0,0,0,0,0,0,0,0,0,0,0,0,0,0,0],"trees":[{"base_weights":[4.1085714E-3,5.5408977E-2,-1.7944069E-1,-1.8046466E-1,1.1347953E-1,-3.2148364E-1,-0E0,-4.8858784E-3,-5.6978E-1,2.2348604E-1,2.3284727E-3,-4.5654246E-1,1.2015374E-1,1.3981196E-1,-2.4284145E-1,3.9211977E-1,-1.7299162E-1,-7.705938E-1,-5.604431E-3,2.7721936E-1,-3.751751E-1,-2.2827046E-1,2.4827448E-1,-5.257207E-1,-0E0,3.3599626E-2,-9.859872E-3,4.4568416E-1,-1.684605E-1,-4.0826663E-2,5.0659687E-3,5.4902997E-2,-0E0,-3.745965E-2,2.3374654E-2,-3.750399E-2,-8.391955E-2,2.6113285E-2,-0E0,-5.9275206E-2,-0E0,-5.9473224E-2,-7.897471E-3,2.771791E-2,-3.3257402E-2,-1.6162833E-2,-5.549041E-2,-0E0,5.013077E-2,-0E0,-3.2863636E-2],"categories":[],"categories_nodes":[],"categories_segments":[],"categories_sizes":[],"default_left":[0,0,0,0,0,0,0,0,0,0,0,0,0,0,0,0,0,0,0,0,0,0,0,0,0,0,0,0,0,0,0,0,0,0,0,0,0,0,0,0,0,0,0,0,0,0,0,0,0,0,0],"id":0,"left_children":[1,3,5,7,9,11,13,15,17,19,21,23,25,27,29,31,33,35,-1,37,39,41,43,45,-1,-1,-1,47,49,-1,-1,-1,-1,-1,-1,-1,-1,-1,-1,-1,-1,-1,-1,-1,-1,-1,-1,-1,-1,-1,-1],"loss_changes":[1.9210394E1,2.223529E1,1.2038993E1,1.9859303E1,1.55377445E1,1.6168175E1,6.211911E0,1.433975E1,6.8711414E0,2.0835327E1,3.8223446E1,5.570095E0,5.0290627E0,1.2856014E1,6.559637E0,8.923597E0,2.3345823E1,3.713417E-1,0E0,9.39986E0,7.331152E0,2.0442854E1,2.2302916E1,6.825634E0,0E0,0E0,0E0,4.3911858E0,3.277296E0,0E0,0E0,0E0,0E0,0E0,0E0,0E0,0E0,0E0,0E0,0E0,0E0,0E0,0E0,0E0,0E0,0E0,0E0,0E0,0E0,0E0,0E0],"parents":[2147483647,0,0,1,1,2,2,3,3,4,4,5,5,6,6,7,7,8,8,9,9,10,10,11,11,12,12,13,13,14,14,15,15,16,16,17,17,19,19,20,20,21,21,22,22,23,23,27,27,28,28],"right_children":[2,4,6,8,10,12,14,16,18,20,22,24,26,28,30,32,34,36,-1,38,40,42,44,46,-1,-1,-1,48,50,-1,-1,-1,-1,-1,-1,-1,-1,-1,-1,-1,-1,-1,-1,-1,-1,-1,-1,-1,-1,-1,-1],"split_conditions":[1.0235151E0,-8.506915E-3,9.467949E-3,-1.1648865E-2,1.665978E-3,1.1749722E-2,3.7300423E-2,9.6536833E-1,2.5239345E-1,1.4534815E-2,2.8613324E-3,9.432214E-1,1.5968481E-2,8.7444973E-1,1.0334557E0,5.8297906E-3,-7.4018054E-3,1.3747649E-1,-5.604431E-3,1.0106071E0,-1.57111E-2,1.0045315E0,2.6720848E-2,4.02011E-3,-0E0,3.3599626E-2,-9.859872E-3,1.0279742E0,1.0313745E0,-4.0826663E-2,5.0659687E-3,5.4902997E-2,-0E0,-3.745965E-2,2.3374654E-2,-3.750399E-2,-8.391955E-2,2.6113285E-2,-0E0,-5.9275206E-2,-0E0,-5.9473224E-2,-7.897471E-3,2.771791E-2,-3.3257402E-2,-1.6162833E-2,-5.549041E-2,-0E0,5.013077E-2,-0E0,-3.2863636E-2],"split_indices":[22,20,12,20,21,20,8,22,15,20,20,7,20,7,2,10,21,15,0,22,21,22,12,1,0,0,0,22,22,0,0,0,0,0,0,0,0,0,0,0,0,0,0,0,0,0,0,0,0,0,0],"split_type":[0,0,0,0,0,0,0,0,0,0,0,0,0,0,0,0,0,0,0,0,0,0,0,0,0,0,0,0,0,0,0,0,0,0,0,0,0,0,0,0,0,0,0,0,0,0,0,0,0,0,0],"sum_hessian":[2.0741829E3,1.6336904E3,4.4049243E2,3.127122E2,1.3209781E3,2.528152E2,1.8767723E2,2.213693E2,9.134291E1,6.5063104E2,6.703471E2,1.9840878E2,5.4406433E1,1.25783676E2,6.1893555E1,6.039613E1,1.6097316E2,6.0645702E1,3.0697206E1,6.019647E2,4.86663E1,3.4016498E2,3.3018216E2,1.6945856E2,2.895021E1,2.895021E1,2.545622E1,6.738411E1,5.8399563E1,3.7186047E1,2.4707508E1,3.7186047E1,2.3210083E1,1.0182488E2,5.9148277E1,3.6187763E1,2.4457937E1,5.1411584E2,8.7848915E1,2.4457937E1,2.4208366E1,6.1893555E1,2.7827142E2,2.9099954E2,3.9182613E1,6.588669E1,1.0357188E2,2.3459654E1,4.3924458E1,3.0697206E1,2.7702358E1],"tree_param":{"num_deleted":"0","num_feature":"23","num_nodes":"51","size_leaf_vector":"1"}},{"base_weights":[-0E0,1.013533E-1,-8.206674E-2,-5.5191007E-2,2.7064565E-1,-7.860266E-1,-4.261353E-2,-3.309939E-1,1.4719874E-1,8.594445E-2,1.953031E-1,-8.936185E-2,-1.6361415E-2,-1.964895E-1,1.08296156E-1,-1.8067123E-1,-7.3934875E-2,4.9621293E-1,-4.1410813E-1,-1.22780256E-1,3.0720028E-1,-3.3651915E-1,-7.925033E-2,1.6516794E-1,-4.32074E-2,3.3431314E-2,-2.3761164E-2,6.744148E-2,-2.8249543E-2,-6.2003657E-2,2.3453047E-2,-4.9333017E-2,3.2049375E-5,5.905042E-2,1.6781522E-2,-4.0946677E-2,-1.0103954E-2,1.8808438E-2,-1.0259138E-2,4.738185E-2,7.584164E-3],"categories":[],"categories_nodes":[],"categories_segments":[],"categories_sizes":[],"default_left":[0,0,0,0,0,0,0,0,0,0,0,0,0,0,0,0,0,0,0,0,0,0,0,0,0,0,0,0,0,0,0,0,0,0,0,0,0,0,0,0,0],"id":1,"left_children":[1,3,5,7,9,11,13,15,17,-1,19,-1,-1,21,23,25,-1,27,29,31,33,35,37,39,-1,-1,-1,-1,-1,-1,-1,-1,-1,-1,-1,-1,-1,-1,-1,-1,-1],"loss_changes":[1.735437E1,2.541092E1,2.9584805E1,2.7288849E1,2.4186592E1,7.246559E0,2.568062E1,1.5516922E1,5.360567E1,0E0,1.5656271E1,0E0,0E0,7.85701E0,1.9251953E1,1.2125395E1,0E0,5.3187172E1,2.810041E1,8.168973E0,1.0540005E1,7.122246E0,4.679438E0,1.3186442E1,0E0,0E0,0E0,0E0,0E0,0E0,0E0,0E0,0E0,0E0,0E0,0E0,0E0,0E0,0E0,0E0,0E0],"parents":[2147483647,0,0,1,1,2,2,3,3,4,4,5,5,6,6,7,7,8,8,10,10,13,13,14,14,15,15,17,17,18,18,19,19,20,20,21,21,22,22,23,23],"right_children":[2,4,6,8,10,12,14,16,18,-1,20,-1,-1,22,24,26,-1,28,30,32,34,36,38,40,-1,-1,-1,-1,-1,-1,-1,-1,-1,-1,-1,-1,-1,-1,-1,-1,-1],"split_conditions":[1.665978E-3,-1.07328845E-2,3.0327628E-3,-8.04483E-3,-9.730671E-3,2.2959647E-1,2.7500086E-3,-1.8249756E-2,2.1774357E-3,8.594445E-2,2.5531803E1,-8.936185E-2,-1.6361415E-2,1.817431E-1,4.6584498E-2,2.2520786E-2,-7.3934875E-2,-1.8380951E-2,-1.9240115E-2,-2.5784368E-2,9.8563933E-1,8.5222054E-1,6.500952E-1,6.984279E-3,-4.32074E-2,3.3431314E-2,-2.3761164E-2,6.744148E-2,-2.8249543E-2,-6.2003657E-2,2.3453047E-2,-4.9333017E-2,3.2049375E-5,5.905042E-2,1.6781522E-2,-4.0946677E-2,-1.0103954E-2,1.8808438E-2,-1.0259138E-2,4.738185E-2,7.584164E-3],"split_indices":[21,21,21,20,21,15,20,21,20,0,6,0,0,15,21,8,0,21,21,10,3,9,9,21,0,0,0,0,0,0,0,0,0,0,0,0,0,0,0,0,0],"split_type":[0,0,0,0,0,0,0,0,0,0,0,0,0,0,0,0,0,0,0,0,0,0,0,0,0,0,0,0,0,0,0,0,0,0,0,0,0,0,0,0,0],"sum_hessian":[2.0828003E3,9.341141E2,1.1486862E3,4.772323E2,4.5688177E2,5.589052E1,1.0927957E3,2.0746127E2,2.6977103E2,3.416309E1,4.227187E2,3.1438732E1,2.4451786E1,5.5003265E2,5.4276294E2,1.7099496E2,3.6466305E1,1.6949889E2,1.00272156E2,1.0348888E2,3.192298E2,2.3869461E2,3.1133807E2,5.0408368E2,3.867923E1,2.3733385E1,1.4726158E2,1.2213665E2,4.7362232E1,6.8599075E1,3.167308E1,2.3934143E1,7.955473E1,5.0619205E1,2.686106E2,1.2035448E2,1.1834013E2,3.4205883E1,2.7713217E2,6.3084373E1,4.409993E2],"tree_param":{"num_deleted":"0","num_feature":"23","num_nodes":"41","size_leaf_vector":"1"}},{"base_weights":[-0E0,9.658235E-2,-7.917629E-2,-6.1181925E-2,2.5617918E-1,-7.405608E-1,-4.149292E-2,2.3346854E-2,-5.449213E-1,3.751557E-1,-1.7907716E-1,-7.901732E-2,-1.8749159E-2,-1.8400897E-1,9.7050406E-2,1.8015574E-1,-7.067454E-1,-1.482903E-1,-9.450421E-2,-1.5819684E-2,4.4612452E-1,-4.799554E-1,8.271828E-3,-5.235765E-1,-1.0310268E-1,1.5177697E-1,-4.185006E-2,-1.2236834E-2,5.391551E-2,-2.3234894E-3,-8.843978E-2,-4.300006E-2,9.128937E-3,9.2525475E-2,2.9607482E-2,-5.9347842E-2,-8.8689E-3,4.9866753E-4,-7.9535455E-2,-2.6253765E-2,-0E0,2.6300592E-2,-7.590636E-4],"categories":[],"categories_nodes":[],"categories_segments":[],"categories_sizes":[],"default_left":[0,0,0,0,0,0,0,0,0,0,0,0,0,0,0,0,0,0,0,0,0,0,0,0,0,0,0,0,0,0,0,0,0,0,0,0,0,0,0,0,0,0,0],"id":2,"left_children":[1,3,5,7,9,11,13,15,17,19,21,-1,-1,23,25,27,29,31,-1,-1,33,35,-1,37,39,41,-1,-1,-1,-1,-1,-1,-1,-1,-1,-1,-1,-1,-1,-1,-1,-1,-1],"loss_changes":[1.5937044E1,2.4169338E1,2.6371717E1,2.0433033E1,2.5237347E1,3.680254E0,2.1802988E1,4.3474495E1,1.49636345E1,1.6237183E1,9.452646E0,0E0,0E0,1.3238359E1,1.7642412E1,5.6000317E1,1.5052547E1,6.446494E0,0E0,0E0,1.3127251E1,2.6627893E0,0E0,2.7743933E1,1.1410887E1,1.5534996E1,0E0,0E0,0E0,0E0,0E0,0E0,0E0,0E0,0E0,0E0,0E0,0E0,0E0,0E0,0E0,0E0,0E0],"parents":[2147483647,0,0,1,1,2,2,3,3,4,4,5,5,6,6,7,7,8,8,9,9,10,10,13,13,14,14,15,15,16,16,17,17,20,20,21,21,23,23,24,24,25,25],"right_children":[2,4,6,8,10,12,14,16,18,20,22,-1,-1,24,26,28,30,32,-1,-1,34,36,-1,38,40,42,-1,-1,-1,-1,-1,-1,-1,-1,-1,-1,-1,-1,-1,-1,-1,-1,-1],"split_conditions":[1.665978E-3,-1.1810946E-2,3.0327628E-3,-1.6934114E-2,1.0134325E0,2.3964265E-1,2.7500086E-3,3.2094833E-3,1.4233815E-3,-2.9363226E-2,2.5757973E-4,-7.901732E-2,-1.8749159E-2,1.0045315E0,4.6584498E-2,-7.470275E-3,-1.0416636E-2,9.410492E-1,-9.450421E-2,-1.5819684E-2,9.732973E-1,-7.4487587E-4,8.271828E-3,9.88411E-1,8.2091324E-2,1.0200822E0,-4.185006E-2,-1.2236834E-2,5.391551E-2,-2.3234894E-3,-8.843978E-2,-4.300006E-2,9.128937E-3,9.2525475E-2,2.9607482E-2,-5.9347842E-2,-8.8689E-3,4.9866753E-4,-7.9535455E-2,-2.6253765E-2,-0E0,2.6300592E-2,-7.590636E-4],"split_indices":[21,21,21,21,22,15,20,20,12,10,12,0,0,22,21,20,10,9,0,0,22,11,0,22,16,22,0,0,0,0,0,0,0,0,0,0,0,0,0,0,0,0,0],"split_type":[0,0,0,0,0,0,0,0,0,0,0,0,0,0,0,0,0,0,0,0,0,0,0,0,0,0,0,0,0,0,0,0,0,0,0,0,0,0,0,0,0,0,0],"sum_hessian":[2.0821104E3,9.3618494E2,1.1459253E3,4.6241632E2,4.7376862E2,5.6461082E1,1.0894642E3,3.897904E2,7.262593E1,3.772391E2,9.65295E1,3.299266E1,2.3468424E1,5.4674133E2,5.427229E2,3.248323E2,6.495808E1,4.8659813E1,2.3966114E1,3.6900627E1,3.4033847E2,5.1140827E1,4.538867E1,9.718694E1,4.495544E2,5.03996E2,3.8726868E1,1.9170961E2,1.3312271E2,2.7486233E1,3.747184E1,2.3200792E1,2.545902E1,2.6104456E1,3.1423404E2,2.4449404E1,2.6691425E1,4.395396E1,5.323298E1,1.4686386E2,3.0269055E2,2.4609729E2,2.5789874E2],"tree_param":{"num_deleted":"0","num_feature":"23","num_nodes":"43","size_leaf_vector":"1"}},{"base_weights":[-0E0,5.773993E-2,-8.758934E-3,1.7565386E-2,-2.2050703E-1,-1.1770998E-1,6.2410567E-2,-3.5479593E-1,-3.3403344E-3,-2.8835278E-2,-5.2006614E-1,6.6997355E-1,3.003222E-2,-5.792029E-1,-8.169619E-2,1.7096163E-1,-2.1530775E-2,8.32072E-3,-2.1899827E-2,-6.6910096E-2,4.401992E-3,7.804852E-2,7.972138E-3,1.2428892E-2,-1.8084919E-3,-0E0,-6.654532E-2,1.2551668E-2,-2.130543E-2,4.084795E-2,-1.2907409E-2],"categories":[],"categories_nodes":[],"categories_segments":[],"categories_sizes":[],"default_left":[0,0,0,0,0,0,0,0,0,0,0,0,0,0,0,0,0,0,0,0,0,0,0,0,0,0,0,0,0,0,0],"id":3,"left_children":[1,-1,3,5,7,9,11,13,15,17,19,21,23,25,27,29,-1,-1,-1,-1,-1,-1,-1,-1,-1,-1,-1,-1,-1,-1,-1],"loss_changes":[1.4920778E1,0E0,1.2033952E1,1.0887737E1,5.975523E0,1.4103295E1,2.5210838E1,6.665989E0,5.039879E0,1.2584212E1,1.5897646E1,8.531656E0,9.183731E0,8.857342E0,3.5062134E0,7.4481897E0,0E0,0E0,0E0,0E0,0E0,0E0,0E0,0E0,0E0,0E0,0E0,0E0,0E0,0E0,0E0],"parents":[2147483647,0,0,2,2,3,3,4,4,5,5,6,6,7,7,8,8,9,9,10,10,11,11,12,12,13,13,14,14,15,15],"right_children":[2,-1,4,6,8,10,12,14,16,18,20,22,24,26,28,30,-1,-1,-1,-1,-1,-1,-1,-1,-1,-1,-1,-1,-1,-1,-1],"split_conditions":[9.3790895E-1,5.773993E-2,1.0304543E0,-1.1810946E-2,2.3673126E-2,-1.6934114E-2,-9.149272E-3,2.5628868E-2,2.2837606E-1,-1.6884867E-3,1.11906E-3,9.981779E-1,1.665978E-3,2.5400095E-2,3.30384E-2,9.191925E1,-2.1530775E-2,8.32072E-3,-2.1899827E-2,-6.6910096E-2,4.401992E-3,7.804852E-2,7.972138E-3,1.2428892E-2,-1.8084919E-3,-0E0,-6.654532E-2,1.2551668E-2,-2.130543E-2,4.084795E-2,-1.2907409E-2],"split_indices":[22,0,22,21,18,21,21,21,15,10,0,22,21,8,21,6,0,0,0,0,0,0,0,0,0,0,0,0,0,0,0],"split_type":[0,0,0,0,0,0,0,0,0,0,0,0,0,0,0,0,0,0,0,0,0,0,0,0,0,0,0,0,0,0,0],"sum_hessian":[2.081741E3,2.6596876E1,2.055144E3,1.81726E3,2.37884E2,4.364359E2,1.3808241E3,1.3854123E2,9.9342766E1,3.6430496E2,7.213094E1,6.419713E1,1.316627E3,6.963683E1,6.8904396E1,5.4162415E1,4.5180347E1,2.2956786E2,1.347371E2,4.8929165E1,2.320178E1,3.7649776E1,2.6547356E1,4.0252676E2,9.141002E2,2.4464136E1,4.5172703E1,2.370895E1,4.5195446E1,3.0448078E1,2.3714336E1],"tree_param":{"num_deleted":"0","num_feature":"23","num_nodes":"31","size_leaf_vector":"1"}},{"base_weights":[-4.8136496E-4,5.462986E-2,-1.0970597E-2,-3.4914404E-1,2.482529E-3,-0E0,-4.9625382E-1,5.9802834E-2,-1.0256316E-1,-3.7418783E-4,-5.9311062E-2,3.2942113E-2,5.10452E-1,-1.9944774E-1,5.0873004E-2,1.000229E-2,-6.3298144E-3,8.205901E-3,5.6505974E-2,-2.7100213E-2,-0E0,1.8446028E-2,-5.7638353E-3],"categories":[],"categories_nodes":[],"categories_segments":[],"categories_sizes":[],"default_left":[0,0,0,0,0,0,0,0,0,0,0,0,0,0,0,0,0,0,0,0,0,0,0],"id":4,"left_children":[1,-1,3,5,7,-1,9,11,13,-1,-1,15,17,19,21,-1,-1,-1,-1,-1,-1,-1,-1],"loss_changes":[1.3168144E1,0E0,1.0327168E1,4.6920996E0,1.1762109E1,0E0,5.5357056E0,1.4123286E1,1.05280905E1,0E0,0E0,1.3018136E1,3.1077957E0,1.2483141E1,6.1338115E0,0E0,0E0,0E0,0E0,0E0,0E0,0E0,0E0],"parents":[2147483647,0,0,2,2,3,3,4,4,6,6,7,7,8,8,11,11,12,12,13,13,14,14],"right_children":[2,-1,4,6,8,-1,10,12,14,-1,-1,16,18,20,22,-1,-1,-1,-1,-1,-1,-1,-1],"split_conditions":[9.3790895E-1,5.462986E-2,-1.773849E-2,4.9065817E-2,1.0179092E0,-0E0,9.7655755E-1,1.0162178E0,1.0167615E0,-3.7418783E-4,-5.9311062E-2,1.5566783E-3,5.404484E-3,6.642749E-3,5.9421078E1,1.000229E-2,-6.3298144E-3,8.205901E-3,5.6505974E-2,-2.7100213E-2,-0E0,1.8446028E-2,-5.7638353E-3],"split_indices":[22,0,20,15,22,0,3,22,2,0,0,12,21,12,13,0,0,0,0,0,0,0,0],"split_type":[0,0,0,0,0,0,0,0,0,0,0,0,0,0,0,0,0,0,0,0,0,0,0],"sum_hessian":[2.0818926E3,2.5975023E1,2.0559175E3,8.533457E1,1.9705829E3,2.4705124E1,6.062945E1,1.2924457E3,6.7813727E2,2.4693027E1,3.5936424E1,1.2269141E3,6.553163E1,4.265681E2,2.515692E2,6.854555E2,5.414585E2,2.6922905E1,3.8608723E1,2.5190059E2,1.7466751E2,1.1053743E2,1.4103175E2],"tree_param":{"num_deleted":"0","num_feature":"23","num_nodes":"23","size_leaf_vector":"1"}},{"base_weights":[-1.6013425E-3,5.0045267E-2,-1.1212885E-2,2.0207308E-2,-1.4319554E-1,-4.767426E-1,3.696542E-2,-4.986555E-2,-8.984497E-2,-5.4925177E-2,-1.0543259E-2,1.307111E-1,-1.2987721E-2,-3.371081E-1,1.1830088E-2,1.9483194E-2,2.0229826E-3,-3.2455195E-2,-0E0,-4.3548647E-2,-0E0,2.2015687E-2,-8.8257035E-3],"categories":[],"categories_nodes":[],"categories_segments":[],"categories_sizes":[],"default_left":[0,0,0,0,0,0,0,0,0,0,0,0,0,0,0,0,0,0,0,0,0,0,0],"id":5,"left_children":[1,-1,3,5,7,9,11,-1,13,-1,-1,15,17,19,21,-1,-1,-1,-1,-1,-1,-1,-1],"loss_changes":[1.0939612E1,0E0,8.881779E0,1.250869E1,8.607584E0,1.1585493E0,7.820438E0,0E0,1.0434604E1,0E0,0E0,6.1825447E0,5.7879944E0,9.69895E0,9.04812E0,0E0,0E0,0E0,0E0,0E0,0E0,0E0,0E0],"parents":[2147483647,0,0,2,2,3,3,4,4,5,5,6,6,8,8,11,11,12,12,13,13,14,14],"right_children":[2,-1,4,6,8,10,12,-1,14,-1,-1,16,18,20,22,-1,-1,-1,-1,-1,-1,-1,-1],"split_conditions":[9.3790895E-1,5.0045267E-2,1.0247395E0,-4.989012E-2,1.0252885E0,-4.282862E-2,2.4287643E-2,-4.986555E-2,7.889723E-1,-5.4925177E-2,-1.0543259E-2,-1.9977202E-4,9.505791E-1,8E0,1.4556783E-1,1.9483194E-2,2.0229826E-3,-3.2455195E-2,-0E0,-4.3548647E-2,-0E0,2.2015687E-2,-8.8257035E-3],"split_indices":[22,0,22,10,22,14,8,0,9,0,0,11,22,17,15,0,0,0,0,0,0,0,0],"split_type":[0,0,0,0,0,0,0,0,0,0,0,0,0,0,0,0,0,0,0,0,0,0,0],"sum_hessian":[2.0824243E3,2.5579517E1,2.0568447E3,1.6451744E3,4.1167026E2,4.706373E1,1.5981107E3,3.4220333E1,3.7744995E2,2.3150272E1,2.3913458E1,5.7420825E2,1.02390247E3,1.1708774E2,2.603622E2,2.612322E2,3.1297604E2,3.435549E1,9.89547E2,7.5640785E1,4.1446945E1,8.90914E1,1.712708E2],"tree_param":{"num_deleted":"0","num_feature":"23","num_nodes":"23","size_leaf_vector":"1"}},{"base_weights":[-4.5159417E-3,5.180437E-2,-1.4646523E-2,6.680536E-3,-1.8665874E-1,-1.5738618E-1,4.243654E-2,-4.705658E-1,-7.994613E-2,-0E0,-5.070139E-1,2.6820672E-1,-9.71707E-3,-5.448953E-2,-9.877164E-3,-2.8078595E-2,-0E0,-9.431018E-3,4.435031E-2,-8.464133E-3,-6.557643E-2,8.871095E-2,1.3390662E-2,-5.4296456E-2,1.130908E-3,3.0539487E-2,-7.5385654E-3],"categories":[],"categories_nodes":[],"categories_segments":[],"categories_sizes":[],"default_left":[0,0,0,0,0,0,0,0,0,0,0,0,0,0,0,0,0,0,0,0,0,0,0,0,0,0,0],"id":6,"left_children":[1,-1,3,5,7,9,11,13,15,17,19,21,23,-1,-1,-1,25,-1,-1,-1,-1,-1,-1,-1,-1,-1,-1],"loss_changes":[1.2087495E1,0E0,8.043071E0,1.0337723E1,5.722232E0,1.7826859E1,1.8451084E1,1.9947834E0,4.2656956E0,1.4842627E1,9.969904E0,2.0898441E1,2.149548E1,0E0,0E0,0E0,5.423795E0,0E0,0E0,0E0,0E0,0E0,0E0,0E0,0E0,0E0,0E0],"parents":[2147483647,0,0,2,2,3,3,4,4,5,5,6,6,7,7,8,8,9,9,10,10,11,11,12,12,16,16],"right_children":[2,-1,4,6,8,10,12,14,16,18,20,22,24,-1,-1,-1,26,-1,-1,-1,-1,-1,-1,-1,-1,-1,-1],"split_conditions":[9.3790895E-1,5.180437E-2,1.0304543E0,-8.257137E-3,-5.8307784E-4,-1.1648865E-2,-3.0702723E-3,7.446525E-3,7.5473285E-1,-1.2895856E-2,1.0050398E0,-2.7706739E-2,-2.552639E-3,-5.448953E-2,-9.877164E-3,-2.8078595E-2,1.3611051E-2,-9.431018E-3,4.435031E-2,-8.464133E-3,-6.557643E-2,8.871095E-2,1.3390662E-2,-5.4296456E-2,1.130908E-3,3.0539487E-2,-7.5385654E-3],"split_indices":[22,0,22,20,20,20,20,12,9,20,9,21,20,0,0,0,1,0,0,0,0,0,0,0,0,0,0],"split_type":[0,0,0,0,0,0,0,0,0,0,0,0,0,0,0,0,0,0,0,0,0,0,0,0,0,0,0],"sum_hessian":[2.0800325E3,2.6139496E1,2.053893E3,1.814031E3,2.3986208E2,3.0984534E2,1.5041857E3,5.7164642E1,1.8269743E2,2.1182819E2,9.801715E1,2.9127884E2,1.2129069E3,2.945639E1,2.7708252E1,4.2191303E1,1.4050613E2,1.7348341E2,3.8344776E1,4.8114605E1,4.990255E1,2.621256E1,2.6506625E2,4.4381073E1,1.1685258E3,2.8431705E1,1.12074425E2],"tree_param":{"num_deleted":"0","num_feature":"23","num_nodes":"27","size_leaf_vector":"1"}},{"base_weights":[1.5857503E-3,1.1863189E-2,-3.7890486E-2,-7.609279E-4,4.2461538E-1,1.3494277E-2,-4.4604412E-1,7.591621E-2,3.3383693E-3,-1.4222936E-1,4.777981E-2,-5.4618005E-2,-0E0,-0E0,-3.7989244E-2,1.9940546E-2,2.9951883E-5],"categories":[],"categories_nodes":[],"categories_segments":[],"categories_sizes":[],"default_left":[0,0,0,0,0,0,0,0,0,0,0,0,0,0,0,0,0],"id":7,"left_children":[1,3,-1,5,7,9,11,-1,-1,13,15,-1,-1,-1,-1,-1,-1],"loss_changes":[8.944565E0,1.1827677E1,0E0,1.3764095E1,1.082796E1,9.948521E0,7.517248E0,0E0,0E0,1.7134567E1,1.4548957E1,0E0,0E0,0E0,0E0,0E0,0E0],"parents":[2147483647,0,0,1,1,3,3,4,4,5,5,6,6,9,9,10,10],"right_children":[2,4,-1,6,8,10,12,-1,-1,14,16,-1,-1,-1,-1,-1,-1],"split_conditions":[4.939319E-2,3.9858785E-2,-3.7890486E-2,3.30384E-2,4.2219844E-2,-8.257137E-3,1.5988752E-2,7.591621E-2,3.3383693E-3,-1.1648865E-2,-3.0702723E-3,-5.4618005E-2,-0E0,-0E0,-3.7989244E-2,1.9940546E-2,2.9951883E-5],"split_indices":[21,21,0,21,21,20,11,0,0,20,20,0,0,0,0,0,0],"split_type":[0,0,0,0,0,0,0,0,0,0,0,0,0,0,0,0,0],"sum_hessian":[2.078402E3,2.0416864E3,3.6715714E1,1.9758115E3,6.5874855E1,1.9096871E3,6.61244E1,2.3692623E1,4.2182236E1,3.2916443E2,1.5805227E3,4.291862E1,2.320578E1,2.2644554E2,1.02718895E2,2.865541E2,1.2939686E3],"tree_param":{"num_deleted":"0","num_feature":"23","num_nodes":"17","size_leaf_vector":"1"}},{"base_weights":[-1.7147863E-3,4.564171E-2,-1.0711545E-2,-2.8477305E-1,-0E0,-0E0,-4.3303767E-1,-4.6777852E-2,9.70155E-3,-6.2178414E-2,-0E0,3.4318882E-1,-1.0020424E-2,-1.5229996E-3,3.8656346E-2,-1.7007854E-2,1.4662159E-3],"categories":[],"categories_nodes":[],"categories_segments":[],"categories_sizes":[],"default_left":[0,0,0,0,0,0,0,0,0,0,0,0,0,0,0,0,0],"id":8,"left_children":[1,-1,3,5,7,-1,9,-1,11,-1,-1,13,15,-1,-1,-1,-1],"loss_changes":[9.236085E0,0E0,6.6899323E0,4.3151536E0,9.950091E0,0E0,7.4954386E0,0E0,1.3727755E1,0E0,0E0,7.3863115E0,1.1197422E1,0E0,0E0,0E0,0E0],"parents":[2147483647,0,0,2,2,3,3,4,4,6,6,8,8,11,11,12,12],"right_children":[2,-1,4,6,8,-1,10,-1,12,-1,-1,14,16,-1,-1,-1,-1],"split_conditions":[9.3790895E-1,4.564171E-2,-1.773849E-2,9.6516484E-1,9.505791E-1,-0E0,-1.8380951E-2,-4.6777852E-2,-2.8416172E-2,-6.2178414E-2,-0E0,1.2172343E-2,-1.1810946E-2,-1.5229996E-3,3.8656346E-2,-1.7007854E-2,1.4662159E-3],"split_indices":[22,0,20,22,22,0,21,0,21,0,0,7,21,0,0,0,0],"split_type":[0,0,0,0,0,0,0,0,0,0,0,0,0,0,0,0,0],"sum_hessian":[2.080816E3,2.5936401E1,2.0548794E3,8.408935E1,1.9707902E3,2.5458345E1,5.8631004E1,2.6820019E1,1.9439701E3,2.9232334E1,2.939867E1,1.15235886E2,1.8287343E3,2.7537481E1,8.76984E1,2.3482431E2,1.5939099E3],"tree_param":{"num_deleted":"0","num_feature":"23","num_nodes":"17","size_leaf_vector":"1"}},{"base_weights":[-3.7473096E-3,7.158943E-2,-6.706909E-2,-5.9873104E-2,2.1681249E-1,-6.750125E-1,-3.338573E-2,-2.558088E-1,1.1390502E-1,8.212746E-1,1.3690636E-1,-7.844583E-2,-8.561693E-3,-2.4233605E-1,5.900764E-2,-0E0,-6.377143E-1,4.3389073E-1,-3.807855E-1,9.381967E-2,2.3878306E-2,-1.7589995E-1,2.4460135E-1,-1.1184348E-1,-7.2693926E-1,3.8630745E-1,5.14286E-3,2.5752097E-2,-1.3591872E-2,-0E0,-6.692721E-2,5.1022712E-2,-2.2954365E-2,-8.3103396E-2,-2.0887956E-3,1.3005135E-2,-2.9797653E-2,2.9158168E-2,-5.729454E-3,-3.5302788E-2,4.7942836E-4,-7.500904E-2,-1.369857E-2,-1.2080507E-2,4.7935367E-2,5.2909594E-2,-1.363477E-3],"categories":[],"categories_nodes":[],"categories_segments":[],"categories_sizes":[],"default_left":[0,0,0,0,0,0,0,0,0,0,0,0,0,0,0,0,0,0,0,0,0,0,0,0,0,0,0,0,0,0,0,0,0,0,0,0,0,0,0,0,0,0,0,0,0,0,0],"id":9,"left_children":[1,3,5,7,9,11,13,15,17,19,21,-1,-1,23,25,27,29,31,33,-1,-1,35,37,39,41,43,45,-1,-1,-1,-1,-1,-1,-1,-1,-1,-1,-1,-1,-1,-1,-1,-1,-1,-1,-1,-1],"loss_changes":[9.906484E0,1.8199606E1,2.1539993E1,1.673683E1,1.9011345E1,6.738014E0,2.1672794E1,2.225674E1,3.9481964E1,4.4864845E0,1.3887043E1,0E0,0E0,1.9389505E1,1.2149132E1,7.842117E0,1.1220093E1,2.4490088E1,1.9241678E1,0E0,0E0,7.2977266E0,1.28394985E1,1.2138535E1,4.941078E0,1.2952326E1,1.1472459E1,0E0,0E0,0E0,0E0,0E0,0E0,0E0,0E0,0E0,0E0,0E0,0E0,0E0,0E0,0E0,0E0,0E0,0E0,0E0,0E0],"parents":[2147483647,0,0,1,1,2,2,3,3,4,4,5,5,6,6,7,7,8,8,9,9,10,10,13,13,14,14,15,15,16,16,17,17,18,18,21,21,22,22,23,23,24,24,25,25,26,26],"right_children":[2,4,6,8,10,12,14,16,18,20,22,-1,-1,24,26,28,30,32,34,-1,-1,36,38,40,42,44,46,-1,-1,-1,-1,-1,-1,-1,-1,-1,-1,-1,-1,-1,-1,-1,-1,-1,-1,-1,-1],"split_conditions":[1.665978E-3,-1.07328845E-2,3.0327628E-3,-7.3041553E-3,-9.149272E-3,2.4115786E-1,-1.870928E-5,-2.3478968E-2,2.8613324E-3,9.952862E-1,2.5531803E1,-7.844583E-2,-8.561693E-3,-1.1608372E-3,6.984279E-3,-1.7775906E-2,-1.773849E-2,-1.7262887E-2,9.753253E-1,9.381967E-2,2.3878306E-2,-4.9074695E-2,1.0134325E0,1.0045315E0,3.4795597E-2,1.6524395E-3,9.910543E-1,2.5752097E-2,-1.3591872E-2,-0E0,-6.692721E-2,5.1022712E-2,-2.2954365E-2,-8.3103396E-2,-2.0887956E-3,1.3005135E-2,-2.9797653E-2,2.9158168E-2,-5.729454E-3,-3.5302788E-2,4.7942836E-4,-7.500904E-2,-1.369857E-2,-1.2080507E-2,4.7935367E-2,5.2909594E-2,-1.363477E-3],"split_indices":[21,21,21,20,21,15,20,21,20,22,6,0,0,20,21,12,20,21,22,0,0,1,22,22,1,20,22,0,0,0,0,0,0,0,0,0,0,0,0,0,0,0,0,0,0,0,0],"split_type":[0,0,0,0,0,0,0,0,0,0,0,0,0,0,0,0,0,0,0,0,0,0,0,0,0,0,0,0,0,0,0,0,0,0,0,0,0,0,0,0,0,0,0,0,0,0,0],"sum_hessian":[2.0766377E3,9.28158E2,1.1484797E3,4.774863E2,4.506717E2,5.4631992E1,1.0938478E3,2.316857E2,2.4580061E2,4.712179E1,4.035499E2,3.140507E1,2.3226921E1,3.4397855E2,7.498692E2,1.4078026E2,9.090544E1,1.5277684E2,9.302378E1,2.3689878E1,2.3431915E1,9.650897E1,3.0704092E2,2.7681128E2,6.716729E1,9.750681E1,6.523624E2,4.662663E1,9.4153625E1,2.3656597E1,6.724884E1,1.2165166E2,3.1125177E1,2.8690022E1,6.4333755E1,3.0612923E1,6.589605E1,2.2752594E2,7.951499E1,7.763472E1,1.9917654E2,4.3943905E1,2.3223383E1,2.4475983E1,7.303083E1,2.4137697E1,6.2822473E2],"tree_param":{"num_deleted":"0","num_feature":"23","num_nodes":"47","size_leaf_vector":"1"}},{"base_weights":[-9.131459E-4,6.8342455E-2,-5.935865E-2,-4.595218E-2,1.847895E-1,-6.3590556E-1,-2.6982501E-2,3.620622E-2,-4.3795702E-1,2.8149852E-1,-1.7371567E-1,-6.634863E-2,-1.9310994E-2,-2.125279E-1,5.3932097E-2,-2.0857081E-1,4.2836523E-1,-7.01265E-1,8.229333E-3,-1.5642868E-1,3.5498393E-1,-4.368592E-1,5.9557892E-3,-8.489803E-2,-6.7805845E-1,1.1825131E-1,-1.8792233E-1,4.6088416E-4,-4.576007E-2,4.8037276E-2,-2.7928397E-2,-1.7897345E-3,-9.463862E-2,-3.0943803E-2,-0E0,-0E0,3.591024E-2,-5.462478E-2,-5.166329E-3,-3.218747E-2,2.3293833E-3,-6.961256E-2,-1.2695775E-2,1.4510468E-2,-1.4123698E-2,-4.037117E-2,-0E0],"categories":[],"categories_nodes":[],"categories_segments":[],"categories_sizes":[],"default_left":[0,0,0,0,0,0,0,0,0,0,0,0,0,0,0,0,0,0,0,0,0,0,0,0,0,0,0,0,0,0,0,0,0,0,0,0,0,0,0,0,0,0,0,0,0,0,0],"id":10,"left_children":[1,3,5,7,9,11,13,15,17,19,21,-1,-1,23,25,27,29,31,-1,33,35,37,-1,39,41,43,45,-1,-1,-1,-1,-1,-1,-1,-1,-1,-1,-1,-1,-1,-1,-1,-1,-1,-1,-1,-1],"loss_changes":[8.36309E0,1.2731016E1,1.951513E1,1.5846675E1,1.6706417E1,1.1396809E0,1.6832962E1,3.6517796E1,1.3897686E1,1.2785704E1,7.2583656E0,0E0,0E0,1.8114048E1,1.1503451E1,1.9419397E1,2.1399582E1,1.6861439E1,0E0,2.7542129E0,1.2535744E1,2.6706104E0,0E0,1.1118384E1,3.9988441E0,1.1567262E1,8.306887E0,0E0,0E0,0E0,0E0,0E0,0E0,0E0,0E0,0E0,0E0,0E0,0E0,0E0,0E0,0E0,0E0,0E0,0E0,0E0,0E0],"parents":[2147483647,0,0,1,1,2,2,3,3,4,4,5,5,6,6,7,7,8,8,9,9,10,10,13,13,14,14,15,15,16,16,17,17,19,19,20,20,21,21,23,23,24,24,25,25,26,26],"right_children":[2,4,6,8,10,12,14,16,18,20,22,-1,-1,24,26,28,30,32,-1,34,36,38,-1,40,42,44,46,-1,-1,-1,-1,-1,-1,-1,-1,-1,-1,-1,-1,-1,-1,-1,-1,-1,-1,-1,-1],"split_conditions":[1.665978E-3,-1.1810946E-2,3.0327628E-3,3.2094833E-3,1.0134325E0,2.2959647E-1,-1.870928E-5,-7.3041553E-3,-1.9240115E-2,-2.4661923E-2,2.5757973E-4,-6.634863E-2,-1.9310994E-2,-1.1608372E-3,3.0735748E-2,-2.3478968E-2,-1.7262887E-2,-9.446627E-3,8.229333E-3,9.9691534E-1,1.920633E-2,-2.9237958E-4,5.9557892E-3,1.0045315E0,3.4795597E-2,2.442466E-1,2.2383225E-3,4.6088416E-4,-4.576007E-2,4.8037276E-2,-2.7928397E-2,-1.7897345E-3,-9.463862E-2,-3.0943803E-2,-0E0,-0E0,3.591024E-2,-5.462478E-2,-5.166329E-3,-3.218747E-2,2.3293833E-3,-6.961256E-2,-1.2695775E-2,1.4510468E-2,-1.4123698E-2,-4.037117E-2,-0E0],"split_indices":[21,21,21,20,22,15,20,20,21,10,12,0,0,20,21,21,21,10,0,22,8,20,0,22,1,14,10,0,0,0,0,0,0,0,0,0,0,0,0,0,0,0,0,0,0,0,0],"split_type":[0,0,0,0,0,0,0,0,0,0,0,0,0,0,0,0,0,0,0,0,0,0,0,0,0,0,0,0,0,0,0,0,0,0,0,0,0,0,0,0,0,0,0,0,0,0,0],"sum_hessian":[2.0697026E3,9.253113E2,1.1443912E3,4.552878E2,4.700235E2,5.496481E1,1.0894264E3,3.715051E2,8.378271E1,3.765163E2,9.350718E1,3.0739372E1,2.422544E1,3.4063678E2,7.487897E2,2.2473497E2,1.4677013E2,5.9579124E1,2.420358E1,4.843628E1,3.2808002E2,5.040207E1,4.310511E1,2.7326282E2,6.737397E1,6.011264E2,1.4766327E2,1.3800923E2,8.672574E1,1.2282094E2,2.3949183E1,2.796342E1,3.1615705E1,2.4829832E1,2.360645E1,6.523675E1,2.628433E2,2.4936586E1,2.5465485E1,7.7335915E1,1.959269E2,4.414741E1,2.3226557E1,5.0173764E2,9.938874E1,5.115767E1,9.650561E1],"tree_param":{"num_deleted":"0","num_feature":"23","num_nodes":"47","size_leaf_vector":"1"}},{"base_weights":[-0E0,3.9801355E-2,-6.468485E-3,-2.8336403E-1,4.1710003E-3,-4.255275E-1,-0E0,-4.7252443E-2,1.4187451E-2,-5.2189745E-2,-2.898151E-3,3.0201638E-1,-0E0,3.1845474E-3,6.2446736E-2,-2.5437672E-2,1.2272521E-3],"categories":[],"categories_nodes":[],"categories_segments":[],"categories_sizes":[],"default_left":[0,0,0,0,0,0,0,0,0,0,0,0,0,0,0,0,0],"id":11,"left_children":[1,-1,3,5,7,9,-1,-1,11,-1,-1,13,15,-1,-1,-1,-1],"loss_changes":[6.770239E0,0E0,6.8139834E0,3.835894E0,1.0181333E1,3.3638735E0,0E0,0E0,8.487344E0,0E0,0E0,1.0004278E1,9.708258E0,0E0,0E0,0E0,0E0],"parents":[2147483647,0,0,2,2,3,3,4,4,5,5,8,8,11,11,12,12],"right_children":[2,-1,4,6,8,10,-1,-1,12,-1,-1,14,16,-1,-1,-1,-1],"split_conditions":[9.3790895E-1,3.9801355E-2,-1.773849E-2,4.7582947E-2,9.505791E-1,1.8929468E-3,-0E0,-4.7252443E-2,-3.0405158E-2,-5.2189745E-2,-2.898151E-3,-3.3496395E-2,-3.650313E-2,3.1845474E-3,6.2446736E-2,-2.5437672E-2,1.2272521E-3],"split_indices":[22,0,20,8,22,11,0,0,21,0,0,21,10,0,0,0,0],"split_type":[0,0,0,0,0,0,0,0,0,0,0,0,0,0,0,0,0],"sum_hessian":[2.072115E3,2.5282642E1,2.0468324E3,8.418931E1,1.9626431E3,5.7785625E1,2.640368E1,2.6422869E1,1.9362202E3,3.1148182E1,2.6637444E1,9.601028E1,1.84021E3,6.698285E1,2.902743E1,8.9174034E1,1.7510359E3],"tree_param":{"num_deleted":"0","num_feature":"23","num_nodes":"17","size_leaf_vector":"1"}},{"base_weights":[-0E0,3.846607E-2,-7.109948E-3,-2.7955562E-1,3.3422722E-3,-0E0,-4.091412E-1,-4.2099416E-2,1.2128089E-2,-0E0,-4.9377296E-2,3.3156675E-1,-2.729477E-3,3.9044704E-2,-6.0704E-5,-5.565091E-3,4.8151677E-3],"categories":[],"categories_nodes":[],"categories_segments":[],"categories_sizes":[],"default_left":[0,0,0,0,0,0,0,0,0,0,0,0,0,0,0,0,0],"id":12,"left_children":[1,-1,3,5,7,-1,9,-1,11,-1,-1,13,15,-1,-1,-1,-1],"loss_changes":[6.401576E0,0E0,6.615927E0,3.4759183E0,7.7900023E0,0E0,3.9808407E0,0E0,1.0137593E1,0E0,0E0,6.4117746E0,7.927337E0,0E0,0E0,0E0,0E0],"parents":[2147483647,0,0,2,2,3,3,4,4,6,6,8,8,11,11,12,12],"right_children":[2,-1,4,6,8,-1,10,-1,12,-1,-1,14,16,-1,-1,-1,-1],"split_conditions":[9.3790895E-1,3.846607E-2,-1.773849E-2,4.9065817E-2,9.505791E-1,-0E0,9.7655755E-1,-4.2099416E-2,-3.0405158E-2,-0E0,-4.9377296E-2,5.0679065E-2,1.2230999E-3,3.9044704E-2,-6.0704E-5,-5.565091E-3,4.8151677E-3],"split_indices":[22,0,20,15,22,0,3,0,21,0,0,19,20,0,0,0,0],"split_type":[0,0,0,0,0,0,0,0,0,0,0,0,0,0,0,0,0],"sum_hessian":[2.0765747E3,2.5513857E1,2.051061E3,8.438744E1,1.9666736E3,2.4926039E1,5.9461407E1,2.5451653E1,1.9412219E3,2.4183084E1,3.527832E1,9.3372765E1,1.8478491E3,6.823447E1,2.5138294E1,9.1701135E2,9.3083777E2],"tree_param":{"num_deleted":"0","num_feature":"23","num_nodes":"17","size_leaf_vector":"1"}},{"base_weights":[-1.15714734E-4,3.1947747E-2,-1.2436989E-1,1.2046548E-1,-1.2645663E-2,-2.368996E-1,2.152842E-3,-6.7114052E-3,2.7142927E-1,2.6542109E-2,-2.0673272E-1,-3.6047363E-1,1.6599387E-1,1.420441E-1,-2.4527098E-1,2.902906E-1,-1.380392E-1,3.6187163E-1,-8.64095E-2,-9.2446364E-2,1.192611E-1,-6.86081E-1,8.7449394E-2,-4.256709E-1,-0E0,3.6500793E-2,-3.5578173E-3,4.0308702E-1,-1.1756587E-1,-3.999849E-2,3.9030486E-3,4.1623916E-2,-0E0,-1.894882E-2,1.922808E-2,6.2077227E-3,3.696358E-2,-1.9871E-2,-0E0,7.992338E-3,-2.1063503E-2,2.2565573E-2,-3.8066618E-3,-8.081782E-2,-1.371584E-2,2.1552512E-2,-1.165235E-2,-2.3552943E-2,-5.9100896E-2,-0E0,4.6771463E-2,-3.452307E-2,8.766328E-4],"categories":[],"categories_nodes":[],"categories_segments":[],"categories_sizes":[],"default_left":[0,0,0,0,0,0,0,0,0,0,0,0,0,0,0,0,0,0,0,0,0,0,0,0,0,0,0,0,0,0,0,0,0,0,0,0,0,0,0,0,0,0,0,0,0,0,0,0,0,0,0,0,0],"id":13,"left_children":[1,3,5,7,9,11,13,15,17,19,21,23,25,27,29,31,33,35,37,39,41,43,45,47,-1,-1,-1,49,51,-1,-1,-1,-1,-1,-1,-1,-1,-1,-1,-1,-1,-1,-1,-1,-1,-1,-1,-1,-1,-1,-1,-1,-1],"loss_changes":[8.523832E0,6.7423015E0,6.9684834E0,1.1638122E1,8.610715E0,1.2886734E1,6.6239758E0,1.1303421E1,9.53417E0,9.747009E0,2.8686436E1,4.802107E0,4.49293E0,9.990627E0,6.2429605E0,5.259953E0,8.291366E0,4.9576797E0,1.1760474E0,1.2877647E1,1.4627579E1,9.464809E0,5.3972363E0,3.624527E0,0E0,0E0,0E0,4.0170546E0,3.7678988E0,0E0,0E0,0E0,0E0,0E0,0E0,0E0,0E0,0E0,0E0,0E0,0E0,0E0,0E0,0E0,0E0,0E0,0E0,0E0,0E0,0E0,0E0,0E0,0E0],"parents":[2147483647,0,0,1,1,2,2,3,3,4,4,5,5,6,6,7,7,8,8,9,9,10,10,11,11,12,12,13,13,14,14,15,15,16,16,17,17,18,18,19,19,20,20,21,21,22,22,23,23,27,27,28,28],"right_children":[2,4,6,8,10,12,14,16,18,20,22,24,26,28,30,32,34,36,38,40,42,44,46,48,-1,-1,-1,50,52,-1,-1,-1,-1,-1,-1,-1,-1,-1,-1,-1,-1,-1,-1,-1,-1,-1,-1,-1,-1,-1,-1,-1,-1],"split_conditions":[1.0235151E0,2.4287643E-2,8.211529E-3,7.324753E-4,1.4634802E-2,1.2138819E-2,3.7300423E-2,9.944233E-1,6.741613E1,-1.07328845E-2,1.0053387E0,9.432214E-1,1.5968481E-2,8.7444973E-1,1.0334557E0,6.318018E-4,1.29616605E-2,1.0035976E0,2.3689681E-1,-2.8416172E-2,1.0065488E0,2.3832088E-2,1.7608928E-2,5.761989E-3,-0E0,3.6500793E-2,-3.5578173E-3,2.4521856E-2,1.0461265E0,-3.999849E-2,3.9030486E-3,4.1623916E-2,-0E0,-1.894882E-2,1.922808E-2,6.2077227E-3,3.696358E-2,-1.9871E-2,-0E0,7.992338E-3,-2.1063503E-2,2.2565573E-2,-3.8066618E-3,-8.081782E-2,-1.371584E-2,2.1552512E-2,-1.165235E-2,-2.3552943E-2,-5.9100896E-2,-0E0,4.6771463E-2,-3.452307E-2,8.766328E-4],"split_indices":[22,8,12,20,21,20,8,22,4,21,22,7,20,7,2,18,11,22,15,21,22,21,12,20,0,0,0,8,3,0,0,0,0,0,0,0,0,0,0,0,0,0,0,0,0,0,0,0,0,0,0,0,0],"split_type":[0,0,0,0,0,0,0,0,0,0,0,0,0,0,0,0,0,0,0,0,0,0,0,0,0,0,0,0,0,0,0,0,0,0,0,0,0,0,0,0,0,0,0,0,0,0,0,0,0,0,0,0,0],"sum_hessian":[2.0721924E3,1.6300869E3,4.4210547E2,5.6629333E2,1.0637936E3,2.4505028E2,1.9705518E2,2.9801764E2,2.682757E2,8.740772E2,1.8971635E2,1.929339E2,5.2116386E1,1.3343956E2,6.361562E1,8.437558E1,2.1364204E2,2.2035875E2,4.791693E1,3.6963925E2,5.0443796E2,7.509037E1,1.1462599E2,1.644897E2,2.8444195E1,2.6652298E1,2.5464088E1,7.152984E1,6.1909718E1,3.8417664E1,2.5197956E1,4.4091877E1,4.0283703E1,1.751171E2,3.8524952E1,6.680917E1,1.5354958E2,2.3326883E1,2.4590046E1,1.6723236E2,2.024069E2,2.6185147E2,2.4258649E2,4.1521236E1,3.3569134E1,7.07422E1,4.388379E1,1.2513178E2,3.935792E1,2.7167374E1,4.436247E1,2.3208122E1,3.8701595E1],"tree_param":{"num_deleted":"0","num_feature":"23","num_nodes":"53","size_leaf_vector":"1"}},{"base_weights":[-1.1018779E-2,5.1711977E-2,-6.42348E-2,-5.238891E-2,1.5966934E-1,-4.9588192E-2,-3.2924596E-2,2.4785455E-2,-3.9968547E-1,5.594306E-1,8.826704E-2,-1.4135213E-1,7.054186E-2,-2.0082092E-1,4.033708E-1,-6.430787E-1,1.1224285E-2,6.869264E-2,1.6549969E-3,-1.7169732E-1,1.90658E-1,-4.165675E-1,-7.4621536E-2,1.4022435E-1,-3.2493457E-1,-4.4134147E-3,-6.131073E-2,4.5781128E-2,-2.3314083E-2,-0E0,-7.972858E-2,-4.4558335E-2,1.1540909E-3,-1.6646975E-3,4.6735056E-2,5.762541E-3,-6.8755746E-2,-2.4240136E-2,-0E0,4.9175702E-2,5.632149E-3,8.874003E-3,-4.5897506E-2],"categories":[],"categories_nodes":[],"categories_segments":[],"categories_sizes":[],"default_left":[0,0,0,0,0,0,0,0,0,0,0,0,0,0,0,0,0,0,0,0,0,0,0,0,0,0,0,0,0,0,0,0,0,0,0,0,0,0,0,0,0,0,0],"id":14,"left_children":[1,3,5,7,9,-1,11,13,15,17,19,21,23,25,27,29,-1,-1,-1,31,33,35,37,39,41,-1,-1,-1,-1,-1,-1,-1,-1,-1,-1,-1,-1,-1,-1,-1,-1,-1,-1],"loss_changes":[6.9488244E0,1.0724241E1,1.8219088E1,1.3376538E1,1.149815E1,0E0,1.2438777E1,3.2333073E1,1.339776E1,8.180511E0,1.0872771E1,8.613861E0,1.4576848E1,1.6601631E1,1.8339928E1,1.3135313E1,0E0,0E0,0E0,9.326835E0,2.6765366E1,2.3857973E1,7.2713504E0,1.3643135E1,9.80102E0,0E0,0E0,0E0,0E0,0E0,0E0,0E0,0E0,0E0,0E0,0E0,0E0,0E0,0E0,0E0,0E0,0E0,0E0],"parents":[2147483647,0,0,1,1,2,2,3,3,4,4,6,6,7,7,8,8,9,9,10,10,11,11,12,12,13,13,14,14,15,15,19,19,20,20,21,21,22,22,23,23,24,24],"right_children":[2,4,6,8,10,-1,12,14,16,18,20,22,24,26,28,30,-1,-1,-1,32,34,36,38,40,42,-1,-1,-1,-1,-1,-1,-1,-1,-1,-1,-1,-1,-1,-1,-1,-1,-1,-1],"split_conditions":[1.665978E-3,-1.1810946E-2,3.0327628E-3,2.8613324E-3,-9.149272E-3,-4.9588192E-2,2.7500086E-3,-7.3041553E-3,-1.9240115E-2,9.981779E-1,-5.934072E-3,1.0045315E0,2.6720848E-2,-1.8249756E-2,-1.7262887E-2,-1.2851623E-2,1.1224285E-2,6.869264E-2,1.6549969E-3,-8.4302435E-3,1.1034323E-3,9.88411E-1,2.9845746E-2,6.984279E-3,6.6163912E-3,-4.4134147E-3,-6.131073E-2,4.5781128E-2,-2.3314083E-2,-0E0,-7.972858E-2,-4.4558335E-2,1.1540909E-3,-1.6646975E-3,4.6735056E-2,5.762541E-3,-6.8755746E-2,-2.4240136E-2,-0E0,4.9175702E-2,5.632149E-3,8.874003E-3,-4.5897506E-2],"split_indices":[21,21,21,20,21,0,20,20,21,22,21,22,12,21,21,10,0,0,0,11,20,22,16,21,20,0,0,0,0,0,0,0,0,0,0,0,0,0,0,0,0,0,0],"split_type":[0,0,0,0,0,0,0,0,0,0,0,0,0,0,0,0,0,0,0,0,0,0,0,0,0,0,0,0,0,0,0,0,0,0,0,0,0,0,0,0,0,0,0],"sum_hessian":[2.0684756E3,9.253339E2,1.1431416E3,4.5827554E2,4.6705838E2,5.4462E1,1.0886796E3,3.693841E2,8.889143E1,6.3500633E1,4.0355777E2,5.445202E2,5.441594E2,2.272267E2,1.4215741E2,6.469494E1,2.4196497E1,3.669246E1,2.6808174E1,1.0608665E2,2.974711E2,9.676354E1,4.4775665E2,4.6935825E2,7.4801155E1,1.862203E2,4.100639E1,1.1723997E2,2.491744E1,2.591641E1,3.877853E1,3.830037E1,6.778628E1,1.904461E2,1.07024994E2,4.38927E1,5.2870842E1,1.0351061E2,3.4424603E2,5.2888214E1,4.1647003E2,2.3678244E1,5.1122913E1],"tree_param":{"num_deleted":"0","num_feature":"23","num_nodes":"43","size_leaf_vector":"1"}},{"base_weights":[6.897836E-4,9.175817E-3,-3.0147338E-2,-2.063346E-3,3.8383484E-1,6.325081E-3,-4.5464985E-2,6.5492645E-2,3.5767427E-3,3.7485458E-2,-1.2284357E-1,-7.324451E-4,9.987692E-3,-1.6690722E-2,1.6423812E-2],"categories":[],"categories_nodes":[],"categories_segments":[],"categories_sizes":[],"default_left":[0,0,0,0,0,0,0,0,0,0,0,0,0,0,0],"id":15,"left_children":[1,3,-1,5,7,9,-1,-1,-1,11,13,-1,-1,-1,-1],"loss_changes":[5.63572E0,9.604499E0,0E0,1.0979082E1,7.431675E0,7.5397644E0,0E0,0E0,0E0,6.820029E0,1.0387072E1,0E0,0E0,0E0,0E0],"parents":[2147483647,0,0,1,1,3,3,4,4,5,5,9,9,10,10],"right_children":[2,4,-1,6,8,10,-1,-1,-1,12,14,-1,-1,-1,-1],"split_conditions":[4.939319E-2,3.9858785E-2,-3.0147338E-2,3.715674E-2,4.2219844E-2,1.0235151E0,-4.5464985E-2,6.5492645E-2,3.5767427E-3,2.5078687E-1,1.0627596E-2,-7.324451E-4,9.987692E-3,-1.6690722E-2,1.6423812E-2],"split_indices":[21,21,0,21,21,22,0,0,0,15,20,0,0,0,0],"split_type":[0,0,0,0,0,0,0,0,0,0,0,0,0,0,0],"sum_hessian":[2.0631052E3,2.026512E3,3.659311E1,1.9615332E3,6.497877E1,1.929579E3,3.1954224E1,2.3832407E1,4.1146362E1,1.5727042E3,3.5687485E2,1.0087664E3,5.6393774E2,2.8916678E2,6.770807E1],"tree_param":{"num_deleted":"0","num_feature":"23","num_nodes":"15","size_leaf_vector":"1"}},{"base_weights":[6.928343E-4,-2.7450392E-1,1.0049466E-2,-0E0,-3.8122132E-2,7.500007E-2,-3.838333E-2,-2.95934E-2,1.8924227E-1,-5.1462734E-1,-1.1298143E-2,-2.0634423E-1,1.2881167E-1,6.750371E-2,1.282354E-1,-5.925657E-2,-7.32532E-3,-1.5259841E-1,5.044821E-2,-4.9748244E-3,-5.5659182E-2,3.294718E-2,-2.5686175E-2,-1.162539E-2,1.554272E-2,-3.1820831E-3,-4.542076E-2,7.912612E-3,-1.3728327E-2],"categories":[],"categories_nodes":[],"categories_segments":[],"categories_sizes":[],"default_left":[0,0,0,0,0,0,0,0,0,0,0,0,0,0,0,0,0,0,0,0,0,0,0,0,0,0,0,0,0],"id":16,"left_children":[1,3,5,-1,-1,7,9,11,13,15,17,19,21,-1,23,-1,-1,25,27,-1,-1,-1,-1,-1,-1,-1,-1,-1,-1],"loss_changes":[4.5833E0,3.28193E0,6.4229565E0,0E0,0E0,1.1001496E1,1.3058202E1,1.2829966E1,1.4665122E1,2.9599419E0,9.655553E0,1.3533742E1,3.0130987E1,0E0,7.6609073E0,0E0,0E0,1.4326649E1,7.8861017E0,0E0,0E0,0E0,0E0,0E0,0E0,0E0,0E0,0E0,0E0],"parents":[2147483647,0,0,1,1,2,2,5,5,6,6,7,7,8,8,9,9,10,10,11,11,12,12,14,14,17,17,18,18],"right_children":[2,4,6,-1,-1,8,10,12,14,16,18,20,22,-1,24,-1,-1,26,28,-1,-1,-1,-1,-1,-1,-1,-1,-1,-1],"split_conditions":[-4.989012E-2,-6.8578675E-2,1.665978E-3,-0E0,-3.8122132E-2,-1.07328845E-2,3.0327628E-3,-7.3041553E-3,-9.730671E-3,2.2959647E-1,-1.870928E-5,-1.8249756E-2,3.2094833E-3,6.750371E-2,1.920633E-2,-5.925657E-2,-7.32532E-3,-1.1608372E-3,2.442466E-1,-4.9748244E-3,-5.5659182E-2,3.294718E-2,-2.5686175E-2,-1.162539E-2,1.554272E-2,-3.1820831E-3,-4.542076E-2,7.912612E-3,-1.3728327E-2],"split_indices":[10,1,21,0,0,21,21,20,21,15,20,21,20,0,8,0,0,20,14,0,0,0,0,0,0,0,0,0,0],"split_type":[0,0,0,0,0,0,0,0,0,0,0,0,0,0,0,0,0,0,0,0,0,0,0,0,0,0,0,0,0],"sum_hessian":[2.0636526E3,5.6832478E1,2.0068201E3,2.4909664E1,3.1922813E1,8.815181E2,1.1253019E3,4.4795844E2,4.3355966E2,5.374176E1,1.0715602E3,2.1985115E2,2.2810727E2,3.1334743E1,4.022249E2,2.978696E1,2.3954802E1,3.3900623E2,7.3255396E2,1.7588577E2,4.3965385E1,1.4355739E2,8.454989E1,7.093084E1,3.312941E2,2.7368677E2,6.531946E1,6.111123E2,1.21441635E2],"tree_param":{"num_deleted":"0","num_feature":"23","num_nodes":"29","size_leaf_vector":"1"}},{"base_weights":[-6.8565053E-3,4.3726973E-2,-5.5075366E-2,6.129244E-2,-2.760481E-2,-1.3371047E-1,7.098268E-2,-2.0588819E-2,1.5689956E-1,-0E0,-2.652731E-1,4.3811932E-2,2.8422851E-2,1.0182001E-1,-1.0129436E-1,2.7497056E-1,-0E0,-4.779658E-2,5.323304E-2,1.5811268E-2,-3.0856532E-1,1.8060485E-1,-1.09761834E-1,2.2287631E-2,-1.0913483E-2,-2.0245023E-2,4.30265E-3,2.8147645E-2,-0E0,-1.9196743E-2,9.9688545E-3,-1.2400189E-3,2.091741E-2,-5.9701502E-2,-1.6980728E-2,2.6944319E-2,-4.3099495E-3,-4.6147786E-2,-1.7345363E-3],"categories":[],"categories_nodes":[],"categories_segments":[],"categories_sizes":[],"default_left":[0,0,0,0,0,0,0,0,0,0,0,0,0,0,0,0,0,0,0,0,0,0,0,0,0,0,0,0,0,0,0,0,0,0,0,0,0,0,0],"id":17,"left_children":[1,3,5,7,-1,9,11,13,15,17,19,-1,21,23,25,27,29,-1,31,-1,33,35,37,-1,-1,-1,-1,-1,-1,-1,-1,-1,-1,-1,-1,-1,-1,-1,-1],"loss_changes":[5.0543923E0,5.9459887E0,1.091701E1,7.7654266E0,0E0,1.2288397E1,6.6100707E0,4.8857837E0,7.668453E0,1.0109489E1,7.373972E0,0E0,8.151615E0,8.282238E0,8.027687E0,5.501833E0,5.942853E0,0E0,5.187879E0,0E0,1.0695057E1,7.88727E0,6.1276426E0,0E0,0E0,0E0,0E0,0E0,0E0,0E0,0E0,0E0,0E0,0E0,0E0,0E0,0E0,0E0,0E0],"parents":[2147483647,0,0,1,1,2,2,3,3,5,5,6,6,7,7,8,8,9,9,10,10,12,12,13,13,14,14,15,15,16,16,18,18,20,20,21,21,22,22],"right_children":[2,4,6,8,-1,10,12,14,16,18,20,-1,22,24,26,28,30,-1,32,-1,34,36,38,-1,-1,-1,-1,-1,-1,-1,-1,-1,-1,-1,-1,-1,-1,-1,-1],"split_conditions":[-1.9977202E-4,7.159023E1,2.7500086E-3,4.6428333E1,-2.760481E-2,-3.0702723E-3,3.3771943E-3,-1.0088283E-2,7.5303745E-1,-3.730503E-2,9.853167E-1,4.3811932E-2,9.862621E-5,2.1774357E-3,1.817431E-1,1.5871497E-2,1.360179E-1,-4.779658E-2,2.7275315E-1,1.5811268E-2,1.0037898E0,1.0198652E0,4.2768195E-1,2.2287631E-2,-1.0913483E-2,-2.0245023E-2,4.30265E-3,2.8147645E-2,-0E0,-1.9196743E-2,9.9688545E-3,-1.2400189E-3,2.091741E-2,-5.9701502E-2,-1.6980728E-2,2.6944319E-2,-4.3099495E-3,-4.6147786E-2,-1.7345363E-3],"split_indices":[11,13,20,6,0,20,20,12,7,10,22,0,12,20,15,21,15,0,15,0,22,22,7,0,0,0,0,0,0,0,0,0,0,0,0,0,0,0,0],"split_type":[0,0,0,0,0,0,0,0,0,0,0,0,0,0,0,0,0,0,0,0,0,0,0,0,0,0,0,0,0,0,0,0,0,0,0,0,0,0,0],"sum_hessian":[2.0566697E3,9.755604E2,1.0811094E3,9.415409E2,3.4019478E1,6.793632E2,4.0174612E2,4.9202133E2,4.495196E2,3.331152E2,3.4624802E2,2.6060225E1,3.756859E2,1.8163449E2,3.1038684E2,2.4689554E2,2.0262405E2,2.415256E1,3.0896265E2,2.3628193E1,3.226198E2,1.8819934E2,1.8748656E2,1.1046629E2,7.11682E1,1.6468394E2,1.4570288E2,1.917559E2,5.5139633E1,6.2076347E1,1.4054771E2,2.2366563E2,8.5297E1,4.9978703E1,2.726411E2,1.1902772E2,6.917163E1,2.3320429E1,1.6416614E2],"tree_param":{"num_deleted":"0","num_feature":"23","num_nodes":"39","size_leaf_vector":"1"}},{"base_weights":[-1.7092676E-3,3.726723E-2,-8.950288E-3,-2.78827E-1,2.121324E-3,-1.2519607E-2,-5.4491904E-2,3.3827224E-1,-1.0184449E-2,-2.8168052E-2,2.5540715E-2,-0E0,5.1855713E-1,-3.7733402E-2,-0E0,6.011355E-2,7.3711067E-3,4.3519232E-2,-5.701244E-4],"categories":[],"categories_nodes":[],"categories_segments":[],"categories_sizes":[],"default_left":[0,0,0,0,0,0,0,0,0,0,0,0,0,0,0,0,0,0,0],"id":18,"left_children":[1,-1,3,5,7,9,-1,11,13,-1,-1,-1,15,-1,17,-1,-1,-1,-1],"loss_changes":[5.767422E0,0E0,6.8716316E0,7.84859E0,8.9949E0,7.121757E0,0E0,5.5532684E0,9.221234E0,0E0,0E0,0E0,2.9629393E0,0E0,7.6115746E0,0E0,0E0,0E0,0E0],"parents":[2147483647,0,0,2,2,3,3,4,4,5,5,7,7,8,8,12,12,14,14],"right_children":[2,-1,4,6,8,10,-1,12,14,-1,-1,-1,16,-1,18,-1,-1,-1,-1],"split_conditions":[9.3790895E-1,3.726723E-2,-3.5675827E-2,-3.986833E-2,-2.8416172E-2,9.561248E-1,-5.4491904E-2,-6.518936E-2,-2.5538383E-2,-2.8168052E-2,2.5540715E-2,-0E0,9.732973E-1,-3.7733402E-2,-2.3478968E-2,6.011355E-2,7.3711067E-3,4.3519232E-2,-5.701244E-4],"split_indices":[22,0,21,21,21,22,0,18,21,0,0,0,22,0,21,0,0,0,0],"split_type":[0,0,0,0,0,0,0,0,0,0,0,0,0,0,0,0,0,0,0],"sum_hessian":[2.0641016E3,2.4145765E1,2.0399558E3,8.9063576E1,1.9508923E3,5.8822605E1,3.0240967E1,7.566909E1,1.8752231E3,3.3143166E1,2.5679441E1,2.3572159E1,5.209693E1,4.0369137E1,1.834854E3,2.8531332E1,2.3565601E1,2.3706556E1,1.8111475E3],"tree_param":{"num_deleted":"0","num_feature":"23","num_nodes":"19","size_leaf_vector":"1"}},{"base_weights":[-7.2259974E-4,-3.1467345E-2,2.8279265E-3,2.0585877E-1,-8.524351E-3,4.8124185E-1,-0E0,5.8454182E-2,-4.558518E-2,5.9128567E-3,5.9599284E-2,-1.3702134E-2,1.7885333E-2,1.8364546E-1,-6.008134E-2,-1.6315828E-1,-6.010534E-3,2.9424878E-3,3.080723E-2,2.469538E-2,-1.0813477E-2,-4.763887E-3,-4.436575E-2,1.2889131E-2,-6.096525E-3],"categories":[],"categories_nodes":[],"categories_segments":[],"categories_sizes":[],"default_left":[0,0,0,0,0,0,0,0,0,0,0,0,0,0,0,0,0,0,0,0,0,0,0,0,0],"id":19,"left_children":[1,-1,3,5,7,9,11,13,15,-1,-1,-1,-1,17,19,21,23,-1,-1,-1,-1,-1,-1,-1,-1],"loss_changes":[3.9855719E0,0E0,5.2339783E0,6.1691036E0,4.713237E0,2.9641151E0,2.9710736E0,1.0075934E1,5.3818355E0,0E0,0E0,0E0,0E0,8.68933E0,8.77499E0,1.0437304E1,1.1224017E1,0E0,0E0,0E0,0E0,0E0,0E0,0E0,0E0],"parents":[2147483647,0,0,2,2,3,3,4,4,5,5,6,6,7,7,8,8,13,13,14,14,15,15,16,16],"right_children":[2,-1,4,6,8,10,12,14,16,-1,-1,-1,-1,18,20,22,24,-1,-1,-1,-1,-1,-1,-1,-1],"split_conditions":[-6.647449E-2,-3.1467345E-2,-3.268394E-2,-5.476358E-2,2.3713157E-2,9.672706E-1,9.953632E-3,5.838457E1,-1.1810946E-2,5.9128567E-3,5.9599284E-2,-1.3702134E-2,1.7885333E-2,1.7203682E-3,-6.115693E-3,2.8613324E-3,1.665978E-3,2.9424878E-3,3.080723E-2,2.469538E-2,-1.0813477E-2,-4.763887E-3,-4.436575E-2,1.2889131E-2,-6.096525E-3],"split_indices":[12,0,12,1,8,2,11,4,21,0,0,0,0,20,10,20,21,0,0,0,0,0,0,0,0],"split_type":[0,0,0,0,0,0,0,0,0,0,0,0,0,0,0,0,0,0,0,0,0,0,0,0,0],"sum_hessian":[2.0537427E3,2.395948E1,2.0297832E3,1.1929849E2,1.9104847E3,4.739361E1,7.1904884E1,6.5347876E2,1.257006E3,2.3677113E1,2.3716496E1,3.7396713E1,3.4508175E1,3.2890683E2,3.245719E2,2.977748E2,9.592312E2,2.0039069E2,1.2851614E2,4.8316223E1,2.7625568E2,2.4298647E2,5.478834E1,2.7174747E2,6.8748376E2],"tree_param":{"num_deleted":"0","num_feature":"23","num_nodes":"25","size_leaf_vector":"1"}},{"base_weights":[-0E0,3.678307E-2,-7.176378E-3,-2.634889E-2,-0E0,7.6738736E-3,-3.129836E-2,-3.584729E-3,3.701015E-1,2.9153944E-4,-4.101519E-2,6.351694E-2,3.6366547E-3],"categories":[],"categories_nodes":[],"categories_segments":[],"categories_sizes":[],"default_left":[0,0,0,0,0,0,0,0,0,0,0,0,0],"id":20,"left_children":[1,-1,3,-1,5,7,-1,9,11,-1,-1,-1,-1],"loss_changes":[5.6564784E0,0E0,5.033835E0,0E0,5.6845455E0,9.002497E0,0E0,8.470415E0,6.849348E0,0E0,0E0,0E0,0E0],"parents":[2147483647,0,0,2,2,4,4,5,5,7,7,8,8],"right_children":[2,-1,4,-1,6,8,-1,10,12,-1,-1,-1,-1],"split_conditions":[9.3790895E-1,3.678307E-2,-5.2517895E-2,-2.634889E-2,4.939319E-2,3.9858785E-2,-3.129836E-2,3.715674E-2,4.2219844E-2,2.9153944E-4,-4.101519E-2,6.351694E-2,3.6366547E-3],"split_indices":[22,0,10,0,21,21,0,21,21,0,0,0,0],"split_type":[0,0,0,0,0,0,0,0,0,0,0,0,0],"sum_hessian":[2.058456E3,2.4548954E1,2.0339072E3,4.5338623E1,1.9885686E3,1.9540469E3,3.452174E1,1.8889741E3,6.507277E1,1.858554E3,3.0420094E1,2.345296E1,4.1619812E1],"tree_param":{"num_deleted":"0","num_feature":"23","num_nodes":"13","size_leaf_vector":"1"}},{"base_weights":[9.804097E-4,8.967397E-3,-2.825244E-2,-4.34271E-4,3.328171E-1,1.1827404E-2,-2.8011027E-1,-1.2127116E-3,4.8391975E-2,-2.3920562E-3,1.9497009E-1,-5.0946623E-1,1.9298127E-2,1.27827E-3,-3.6490556E-2,3.1711046E-2,-2.0712916E-2,-5.8881827E-2,-1.4115847E-2],"categories":[],"categories_nodes":[],"categories_segments":[],"categories_sizes":[],"default_left":[0,0,0,0,0,0,0,0,0,0,0,0,0,0,0,0,0,0,0],"id":21,"left_children":[1,3,-1,5,7,9,11,-1,-1,13,15,17,-1,-1,-1,-1,-1,-1,-1],"loss_changes":[4.9098635E0,7.090951E0,0E0,7.4748564E0,7.9768257E0,5.4065657E0,1.1937824E1,0E0,0E0,1.5807963E1,1.4396462E1,2.5032196E0,0E0,0E0,0E0,0E0,0E0,0E0,0E0],"parents":[2147483647,0,0,1,1,3,3,4,4,5,5,6,6,9,9,10,10,11,11],"right_children":[2,4,-1,6,8,10,12,-1,-1,14,16,18,-1,-1,-1,-1,-1,-1,-1],"split_conditions":[4.939319E-2,3.9858785E-2,-2.825244E-2,3.0735748E-2,2.4936315E-1,2.2517271E-2,1.7296232E-2,-1.2127116E-3,4.8391975E-2,1.9324202E-2,6.4442135E-2,3.8157282E-3,1.9298127E-2,1.27827E-3,-3.6490556E-2,3.1711046E-2,-2.0712916E-2,-5.8881827E-2,-1.4115847E-2],"split_indices":[21,21,0,21,5,21,10,0,0,21,1,20,0,0,0,0,0,0,0],"split_type":[0,0,0,0,0,0,0,0,0,0,0,0,0,0,0,0,0,0,0],"sum_hessian":[2.0593247E3,2.0231375E3,3.6187294E1,1.9589685E3,6.416893E1,1.8683438E3,9.062473E1,2.4506062E1,3.966287E1,1.7208087E3,1.4753506E2,6.673396E1,2.3890774E1,1.649273E3,7.1535706E1,1.06189224E2,4.1345837E1,3.335245E1,3.3381508E1],"tree_param":{"num_deleted":"0","num_feature":"23","num_nodes":"19","size_leaf_vector":"1"}},{"base_weights":[-0E0,-3.1556938E-2,4.2547765E-3,6.506132E-2,-2.942776E-2,3.4779522E-1,-0E0,-4.5120824E-2,-5.770874E-3,-0E0,5.2592283E-1,-3.886261E-2,3.5609595E-2,-2.0521745E-1,2.2187175E-2,-1.5325876E-2,1.1451868E-2,5.1030446E-2,2.667743E-3,-6.391189E-3,2.8112585E-2,-1.9430723E-3,-4.498912E-2,1.4086237E-2,-2.8897733E-3],"categories":[],"categories_nodes":[],"categories_segments":[],"categories_sizes":[],"default_left":[0,0,0,0,0,0,0,0,0,0,0,0,0,0,0,0,0,0,0,0,0,0,0,0,0],"id":22,"left_children":[1,-1,3,5,7,9,11,-1,13,15,17,19,-1,21,23,-1,-1,-1,-1,-1,-1,-1,-1,-1,-1],"loss_changes":[4.1122255E0,0E0,4.285705E0,1.4296099E1,1.4789343E1,9.578243E0,1.0324691E1,0E0,7.420628E0,1.4331725E0,3.7181644E0,8.5842905E0,0E0,9.087843E0,1.0177586E1,0E0,0E0,0E0,0E0,0E0,0E0,0E0,0E0,0E0,0E0],"parents":[2147483647,0,0,2,2,3,3,4,4,5,5,6,6,8,8,9,9,10,10,11,11,13,13,14,14],"right_children":[2,-1,4,6,8,10,12,-1,14,16,18,20,-1,22,24,-1,-1,-1,-1,-1,-1,-1,-1,-1,-1],"split_conditions":[-6.647449E-2,-3.1556938E-2,-4.2870957E-3,-1.627868E-2,-3.234938E-3,-4.2801313E-3,3.934595E-1,-4.5120824E-2,9.801694E-1,-1.8893091E-2,5.252034E1,-5.6776456E-3,3.5609595E-2,9.732973E-1,1.1565721E-3,-1.5325876E-2,1.1451868E-2,5.1030446E-2,2.667743E-3,-6.391189E-3,2.8112585E-2,-1.9430723E-3,-4.498912E-2,1.4086237E-2,-2.8897733E-3],"split_indices":[12,0,12,10,12,20,16,0,22,12,4,12,0,22,21,0,0,0,0,0,0,0,0,0,0],"split_type":[0,0,0,0,0,0,0,0,0,0,0,0,0,0,0,0,0,0,0,0,0,0,0,0,0],"sum_hessian":[2.0659302E3,2.4479773E1,2.0414504E3,7.567913E2,1.284659E3,1.4340248E2,6.1338885E2,4.779363E1,1.2368655E3,4.679944E1,9.660305E1,5.6765326E2,4.573557E1,1.6330331E2,1.0735621E3,2.3278742E1,2.3520697E1,7.317153E1,2.343152E1,5.2062744E2,4.702583E1,1.14944016E2,4.835931E1,3.0645602E2,7.6710614E2],"tree_param":{"num_deleted":"0","num_feature":"23","num_nodes":"25","size_leaf_vector":"1"}},{"base_weights":[-7.945402E-3,-2.7724767E-1,-0E0,-0E0,-3.452881E-2,5.6809958E-2,-3.4024302E-2,1.0016304E-1,-1.3701613E-1,-2.25358E-1,4.520273E-3,7.161237E-2,5.200989E-2,4.3993305E-2,-3.9168817E-1,-3.771417E-1,-0E0,1.3857725E-1,-4.6166014E-2,-2.3877135E-2,7.708716E-3,-2.0759772E-3,1.7612876E-2,-0E0,-4.6114564E-2,-4.5029778E-2,-5.2740537E-3,-1.3132612E-2,1.0054843E-2,-7.427935E-3,1.979876E-2,-2.187326E-2,-0E0],"categories":[],"categories_nodes":[],"categories_segments":[],"categories_sizes":[],"default_left":[0,0,0,0,0,0,0,0,0,0,0,0,0,0,0,0,0,0,0,0,0,0,0,0,0,0,0,0,0,0,0,0,0],"id":23,"left_children":[1,3,5,-1,-1,7,9,11,13,15,17,19,-1,21,23,25,27,29,31,-1,-1,-1,-1,-1,-1,-1,-1,-1,-1,-1,-1,-1,-1],"loss_changes":[4.298425E0,1.6583571E0,3.871579E0,0E0,0E0,6.19662E0,9.912191E0,7.7889276E0,6.7744455E0,8.11661E0,7.320465E0,5.1560974E0,0E0,1.4029009E0,3.0139503E0,6.265051E0,1.8212798E0,8.188342E0,7.497351E0,0E0,0E0,0E0,0E0,0E0,0E0,0E0,0E0,0E0,0E0,0E0,0E0,0E0,0E0],"parents":[2147483647,0,0,1,1,2,2,5,5,6,6,7,7,8,8,9,9,10,10,11,11,13,13,14,14,15,15,16,16,17,17,18,18],"right_children":[2,4,6,-1,-1,8,10,12,14,16,18,20,-1,22,24,26,28,30,32,-1,-1,-1,-1,-1,-1,-1,-1,-1,-1,-1,-1,-1,-1],"split_conditions":[5.420484E-1,-7.4487587E-4,-4.472432E-3,-0E0,-3.452881E-2,6.2596107E1,2.5531803E1,8.8284546E-1,1.0198652E0,2.0790178E-1,1.1565721E-3,-6.0600165E-2,5.200989E-2,8.7964584E1,3.825046E-3,1.0870757E-2,-1.4724067E-2,-1.2747002E-2,1.0055331E0,-2.3877135E-2,7.708716E-3,-2.0759772E-3,1.7612876E-2,-0E0,-4.6114564E-2,-4.5029778E-2,-5.2740537E-3,-1.3132612E-2,1.0054843E-2,-7.427935E-3,1.979876E-2,-2.187326E-2,-0E0],"split_indices":[9,11,12,0,0,4,6,7,22,15,21,12,0,6,11,12,11,21,22,0,0,0,0,0,0,0,0,0,0,0,0,0,0],"split_type":[0,0,0,0,0,0,0,0,0,0,0,0,0,0,0,0,0,0,0,0,0,0,0,0,0,0,0,0,0,0,0,0,0],"sum_hessian":[2.0615547E3,5.630091E1,2.0052538E3,2.5434471E1,3.0866442E1,7.462023E2,1.2590515E3,6.2208276E2,1.2411951E2,2.2217252E2,1.036879E3,5.9783386E2,2.4248877E1,6.678755E1,5.7331955E1,1.3554765E2,8.662487E1,2.989477E2,7.3793134E2,3.0376715E1,5.6745715E2,3.745734E1,2.9330212E1,2.3044376E1,3.428758E1,7.7864006E1,5.7683643E1,3.3102966E1,5.3521908E1,8.852371E1,2.10424E2,1.18214584E2,6.1971674E2],"tree_param":{"num_deleted":"0","num_feature":"23","num_nodes":"33","size_leaf_vector":"1"}},{"base_weights":[3.584145E-3,1.22853955E-2,-2.7499148E-1,-0E0,4.7108388E-1,-0E0,-4.9049057E-2,9.257912E-3,-3.0233765E-2,5.9373073E-2,4.530848E-3,3.4514096E-2,-9.0760656E-2,9.321674E-3,-6.159469E-4,-1.1696203E-2,1.6313137E-2],"categories":[],"categories_nodes":[],"categories_segments":[],"categories_sizes":[],"default_left":[0,0,0,0,0,0,0,0,0,0,0,0,0,0,0,0,0],"id":24,"left_children":[1,3,5,7,9,-1,-1,11,-1,-1,-1,13,15,-1,-1,-1,-1],"loss_changes":[4.274161E0,1.0489278E1,6.528688E0,6.25958E0,3.272129E0,0E0,0E0,4.7077456E0,0E0,0E0,0E0,5.771691E0,6.010441E0,0E0,0E0,0E0,0E0],"parents":[2147483647,0,0,1,1,2,2,3,3,4,4,7,7,11,11,12,12],"right_children":[2,4,6,8,10,-1,-1,12,-1,-1,-1,14,16,-1,-1,-1,-1],"split_conditions":[4.6584498E-2,3.9858785E-2,9.592378E-3,3.5659254E-2,4.2219844E-2,-0E0,-4.9049057E-2,1.0232576E0,-3.0233765E-2,5.9373073E-2,4.530848E-3,2.4287643E-2,1.2542514E-2,9.321674E-3,-6.159469E-4,-1.1696203E-2,1.6313137E-2],"split_indices":[21,21,20,21,21,0,0,22,0,0,0,8,20,0,0,0,0],"split_type":[0,0,0,0,0,0,0,0,0,0,0,0,0,0,0,0,0],"sum_hessian":[2.0623713E3,2.0108297E3,5.154173E1,1.9635093E3,4.7320393E1,2.5279224E1,2.6262505E1,1.9227974E3,4.071191E1,2.368938E1,2.3631014E1,1.5580957E3,3.6470175E2,5.4768176E2,1.0104139E3,3.1469043E2,5.0011314E1],"tree_param":{"num_deleted":"0","num_feature":"23","num_nodes":"17","size_leaf_vector":"1"}},{"base_weights":[-3.1888522E-3,3.216618E-3,-2.1618871E-1,-5.516839E-3,2.232986E-1,-2.64527E-2,-0E0,-5.492694E-2,4.7070503E-2,3.28698E-2,-0E0,1.3420573E-1,-1.1946458E-1,-4.3297064E-1,8.9017496E-2,-1.2092858E-2,2.0735485E-2,-8.907148E-3,4.0071413E-2,-5.0167434E-2,-4.736012E-3,-0E0,-6.638962E-2,4.7064215E-2,4.305432E-3],"categories":[],"categories_nodes":[],"categories_segments":[],"categories_sizes":[],"default_left":[0,0,0,0,0,0,0,0,0,0,0,0,0,0,0,0,0,0,0,0,0,0,0,0,0],"id":25,"left_children":[1,3,5,7,9,-1,-1,11,13,-1,15,17,19,21,23,-1,-1,-1,-1,-1,-1,-1,-1,-1,-1],"loss_changes":[3.4022124E0,4.426516E0,1.7369206E0,4.960799E0,2.6302118E0,0E0,0E0,1.2274852E1,1.708373E1,0E0,2.2715201E0,2.361787E1,2.1397812E1,1.2360357E1,1.2667286E1,0E0,0E0,0E0,0E0,0E0,0E0,0E0,0E0,0E0,0E0],"parents":[2147483647,0,0,1,1,2,2,3,3,4,4,7,7,8,8,10,10,11,11,12,12,13,13,14,14],"right_children":[2,4,6,8,10,-1,-1,12,14,-1,16,18,20,22,24,-1,-1,-1,-1,-1,-1,-1,-1,-1,-1],"split_conditions":[1.8873029E0,1.5202558E0,2.524361E-1,1.2230999E-3,-3.0702723E-3,-2.64527E-2,-0E0,-1.8249756E-2,-1.9240115E-2,3.28698E-2,1.0209717E0,-8.257137E-3,-1.07328845E-2,-1.0416636E-2,-9.149272E-3,-1.2092858E-2,2.0735485E-2,-8.907148E-3,4.0071413E-2,-5.0167434E-2,-4.736012E-3,-0E0,-6.638962E-2,4.7064215E-2,4.305432E-3],"split_indices":[9,9,16,20,20,0,0,21,21,0,2,20,21,10,21,0,0,0,0,0,0,0,0,0,0],"split_type":[0,0,0,0,0,0,0,0,0,0,0,0,0,0,0,0,0,0,0,0,0,0,0,0,0],"sum_hessian":[2.0563625E3,1.9848748E3,7.148784E1,1.8981613E3,8.671346E1,4.4980904E1,2.6506937E1,1.00595374E3,8.922075E2,3.9636723E1,4.7076744E1,2.4457652E2,7.613772E2,6.53713E1,8.2683624E2,2.3546724E1,2.3530018E1,1.4292305E2,1.0165348E2,7.339277E1,6.8798444E2,3.1132204E1,3.4239094E1,4.68672E1,7.7996906E2],"tree_param":{"num_deleted":"0","num_feature":"23","num_nodes":"25","size_leaf_vector":"1"}},{"base_weights":[-0E0,-8.381833E-2,2.5177414E-2,4.7505803E-2,-2.458723E-1,1.8064769E-1,-4.86821E-3,-3.178049E-2,2.69374E-1,1.0275466E-2,-3.1527823E-1,3.1887066E-1,-9.126828E-2,-8.289635E-2,9.940781E-2,1.5030158E-1,-3.059934E-1,2.3381857E-3,4.080304E-2,-0E0,-3.7823337E-1,5.164892E-1,9.012398E-2,-3.2587055E-2,9.4051905E-2,4.8833426E-2,-1.7074038E-1,6.0496684E-2,5.5629097E-2,3.0262148E-2,-1.3829126E-3,-4.090934E-2,-0E0,-0E0,-3.5261914E-2,5.1194772E-2,8.098775E-4,-1.7484903E-2,2.262902E-2,-0E0,2.3298869E-2,-2.3423092E-2,1.125965E-2,-4.0272627E-2,-7.1929204E-3,1.2371428E-2,-8.658269E-3],"categories":[],"categories_nodes":[],"categories_segments":[],"categories_sizes":[],"default_left":[0,0,0,0,0,0,0,0,0,0,0,0,0,0,0,0,0,0,0,0,0,0,0,0,0,0,0,0,0,0,0,0,0,0,0,0,0,0,0,0,0,0,0,0,0,0,0],"id":26,"left_children":[1,3,5,7,9,11,13,15,17,-1,19,21,23,25,27,29,31,-1,-1,-1,33,35,37,-1,39,41,43,-1,45,-1,-1,-1,-1,-1,-1,-1,-1,-1,-1,-1,-1,-1,-1,-1,-1,-1,-1],"loss_changes":[4.365525E0,1.0765053E1,7.8560367E0,5.181543E0,6.4115057E0,1.0836319E1,1.0603414E1,9.516977E0,2.9749894E0,0E0,4.6706333E0,6.672039E0,5.9819927E0,9.190529E0,1.3471521E1,5.0255566E0,6.4456244E0,0E0,0E0,0E0,4.6047726E0,4.218998E0,5.980365E0,0E0,1.7370279E0,9.02659E0,1.0982499E1,0E0,8.676119E0,0E0,0E0,0E0,0E0,0E0,0E0,0E0,0E0,0E0,0E0,0E0,0E0,0E0,0E0,0E0,0E0,0E0,0E0],"parents":[2147483647,0,0,1,1,2,2,3,3,4,4,5,5,6,6,7,7,8,8,10,10,11,11,12,12,13,13,14,14,15,15,16,16,20,20,21,21,22,22,24,24,25,25,26,26,28,28],"right_children":[2,4,6,8,10,12,14,16,18,-1,20,22,24,26,28,30,32,-1,-1,-1,34,36,38,-1,40,42,44,-1,46,-1,-1,-1,-1,-1,-1,-1,-1,-1,-1,-1,-1,-1,-1,-1,-1,-1,-1],"split_conditions":[2.5531803E1,-4.2310372E-2,-1.34538645E-2,2.4276222E-1,3.4769543E1,2.0502958E-2,2.7500086E-3,-9.834363E-3,9.711134E-1,1.0275466E-2,-2.6394667E-2,1.0100725E0,4.917861E-3,-3.7730094E-3,3.2094833E-3,4.053007E-2,9.467949E-3,2.3381857E-3,4.080304E-2,-0E0,-1.974277E0,2.828436E-1,3.5922162E-3,-3.2587055E-2,2.1007837E-1,-1.0088283E-2,1.0037898E0,6.0496684E-2,6.501257E-1,3.0262148E-2,-1.3829126E-3,-4.090934E-2,-0E0,-0E0,-3.5261914E-2,5.1194772E-2,8.098775E-4,-1.7484903E-2,2.262902E-2,-0E0,2.3298869E-2,-2.3423092E-2,1.125965E-2,-4.0272627E-2,-7.1929204E-3,1.2371428E-2,-8.658269E-3],"split_indices":[6,1,11,15,4,0,20,12,3,0,21,22,1,20,20,8,12,0,0,0,5,15,21,0,15,12,22,0,5,0,0,0,0,0,0,0,0,0,0,0,0,0,0,0,0,0,0],"split_type":[0,0,0,0,0,0,0,0,0,0,0,0,0,0,0,0,0,0,0,0,0,0,0,0,0,0,0,0,0,0,0,0,0,0,0,0,0,0,0,0,0,0,0,0,0,0,0],"sum_hessian":[2.0531184E3,4.7781122E2,1.5753073E3,2.5493794E2,2.2287328E2,2.6909665E2,1.3062106E3,1.7938931E2,7.554864E1,2.8336351E1,1.9453693E2,1.8505556E2,8.4041084E1,7.6258856E2,5.436221E2,1.020506E2,7.7338715E1,4.4635464E1,3.091317E1,2.7123133E1,1.6741379E2,9.185597E1,9.3199585E1,3.5811348E1,4.822974E1,2.9261954E2,4.69969E2,2.8408176E1,5.1521387E2,4.9233162E1,5.2817436E1,5.069782E1,2.6640894E1,2.3022966E1,1.4439082E2,6.85985E1,2.325747E1,3.0366817E1,6.283277E1,2.4285883E1,2.3943855E1,5.5296886E1,2.3732266E2,8.2353355E1,3.8761563E2,3.3089465E2,1.8431923E2],"tree_param":{"num_deleted":"0","num_feature":"23","num_nodes":"47","size_leaf_vector":"1"}},{"base_weights":[-4.098124E-3,8.66352E-3,-1.3804673E-1,1.7688422E-2,-3.0183148E-2,6.4048216E-2,-2.4223807E-1,1.2824105E-3,3.7374783E-1,2.6405085E-2,-1.5300427E-2,-0E0,-3.7121856E-1,8.0385335E-2,-4.7546837E-2,-0E0,5.3628463E-2,-1.6669288E-2,8.5301455E-3,-5.104356E-1,-9.965344E-4,8.621168E-3,-3.0334895E-2,-3.811691E-2,-2.1219375E-3,-6.6185504E-2,-6.010954E-3],"categories":[],"categories_nodes":[],"categories_segments":[],"categories_sizes":[],"default_left":[0,0,0,0,0,0,0,0,0,0,0,0,0,0,0,0,0,0,0,0,0,0,0,0,0,0,0],"id":27,"left_children":[1,3,5,7,-1,9,11,13,15,-1,-1,17,19,21,23,-1,-1,-1,-1,25,-1,-1,-1,-1,-1,-1,-1],"loss_changes":[3.8799353E0,5.528804E0,4.688182E0,9.626397E0,0E0,4.5644135E0,3.529807E0,6.8768525E0,6.7583866E0,0E0,0E0,1.5297195E0,2.790595E0,8.321984E0,8.155708E0,0E0,0E0,0E0,0E0,5.220068E0,0E0,0E0,0E0,0E0,0E0,0E0,0E0],"parents":[2147483647,0,0,1,1,2,2,3,3,5,5,6,6,7,7,8,8,11,11,12,12,13,13,14,14,19,19],"right_children":[2,4,6,8,-1,10,12,14,16,-1,-1,18,20,22,24,-1,-1,-1,-1,26,-1,-1,-1,-1,-1,-1,-1],"split_conditions":[1.0317551E0,4.6584498E-2,-3.3831656E-2,1.028684E0,-3.0183148E-2,9.044042E1,2.7510071E-2,-4.2870957E-3,6.642749E-3,2.6405085E-2,-1.5300427E-2,1.0361662E0,1.0627596E-2,1.5226778E0,-3.234938E-3,-0E0,5.3628463E-2,-1.6669288E-2,8.5301455E-3,9.923349E-3,-9.965344E-4,8.621168E-3,-3.0334895E-2,-3.811691E-2,-2.1219375E-3,-6.6185504E-2,-6.010954E-3],"split_indices":[22,21,19,22,0,6,8,12,12,0,0,22,20,5,12,0,0,0,0,12,0,0,0,0,0,0,0],"split_type":[0,0,0,0,0,0,0,0,0,0,0,0,0,0,0,0,0,0,0,0,0,0,0,0,0,0,0],"sum_hessian":[2.056464E3,1.8596969E3,1.9676709E2,1.8257477E3,3.3949287E1,5.8003433E1,1.3876366E2,1.7540762E3,7.167141E1,3.3470287E1,2.4533146E1,5.4815094E1,8.394856E1,6.909699E2,1.0631063E3,3.5830063E1,3.5841347E1,2.5317408E1,2.9497686E1,5.4473717E1,2.9474848E1,6.5788324E2,3.308667E1,4.13364E1,1.0217699E3,2.687303E1,2.7600687E1],"tree_param":{"num_deleted":"0","num_feature":"23","num_nodes":"27","size_leaf_vector":"1"}},{"base_weights":[-7.8822905E-3,-0E0,-2.276259E-1,-9.385832E-3,2.0605797E-1,-3.62114E-1,-0E0,-1.03408806E-1,1.3351345E-2,4.0073544E-2,4.0406067E-2,-0E0,-5.126239E-2,6.419514E-2,-1.7872573E-1,8.044823E-2,-3.462452E-2,2.0075157E-2,-9.342738E-3,2.5924325E-2,-1.1903066E-2,-0E0,-2.3596436E-2,1.7625306E-2,-2.1599335E-4,-3.5192423E-2,-5.7575887E-4],"categories":[],"categories_nodes":[],"categories_segments":[],"categories_sizes":[],"default_left":[0,0,0,0,0,0,0,0,0,0,0,0,0,0,0,0,0,0,0,0,0,0,0,0,0,0,0],"id":28,"left_children":[1,3,5,7,9,11,-1,13,15,17,-1,-1,-1,19,21,23,25,-1,-1,-1,-1,-1,-1,-1,-1,-1,-1],"loss_changes":[3.6946259E0,3.9505234E0,2.793575E0,4.288229E0,2.9229565E0,3.5838594E0,0E0,5.277875E0,4.951233E0,2.596214E0,0E0,0E0,0E0,6.7866755E0,5.476454E0,8.251427E0,8.244253E0,0E0,0E0,0E0,0E0,0E0,0E0,0E0,0E0,0E0,0E0],"parents":[2147483647,0,0,1,1,2,2,3,3,4,4,5,5,7,7,8,8,9,9,13,13,14,14,15,15,16,16],"right_children":[2,4,6,8,10,12,-1,14,16,18,-1,-1,-1,20,22,24,26,-1,-1,-1,-1,-1,-1,-1,-1,-1,-1],"split_conditions":[1.8873029E0,1.5202558E0,1.0439111E0,-7.677769E-1,1.1074923E-2,-8.683096E-3,-0E0,-9.853438E-2,1.0105039E0,-4.2870957E-3,4.0406067E-2,-0E0,-5.126239E-2,3.4650076E-2,-9.834363E-3,-4.2870957E-3,1.0119698E0,2.0075157E-2,-9.342738E-3,2.5924325E-2,-1.1903066E-2,-0E0,-2.3596436E-2,1.7625306E-2,-2.1599335E-4,-3.5192423E-2,-5.7575887E-4],"split_indices":[9,9,7,5,12,0,0,19,22,12,0,0,0,8,12,11,22,0,0,0,0,0,0,0,0,0,0],"split_type":[0,0,0,0,0,0,0,0,0,0,0,0,0,0,0,0,0,0,0,0,0,0,0,0,0,0,0],"sum_hessian":[2.0465182E3,1.9740706E3,7.244764E1,1.8862595E3,8.7810936E1,4.9136635E1,2.3311007E1,3.9029355E2,1.4959661E3,6.3633625E1,2.4177309E1,2.5986881E1,2.3149752E1,1.0959042E2,2.8070312E2,6.475566E2,8.484094E2,3.427939E1,2.9354239E1,5.479248E1,5.4797947E1,1.1804303E2,1.6266008E2,2.5125276E2,3.9630383E2,4.561221E1,8.0279724E2],"tree_param":{"num_deleted":"0","num_feature":"23","num_nodes":"27","size_leaf_vector":"1"}},{"base_weights":[-0E0,-2.7101323E-2,4.169839E-3,-9.302427E-2,2.0312369E-2,2.6480667E-2,-2.7626458E-1,3.1600818E-1,-0E0,-1.4102454E-1,3.825495E-2,-5.2561945E-1,-0E0,-1.1729547E-4,5.843915E-1,1.3901864E-1,-2.8146511E-2,-2.9839655E-2,1.969641E-2,-1.4588728E-2,-6.9397554E-2,-9.798638E-3,1.5425058E-2,6.5445065E-2,5.2007777E-3,2.0702997E-2,-9.650332E-3,-8.899035E-3,2.7426418E-3],"categories":[],"categories_nodes":[],"categories_segments":[],"categories_sizes":[],"default_left":[0,0,0,0,0,0,0,0,0,0,0,0,0,0,0,0,0,0,0,0,0,0,0,0,0,0,0,0,0],"id":29,"left_children":[1,-1,3,5,7,9,11,13,15,17,-1,19,21,-1,23,25,27,-1,-1,-1,-1,-1,-1,-1,-1,-1,-1,-1,-1],"loss_changes":[2.9526408E0,0E0,2.9865491E0,6.5076413E0,1.0013384E1,1.2659778E1,8.36774E0,1.0792922E1,6.7171783E0,1.0339361E1,0E0,4.1962376E0,1.3838177E0,0E0,5.298523E0,9.673148E0,7.43764E0,0E0,0E0,0E0,0E0,0E0,0E0,0E0,0E0,0E0,0E0,0E0,0E0],"parents":[2147483647,0,0,2,2,3,3,4,4,5,5,6,6,7,7,8,8,9,9,11,11,12,12,14,14,15,15,16,16],"right_children":[2,-1,4,6,8,10,12,14,16,18,-1,20,22,-1,24,26,28,-1,-1,-1,-1,-1,-1,-1,-1,-1,-1,-1,-1],"split_conditions":[-6.647449E-2,-2.7101323E-2,1.2876571E1,-1.8249756E-2,3.9613E1,-5.805029E-3,9E0,-1.7262887E-2,-1.3491583E-2,9.7158056E-1,3.825495E-2,9.3165436E-4,2.27001E-1,-1.1729547E-4,1.0013089E0,1.6004488E-2,1.1549579E-1,-2.9839655E-2,1.969641E-2,-1.4588728E-2,-6.9397554E-2,-9.798638E-3,1.5425058E-2,6.5445065E-2,5.2007777E-3,2.0702997E-2,-9.650332E-3,-8.899035E-3,2.7426418E-3],"split_indices":[12,0,6,21,4,20,17,21,10,22,0,12,15,0,22,12,5,0,0,0,0,0,0,0,0,0,0,0,0],"split_type":[0,0,0,0,0,0,0,0,0,0,0,0,0,0,0,0,0,0,0,0,0,0,0,0,0,0,0,0,0],"sum_hessian":[2.053579E3,2.3721394E1,2.0298578E3,2.636172E2,1.7662406E3,1.510272E2,1.12589966E2,1.06261856E2,1.6599788E3,1.06598816E2,4.44284E1,6.043989E1,5.215007E1,4.4517002E1,6.174485E1,2.90044E2,1.3699348E3,7.097632E1,3.56225E1,3.556258E1,2.4877312E1,2.9063892E1,2.3086178E1,3.8017506E1,2.3727343E1,2.0497226E2,8.507173E1,6.042719E2,7.656629E2],"tree_param":{"num_deleted":"0","num_feature":"23","num_nodes":"29","size_leaf_vector":"1"}},{"base_weights":[-1.5373031E-3,6.0373385E-2,-3.146769E-2,-1.7772498E-2,3.2634845E-1,-1.807794E-1,7.066467E-3,2.220217E-2,-4.4485933E-1,5.1136345E-1,-1.9106923E-2,1.784714E-1,-3.0823603E-1,-4.3419248E-1,3.692389E-2,-1.1538316E-1,1.991415E-1,-6.0738523E-2,-0E0,6.0073793E-2,1.0588273E-1,-2.7378066E-4,3.5082344E-2,-5.351494E-1,-1.0686751E-1,-5.9475563E-4,-7.290221E-2,1.5291556E-2,3.5119906E-2,-1.3644538E-3,-4.264546E-2,3.1528518E-2,-1.1566715E-2,2.4554215E-2,-0E0,-7.18875E-2,-2.3685964E-2,3.3345707E-2,-2.270244E-2,5.3972527E-3,-1.1657897E-2],"categories":[],"categories_nodes":[],"categories_segments":[],"categories_sizes":[],"default_left":[0,0,0,0,0,0,0,0,0,0,0,0,0,0,0,0,0,0,0,0,0,0,0,0,0,0,0,0,0,0,0,0,0,0,0,0,0,0,0,0,0],"id":30,"left_children":[1,3,5,7,9,11,13,15,17,19,-1,21,23,25,27,29,31,-1,-1,-1,33,-1,-1,35,37,-1,-1,39,-1,-1,-1,-1,-1,-1,-1,-1,-1,-1,-1,-1,-1],"loss_changes":[3.7373931E0,1.419386E1,8.6519785E0,9.534611E0,1.7047367E1,1.4447312E1,1.3597211E1,1.1027209E1,4.8637877E0,9.431992E0,0E0,4.8304825E0,8.740227E0,1.079794E1,7.933114E0,8.410744E0,1.4619482E1,0E0,0E0,0E0,1.9134109E0,0E0,0E0,5.2587357E0,1.2156875E1,0E0,0E0,8.3846655E0,0E0,0E0,0E0,0E0,0E0,0E0,0E0,0E0,0E0,0E0,0E0,0E0,0E0],"parents":[2147483647,0,0,1,1,2,2,3,3,4,4,5,5,6,6,7,7,8,8,9,9,11,11,12,12,13,13,14,14,15,15,16,16,20,20,23,23,24,24,27,27],"right_children":[2,4,6,8,10,12,14,16,18,20,-1,22,24,26,28,30,32,-1,-1,-1,34,-1,-1,36,38,-1,-1,40,-1,-1,-1,-1,-1,-1,-1,-1,-1,-1,-1,-1,-1],"split_conditions":[-3.0702723E-3,-5.5833585E-3,-1.870928E-5,-6.612376E-3,8.3363475E-3,-5.934072E-3,-2.3249786E-2,-1.1533013E-2,9.917068E-1,1.7388486E-3,-1.9106923E-2,-3.9520687E-1,7.221262E-3,-2.9270362E-2,4.4009678E-2,-1.6934114E-2,7.4049095E-3,-6.0738523E-2,-0E0,6.0073793E-2,-1.547211E-3,-2.7378066E-4,3.5082344E-2,-1.8469173E-3,1.0405422E-2,-5.9475563E-4,-7.290221E-2,3.7972506E-2,3.5119906E-2,-1.3644538E-3,-4.264546E-2,3.1528518E-2,-1.1566715E-2,2.4554215E-2,-0E0,-7.18875E-2,-2.3685964E-2,3.3345707E-2,-2.270244E-2,5.3972527E-3,-1.1657897E-2],"split_indices":[20,20,20,20,21,21,21,21,2,10,0,5,21,21,10,21,21,0,0,0,11,0,0,20,21,0,0,8,0,0,0,0,0,0,0,0,0,0,0,0,0],"split_type":[0,0,0,0,0,0,0,0,0,0,0,0,0,0,0,0,0,0,0,0,0,0,0,0,0,0,0,0,0,0,0,0,0,0,0,0,0,0,0,0,0],"sum_hessian":[2.0577673E3,6.3981445E2,1.417953E3,4.8736453E2,1.5244995E2,3.0472443E2,1.1132285E3,4.40821E2,4.6543533E1,1.18749306E2,3.3700645E1,7.3932686E1,2.3079175E2,6.3505035E1,1.0497235E3,2.393801E2,2.014409E2,2.3177433E1,2.3366098E1,6.8993774E1,4.9755535E1,3.8236702E1,3.5695984E1,1.0097798E2,1.2981377E2,3.75234E1,2.5981634E1,1.004376E3,4.534754E1,2.0064474E2,3.873534E1,1.3297916E2,6.846175E1,2.4675201E1,2.5080332E1,3.334533E1,6.763265E1,2.8532116E1,1.0128165E2,7.7158276E2,2.327932E2],"tree_param":{"num_deleted":"0","num_feature":"23","num_nodes":"41","size_leaf_vector":"1"}},{"base_weights":[-1.8879165E-3,-2.8485615E-2,1.1830435E-3,4.1892603E-2,-3.2516833E-2,-2.7863584E-2,6.036406E-2,-1.9659823E-1,-4.7107106E-3,7.72404E-2,-2.2375904E-2,-4.750938E-2,-3.6132716E-2,9.787824E-3,-2.8528142E-1,-0E0,1.2205448E-2,-2.107968E-2,2.0218328E-2,2.2493996E-2,-4.3261854E-4,-3.8049906E-2,-0E0],"categories":[],"categories_nodes":[],"categories_segments":[],"categories_sizes":[],"default_left":[0,0,0,0,0,0,0,0,0,0,0,0,0,0,0,0,0,0,0,0,0,0,0],"id":31,"left_children":[1,-1,3,5,7,-1,9,11,13,15,-1,17,-1,19,21,-1,-1,-1,-1,-1,-1,-1,-1],"loss_changes":[3.2532783E0,0E0,2.8181856E0,6.1778526E0,4.3465834E0,0E0,4.794343E0,4.018171E0,4.5791903E0,5.326478E0,0E0,6.572326E0,0E0,4.452089E0,1.9689074E0,0E0,0E0,0E0,0E0,0E0,0E0,0E0,0E0],"parents":[2147483647,0,0,2,2,3,3,4,4,6,6,7,7,8,8,9,9,11,11,13,13,14,14],"right_children":[2,-1,4,6,8,-1,10,12,14,16,-1,18,-1,20,22,-1,-1,-1,-1,-1,-1,-1,-1],"split_conditions":[-6.647449E-2,-2.8485615E-2,-1.9977202E-4,-5.0260752E-2,6.919317E-1,-2.7863584E-2,8.2586415E-2,7.971866E-2,1.7329518E0,-2.074335E-1,-2.2375904E-2,2.2084417E-3,-3.6132716E-2,-3.1897377E-2,2.0321664E-1,-0E0,1.2205448E-2,-2.107968E-2,2.0218328E-2,2.2493996E-2,-4.3261854E-4,-3.8049906E-2,-0E0],"split_indices":[12,0,11,21,9,0,1,18,9,5,0,0,0,12,16,0,0,0,0,0,0,0,0],"split_type":[0,0,0,0,0,0,0,0,0,0,0,0,0,0,0,0,0,0,0,0,0,0,0],"sum_hessian":[2.0565256E3,2.399177E1,2.0325338E3,9.57861E2,1.0746729E3,3.5173107E1,9.226879E2,1.4004114E2,9.346317E2,8.880582E2,3.4629684E1,9.664686E1,4.3394276E1,8.8046313E2,5.416855E1,4.395068E2,4.4855142E2,6.1595894E1,3.505096E1,5.4892815E1,8.255703E2,2.6916142E1,2.7252409E1],"tree_param":{"num_deleted":"0","num_feature":"23","num_nodes":"23","size_leaf_vector":"1"}},{"base_weights":[-2.643796E-3,1.0951983E-2,-1.18104436E-1,-0E0,3.442091E-2,-5.3300094E-2,-4.4311438E-2,1.3948212E-2,-1.6477244E-1,-2.8909403E-1,3.3269369E-3,9.2822455E-2,-2.5847418E-2,7.675087E-2,-3.8082382E-1,-4.1449174E-2,-0E0,3.20479E-2,-1.024175E-1,-7.465688E-4,1.705322E-2,-5.3692976E-4,-2.126052E-2,-1.5472169E-2,4.3292437E-2,-4.7464266E-2,-0E0,-2.9633207E-2,-0E0],"categories":[],"categories_nodes":[],"categories_segments":[],"categories_sizes":[],"default_left":[0,0,0,0,0,0,0,0,0,0,0,0,0,0,0,0,0,0,0,0,0,0,0,0,0,0,0,0,0],"id":32,"left_children":[1,3,5,7,-1,9,-1,11,13,15,17,19,21,23,25,-1,-1,-1,27,-1,-1,-1,-1,-1,-1,-1,-1,-1,-1],"loss_changes":[3.5196218E0,7.784905E0,5.035663E0,3.864917E0,0E0,3.6583352E0,0E0,5.3493333E0,7.699956E0,3.1619377E0,7.8579254E0,7.745169E0,4.172773E0,8.327255E0,5.4850836E0,0E0,0E0,0E0,4.3422136E0,0E0,0E0,0E0,0E0,0E0,0E0,0E0,0E0,0E0,0E0],"parents":[2147483647,0,0,1,1,2,2,3,3,5,5,7,7,8,8,9,9,10,10,11,11,12,12,13,13,14,14,18,18],"right_children":[2,4,6,8,-1,10,-1,12,14,16,18,20,22,24,26,-1,-1,-1,28,-1,-1,-1,-1,-1,-1,-1,-1,-1,-1],"split_conditions":[1.0304543E0,1.028684E0,3.0741024E-1,1.0247395E0,3.442091E-2,-5.8307784E-4,-4.4311438E-2,2.4287643E-2,5.8020348E1,7.446525E-3,2.528079E-4,7.324753E-4,1.7901384E0,2.783956E-3,1.3706355E-2,-4.1449174E-2,-0E0,3.20479E-2,1.0148795E0,-7.465688E-4,1.705322E-2,-5.3692976E-4,-2.126052E-2,-1.5472169E-2,4.3292437E-2,-4.7464266E-2,-0E0,-2.9633207E-2,-0E0],"split_indices":[22,22,19,22,0,20,0,8,4,12,0,20,5,0,12,0,0,0,2,0,0,0,0,0,0,0,0,0,0],"split_type":[0,0,0,0,0,0,0,0,0,0,0,0,0,0,0,0,0,0,0,0,0,0,0,0,0,0,0,0,0],"sum_hessian":[2.0493748E3,1.8129352E3,2.364395E2,1.7716763E3,4.1258926E1,2.128962E2,2.3543297E1,1.6424147E3,1.2926161E2,4.971844E1,1.6317775E2,5.736904E2,1.0687242E3,5.5338905E1,7.39227E1,2.5933878E1,2.3784565E1,3.8831783E1,1.2434598E2,3.0033493E2,2.7335547E2,1.0025224E3,6.620185E1,3.174903E1,2.3589874E1,4.456012E1,2.9362581E1,3.931482E1,8.503116E1],"tree_param":{"num_deleted":"0","num_feature":"23","num_nodes":"29","size_leaf_vector":"1"}},{"base_weights":[-2.6999689E-3,2.8789127E-2,-8.673264E-3,-2.1890552E-1,5.378785E-4,-0E0,-4.1563906E-2,3.8881693E-2,-8.736439E-3,-1.8350592E-2,2.4652261E-2,-1.18804045E-1,1.1179997E-2,4.5604655E-3,-2.044953E-2,3.4318697E-2,-0E0],"categories":[],"categories_nodes":[],"categories_segments":[],"categories_sizes":[],"default_left":[0,0,0,0,0,0,0,0,0,0,0,0,0,0,0,0,0],"id":33,"left_children":[1,-1,3,5,7,9,-1,-1,11,-1,-1,13,15,-1,-1,-1,-1],"loss_changes":[3.4950657E0,0E0,4.53594E0,6.0839176E0,1.010942E1,4.3225884E0,0E0,0E0,4.447408E0,0E0,0E0,8.191908E0,8.3276415E0,0E0,0E0,0E0,0E0],"parents":[2147483647,0,0,2,2,3,3,4,4,5,5,8,8,11,11,12,12],"right_children":[2,-1,4,6,8,10,-1,-1,12,-1,-1,14,16,-1,-1,-1,-1],"split_conditions":[9.3790895E-1,2.8789127E-2,-3.4717344E-2,-3.986833E-2,-3.0638035E-2,9.6048605E-1,-4.1563906E-2,3.8881693E-2,2.2046537E1,-1.8350592E-2,2.4652261E-2,1.0465482E-1,3.9613E1,4.5604655E-3,-2.044953E-2,3.4318697E-2,-0E0],"split_indices":[22,0,21,21,21,22,0,0,6,0,0,7,4,0,0,0,0],"split_type":[0,0,0,0,0,0,0,0,0,0,0,0,0,0,0,0,0],"sum_hessian":[2.0507407E3,2.421932E1,2.0265215E3,9.651482E1,1.9300066E3,5.8527332E1,3.798748E1,4.0235565E1,1.8897711E3,3.529501E1,2.3232325E1,3.1000787E2,1.5797632E3,1.2805255E2,1.8195534E2,4.431049E1,1.5354528E3],"tree_param":{"num_deleted":"0","num_feature":"23","num_nodes":"17","size_leaf_vector":"1"}},{"base_weights":[3.7929667E-3,-9.586587E-3,1.3429768E-1,2.2850235E-4,-2.2864805E-1,2.5897092E-1,-9.177662E-2,1.6180048E-2,-1.6737908E-1,2.5163281E-3,-3.673991E-1,3.6673057E-1,-0E0,1.0215397E-2,-3.5328824E-2,-8.750272E-2,4.70677E-2,-3.6712822E-1,3.857678E-3,-4.3879904E-2,-0E0,7.9347365E-2,5.6523585E-1,2.0252327E-3,-1.5777422E-2,8.444972E-3,-1.3540651E-3,-4.375862E-2,-0E0,1.9164078E-2,-1.6402734E-2,-4.028102E-3,2.6919669E-2,2.0704256E-2,6.45604E-2],"categories":[],"categories_nodes":[],"categories_segments":[],"categories_sizes":[],"default_left":[0,0,0,0,0,0,0,0,0,0,0,0,0,0,0,0,0,0,0,0,0,0,0,0,0,0,0,0,0,0,0,0,0,0,0],"id":34,"left_children":[1,3,5,7,9,11,13,15,17,-1,19,21,-1,-1,-1,23,25,27,29,-1,-1,31,33,-1,-1,-1,-1,-1,-1,-1,-1,-1,-1,-1,-1],"loss_changes":[3.9245622E0,4.590948E0,6.4124613E0,4.2586274E0,4.2402515E0,4.7611437E0,6.22218E0,5.0602155E0,5.698573E0,0E0,3.2713652E0,4.24704E0,0E0,0E0,0E0,4.8904085E0,5.061101E0,4.3689785E0,3.5375266E0,0E0,0E0,2.5489657E0,1.0539799E0,0E0,0E0,0E0,0E0,0E0,0E0,0E0,0E0,0E0,0E0,0E0,0E0],"parents":[2147483647,0,0,1,1,2,2,3,3,4,4,5,5,6,6,7,7,8,8,10,10,11,11,15,15,16,16,17,17,18,18,21,21,22,22],"right_children":[2,4,6,8,10,12,14,16,18,-1,20,22,-1,-1,-1,24,26,28,30,-1,-1,32,34,-1,-1,-1,-1,-1,-1,-1,-1,-1,-1,-1,-1],"split_conditions":[4.0819943E-1,3.6591688E-1,1.0195484E0,9.587959E1,-1.840618E-2,1.1583112E-2,3.957672E-3,-8.416315E-1,2.0502958E-2,2.5163281E-3,5.4287063E-3,-7.1776495E-3,-0E0,1.0215397E-2,-3.5328824E-2,-4.2310372E-2,3.4634583E-3,4.249403E-2,1.2050586E0,-4.3879904E-2,-0E0,9.9714804E-1,5.849909E1,2.0252327E-3,-1.5777422E-2,8.444972E-3,-1.3540651E-3,-4.375862E-2,-0E0,1.9164078E-2,-1.6402734E-2,-4.028102E-3,2.6919669E-2,2.0704256E-2,6.45604E-2],"split_indices":[15,15,22,6,18,10,20,5,0,0,10,10,0,0,0,1,11,14,5,0,0,22,6,0,0,0,0,0,0,0,0,0,0,0,0],"split_type":[0,0,0,0,0,0,0,0,0,0,0,0,0,0,0,0,0,0,0,0,0,0,0,0,0,0,0,0,0,0,0,0,0,0,0],"sum_hessian":[2.0461749E3,1.8376287E3,2.085463E2,1.7478972E3,8.973152E1,1.4224548E2,6.6300804E1,1.612278E3,1.356192E2,2.4561878E1,6.516964E1,1.0567496E2,3.6570522E1,3.647622E1,2.9824589E1,3.487881E2,1.2634899E3,6.942068E1,6.6198524E1,3.877231E1,2.6397333E1,4.9663033E1,5.601193E1,1.610714E2,1.877167E2,6.7855963E2,5.8493024E2,4.4450417E1,2.4970259E1,3.723335E1,2.8965174E1,2.664087E1,2.3022165E1,3.1399715E1,2.4612211E1],"tree_param":{"num_deleted":"0","num_feature":"23","num_nodes":"35","size_leaf_vector":"1"}},{"base_weights":[-6.836514E-3,-2.0681988E-2,1.0178991E-1,-1.04353935E-1,5.057576E-3,4.3524925E-2,1.32485265E-2,-3.983708E-3,-3.0070904E-1,2.1269724E-2,-2.3491839E-1,1.1912634E-1,-2.0737348E-1,6.842471E-2,-1.9640307E-1,-5.321588E-1,-0E0,-4.347442E-2,7.010372E-2,-0E0,-4.0419164E-1,-5.3176984E-2,3.6733636E-1,-0E0,-2.7421609E-2,-6.605836E-3,1.5851418E-2,-4.1855343E-2,-0E0,-9.073967E-3,-5.15035E-2,1.2018842E-2,-1.4146225E-2,-1.2231639E-3,-3.918174E-2,9.180341E-3,-1.5081469E-2,-5.759128E-3,-5.141617E-2,-1.587646E-2,8.346542E-3,4.0311473E-3,5.0041135E-2],"categories":[],"categories_nodes":[],"categories_segments":[],"categories_sizes":[],"default_left":[0,0,0,0,0,0,0,0,0,0,0,0,0,0,0,0,0,0,0,0,0,0,0,0,0,0,0,0,0,0,0,0,0,0,0,0,0,0,0,0,0,0,0],"id":35,"left_children":[1,3,5,7,9,-1,11,13,15,17,19,21,23,25,27,29,31,33,35,-1,37,39,41,-1,-1,-1,-1,-1,-1,-1,-1,-1,-1,-1,-1,-1,-1,-1,-1,-1,-1,-1,-1],"loss_changes":[2.8654852E0,4.2521625E0,6.711327E0,8.208757E0,4.807316E0,0E0,4.0260315E0,4.762454E0,1.0432668E1,4.2245436E0,4.14391E0,6.5477824E0,7.373996E-1,4.70991E0,7.3678885E0,1.8413467E0,1.746103E0,5.3934307E0,8.969774E0,0E0,2.0779371E0,1.975589E0,3.127658E0,0E0,0E0,0E0,0E0,0E0,0E0,0E0,0E0,0E0,0E0,0E0,0E0,0E0,0E0,0E0,0E0,0E0,0E0,0E0,0E0],"parents":[2147483647,0,0,1,1,2,2,3,3,4,4,6,6,7,7,8,8,9,9,10,10,11,11,12,12,13,13,14,14,15,15,16,16,17,17,18,18,20,20,21,21,22,22],"right_children":[2,4,6,8,10,-1,12,14,16,18,20,22,24,26,28,30,32,34,36,-1,38,40,42,-1,-1,-1,-1,-1,-1,-1,-1,-1,-1,-1,-1,-1,-1,-1,-1,-1,-1,-1,-1],"split_conditions":[4.0819943E-1,7.7951115E-1,2.3946357E-1,9.246267E-3,9.755826E1,4.3524925E-2,1.1200635E0,3.6097327E-3,1.7099306E-3,-1.9910089E-3,-2.015131E-3,5.246628E-1,5.246628E-1,1.1018011E-1,2.86338E-3,1.4749067E-3,1.0157339E-2,4.3593013E-1,3.2520175E-1,-0E0,9.736344E-3,9.052545E-1,7.034304E-2,-0E0,-2.7421609E-2,-6.605836E-3,1.5851418E-2,-4.1855343E-2,-0E0,-9.073967E-3,-5.15035E-2,1.2018842E-2,-1.4146225E-2,-1.2231639E-3,-3.918174E-2,9.180341E-3,-1.5081469E-2,-5.759128E-3,-5.141617E-2,-1.587646E-2,8.346542E-3,4.0311473E-3,5.0041135E-2],"split_indices":[15,9,14,11,6,0,9,20,0,21,12,15,15,16,21,21,0,18,15,0,10,9,19,0,0,0,0,0,0,0,0,0,0,0,0,0,0,0,0,0,0,0,0],"split_type":[0,0,0,0,0,0,0,0,0,0,0,0,0,0,0,0,0,0,0,0,0,0,0,0,0,0,0,0,0,0,0,0,0,0,0,0,0,0,0,0,0,0,0],"sum_hessian":[2.0524907E3,1.8441686E3,2.083222E2,4.5839157E2,1.3857771E3,2.8136616E1,1.801856E2,3.1362106E2,1.447705E2,1.3100886E3,7.5688484E1,1.3070393E2,4.948166E1,2.1795744E2,9.566363E1,8.2171364E1,6.259912E1,5.3879535E2,7.712932E2,2.5626099E1,5.0062386E1,7.112687E1,5.9577065E1,2.630408E1,2.3177582E1,9.1486404E1,1.2647105E2,3.865414E1,5.7009487E1,2.3707945E1,5.846342E1,3.5464066E1,2.7135057E1,5.142771E2,2.4518297E1,6.6612726E2,1.0516592E2,2.676232E1,2.3300066E1,4.586499E1,2.5261879E1,3.2556953E1,2.7020113E1],"tree_param":{"num_deleted":"0","num_feature":"23","num_nodes":"43","size_leaf_vector":"1"}},{"base_weights":[-1.2957053E-3,3.384362E-2,-7.8886775E-3,-1.9129628E-1,-0E0,-0E0,-3.8293716E-2,3.5981018E-2,-8.723796E-3,-1.8670838E-2,2.2538958E-2,-2.3222226E-1,1.5079704E-3,1.2949117E-2,-3.25216E-2,9.284672E-3,-1.7618435E-3],"categories":[],"categories_nodes":[],"categories_segments":[],"categories_sizes":[],"default_left":[0,0,0,0,0,0,0,0,0,0,0,0,0,0,0,0,0],"id":36,"left_children":[1,-1,3,5,7,9,-1,-1,11,-1,-1,13,15,-1,-1,-1,-1],"loss_changes":[4.6042457E0,0E0,3.4316316E0,5.526001E0,8.796505E0,4.07066E0,0E0,0E0,4.9555707E0,0E0,0E0,7.40157E0,5.1712756E0,0E0,0E0,0E0,0E0],"parents":[2147483647,0,0,2,2,3,3,4,4,5,5,8,8,11,11,12,12],"right_children":[2,-1,4,6,8,10,-1,-1,12,-1,-1,14,16,-1,-1,-1,-1],"split_conditions":[9.3790895E-1,3.384362E-2,-3.4717344E-2,-3.986833E-2,-3.0638035E-2,3.8184704E1,-3.8293716E-2,3.5981018E-2,-3.650313E-2,-1.8670838E-2,2.2538958E-2,-1.0600321E-2,-1.142574E-2,1.2949117E-2,-3.25216E-2,9.284672E-3,-1.7618435E-3],"split_indices":[22,0,21,21,21,13,0,0,10,0,0,12,10,0,0,0,0],"split_type":[0,0,0,0,0,0,0,0,0,0,0,0,0,0,0,0,0],"sum_hessian":[2.0442609E3,2.3349398E1,2.0209114E3,9.589993E1,1.9250115E3,5.817044E1,3.7729492E1,4.08141E1,1.8841974E3,3.1484901E1,2.6685541E1,9.316497E1,1.7910325E3,2.4022865E1,6.9142105E1,3.2422894E2,1.4668035E3],"tree_param":{"num_deleted":"0","num_feature":"23","num_nodes":"17","size_leaf_vector":"1"}},{"base_weights":[-0E0,1.3934255E-2,-1.0301928E-1,3.358717E-3,3.140864E-2,-2.2689947E-1,4.445055E-2,6.151886E-2,-3.152873E-2,-4.0084767E-1,-2.6552996E-3,-2.1362804E-2,1.8537745E-1,2.768868E-1,1.9508625E-3,-4.0311765E-2,-9.028906E-3,-1.3588186E-1,-6.182674E-2,1.0086481E-2,-1.8398562E-2,4.0483765E-2,-0E0,-0E0,3.454414E-2,-2.0023738E-3,2.9609751E-2,-2.3894792E-2,5.287378E-4,2.7067703E-3,-3.2778833E-2,2.0006258E-2,-1.7033935E-2],"categories":[],"categories_nodes":[],"categories_segments":[],"categories_sizes":[],"default_left":[0,0,0,0,0,0,0,0,0,0,0,0,0,0,0,0,0,0,0,0,0,0,0,0,0,0,0,0,0,0,0,0,0],"id":37,"left_children":[1,3,5,7,-1,9,11,13,15,17,19,-1,21,23,25,-1,27,29,-1,-1,-1,-1,31,-1,-1,-1,-1,-1,-1,-1,-1,-1,-1],"loss_changes":[2.8396554E0,6.2023087E0,4.804228E0,3.682045E0,0E0,4.251769E0,4.154973E0,8.136394E0,1.0110344E1,4.3835144E0,2.3677423E0,0E0,3.8292055E0,6.7725487E0,6.5850067E0,0E0,5.5725102E0,3.3089051E0,0E0,0E0,0E0,0E0,2.8848448E0,0E0,0E0,0E0,0E0,0E0,0E0,0E0,0E0,0E0,0E0],"parents":[2147483647,0,0,1,1,2,2,3,3,5,5,6,6,7,7,8,8,9,9,10,10,12,12,13,13,14,14,16,16,17,17,22,22],"right_children":[2,4,6,8,-1,10,12,14,16,18,20,-1,22,24,26,-1,28,30,-1,-1,-1,-1,32,-1,-1,-1,-1,-1,-1,-1,-1,-1,-1],"split_conditions":[1.0304543E0,1.028684E0,2.3673126E-2,-4.2870957E-3,3.140864E-2,2.5628868E-2,7.772712E-1,-1.627868E-2,-3.234938E-3,1.8742226E-2,9.044042E1,-2.1362804E-2,1.5326369E-1,-5.805029E-3,-5.6776456E-3,-4.0311765E-2,-3.650313E-2,4.8232905E-4,-6.182674E-2,1.0086481E-2,-1.8398562E-2,4.0483765E-2,1.0351045E0,-0E0,3.454414E-2,-2.0023738E-3,2.9609751E-2,-2.3894792E-2,5.287378E-4,2.7067703E-3,-3.2778833E-2,2.0006258E-2,-1.7033935E-2],"split_indices":[22,22,18,12,0,21,9,10,12,21,6,0,15,20,12,0,10,11,0,0,0,0,9,0,0,0,0,0,0,0,0,0,0],"split_type":[0,0,0,0,0,0,0,0,0,0,0,0,0,0,0,0,0,0,0,0,0,0,0,0,0,0,0,0,0,0,0,0,0],"sum_hessian":[2.044395E3,1.8113063E3,2.3308873E2,1.7708708E3,4.0435368E1,1.3656789E2,9.652084E1,6.935665E2,1.0773043E3,6.932315E1,6.724474E1,2.342451E1,7.309634E1,1.3908789E2,5.5447864E2,4.173211E1,1.0355723E3,4.6138794E1,2.3184357E1,3.553761E1,3.1707134E1,2.3246584E1,4.984975E1,4.7772198E1,9.13157E1,5.107782E2,4.370042E1,6.0658314E1,9.7491394E2,2.3068205E1,2.307059E1,2.5541327E1,2.4308424E1],"tree_param":{"num_deleted":"0","num_feature":"23","num_nodes":"33","size_leaf_vector":"1"}},{"base_weights":[-0E0,1.3588572E-2,-1.1638616E-1,-1.7781142E-2,6.4086616E-2,-0E0,-2.4822302E-1,-9.344628E-2,4.8949935E-2,1.3499114E-1,-1.6461316E-2,-1.8392153E-1,1.9939625E-1,-3.4540367E-1,-0E0,2.7750542E-2,-1.3425729E-1,2.3350862E-1,6.219654E-3,1.7435135E-1,-1.22939395E-2,-7.381686E-2,3.875968E-2,2.896965E-3,-3.5102952E-2,3.7985664E-2,-5.764531E-4,-3.7502885E-2,-0E0,-4.2559113E-3,-2.843975E-2,3.3237457E-2,-0E0,-9.614116E-3,5.814724E-3,-2.88175E-3,1.7631885E-2,-1.3188707E-2,4.3274662E-3],"categories":[],"categories_nodes":[],"categories_segments":[],"categories_sizes":[],"default_left":[0,0,0,0,0,0,0,0,0,0,0,0,0,0,0,0,0,0,0,0,0,0,0,0,0,0,0,0,0,0,0,0,0,0,0,0,0,0,0],"id":38,"left_children":[1,3,5,7,9,11,13,15,17,19,21,23,25,27,-1,-1,29,31,33,35,-1,37,-1,-1,-1,-1,-1,-1,-1,-1,-1,-1,-1,-1,-1,-1,-1,-1,-1],"loss_changes":[3.1167896E0,3.0515149E0,3.1318984E0,5.7060027E0,4.564727E0,4.0954976E0,2.1411638E0,9.179497E0,3.8096087E0,4.7966495E0,8.432526E0,4.4671574E0,4.401403E0,1.7695999E0,0E0,0E0,7.8381853E0,4.145801E0,3.9304633E0,4.272669E0,0E0,3.9011974E0,0E0,0E0,0E0,0E0,0E0,0E0,0E0,0E0,0E0,0E0,0E0,0E0,0E0,0E0,0E0,0E0,0E0],"parents":[2147483647,0,0,1,1,2,2,3,3,4,4,5,5,6,6,7,7,8,8,9,9,10,10,11,11,12,12,13,13,16,16,17,17,18,18,19,19,21,21],"right_children":[2,4,6,8,10,12,14,16,18,20,22,24,26,28,-1,-1,30,32,34,36,-1,38,-1,-1,-1,-1,-1,-1,-1,-1,-1,-1,-1,-1,-1,-1,-1,-1,-1],"split_conditions":[1.0313745E0,1.1549579E-1,9.044042E1,9.1654915E-1,8.633555E-1,1.0079567E0,1.0702182E0,9.680832E-1,9.7332484E-1,1.0272125E0,1.028684E0,2.9740138E-2,8.341199E1,1.5172122E-2,-0E0,2.7750542E-2,9.246267E-3,1.952747E-2,-7.6289224E-3,4.893009E-1,-1.22939395E-2,8.319291E-2,3.875968E-2,2.896965E-3,-3.5102952E-2,3.7985664E-2,-5.764531E-4,-3.7502885E-2,-0E0,-4.2559113E-3,-2.843975E-2,3.3237457E-2,-0E0,-9.614116E-3,5.814724E-3,-2.88175E-3,1.7631885E-2,-1.3188707E-2,4.3274662E-3],"split_indices":[22,5,6,9,5,2,3,22,9,22,22,8,6,11,0,0,11,18,20,7,0,19,0,0,0,0,0,0,0,0,0,0,0,0,0,0,0,0,0],"split_type":[0,0,0,0,0,0,0,0,0,0,0,0,0,0,0,0,0,0,0,0,0,0,0,0,0,0,0,0,0,0,0,0,0,0,0,0,0,0,0],"sum_hessian":[2.0462018E3,1.842557E3,2.036448E2,1.1029982E3,7.395588E2,1.0906913E2,9.457568E1,5.362339E2,5.667643E2,4.1126376E2,3.28295E2,5.6925713E1,5.2143417E1,6.6155556E1,2.8420124E1,3.863203E1,4.9760187E2,9.317992E1,4.7358438E2,3.710237E2,4.024006E1,3.007609E2,2.7534119E1,2.54944E1,3.1431313E1,2.7190979E1,2.4952436E1,4.268966E1,2.3465897E1,3.7620602E2,1.21395836E2,5.173726E1,4.1442657E1,1.4861018E2,3.249742E2,5.7810783E1,3.1321292E2,1.8734538E2,1.13415504E2],"tree_param":{"num_deleted":"0","num_feature":"23","num_nodes":"39","size_leaf_vector":"1"}},{"base_weights":[2.9700277E-3,1.1101133E-1,-1.0694199E-2,2.0410757E-1,-1.5062767E-1,-2.0882429E-1,8.992518E-3,6.2059914E-3,3.9830193E-1,-3.689251E-2,9.6575514E-4,-0E0,-3.1037188E-1,-3.428215E-1,2.359526E-2,1.4926003E-1,-1.1929777E-2,4.876502E-2,1.9570698E-1,1.8377317E-2,-1.2147049E-2,-0E0,-4.9932957E-1,-5.923364E-2,4.657392E-3,1.8716359E-1,-5.4641482E-3,-2.0999867E-3,2.7299477E-2,3.8121022E-2,-0E0,-1.1426539E-2,-5.9420194E-2,2.2103138E-2,-5.855856E-4,-1.7325617E-2,1.2772802E-3],"categories":[],"categories_nodes":[],"categories_segments":[],"categories_sizes":[],"default_left":[0,0,0,0,0,0,0,0,0,0,0,0,0,0,0,0,0,0,0,0,0,0,0,0,0,0,0,0,0,0,0,0,0,0,0,0,0],"id":39,"left_children":[1,3,5,7,9,11,13,15,17,-1,-1,19,21,23,25,27,-1,-1,29,-1,-1,-1,31,-1,-1,33,35,-1,-1,-1,-1,-1,-1,-1,-1,-1,-1],"loss_changes":[3.2989101E0,6.3402514E0,7.5527067E0,6.350049E0,4.294237E0,3.9697971E0,7.439281E0,2.373817E0,1.5696764E0,0E0,0E0,2.0897138E0,7.041857E0,1.1204098E1,7.939926E0,3.110938E0,0E0,0E0,3.6078005E0,0E0,0E0,0E0,3.988432E0,0E0,0E0,5.202899E0,6.5959854E0,0E0,0E0,0E0,0E0,0E0,0E0,0E0,0E0,0E0,0E0],"parents":[2147483647,0,0,1,1,2,2,3,3,4,4,5,5,6,6,7,7,8,8,11,11,12,12,13,13,14,14,15,15,18,18,22,22,25,25,26,26],"right_children":[2,4,6,8,10,12,14,16,18,-1,-1,20,22,24,26,28,-1,-1,30,-1,-1,-1,32,-1,-1,34,36,-1,-1,-1,-1,-1,-1,-1,-1,-1,-1],"split_conditions":[-5.167427E-2,3.582029E-3,-3.2425422E-2,-7.0829154E-3,-1.3658245E-2,-1.665E-2,-3.268394E-2,-1.2209089E-2,1.5206383E-1,-3.689251E-2,9.6575514E-4,9.788115E-1,-4.2310372E-2,9.942152E-1,4.5242157E1,-6.707884E-3,-1.1929777E-2,4.876502E-2,-2.8792927E-3,1.8377317E-2,-1.2147049E-2,-0E0,2.9632876E-2,-5.923364E-2,4.657392E-3,1.4204271E-2,9.877068E-1,-2.0999867E-3,2.7299477E-2,3.8121022E-2,-0E0,-1.1426539E-2,-5.9420194E-2,2.2103138E-2,-5.855856E-4,-1.7325617E-2,1.2772802E-3],"split_indices":[1,20,1,20,21,10,10,20,15,0,0,9,1,2,13,19,0,0,20,0,0,0,8,0,0,21,3,0,0,0,0,0,0,0,0,0,0],"split_type":[0,0,0,0,0,0,0,0,0,0,0,0,0,0,0,0,0,0,0,0,0,0,0,0,0,0,0,0,0,0,0,0,0,0,0,0,0],"sum_hessian":[2.0427227E3,2.5120326E2,1.7915194E3,1.933518E2,5.785146E1,1.7358215E2,1.6179373E3,1.03545334E2,8.9806465E1,2.4765625E1,3.3085835E1,5.4513042E1,1.1906911E2,5.5691975E1,1.5622452E3,6.3433147E1,4.011219E1,3.5517345E1,5.428912E1,2.3612356E1,3.0900688E1,4.5629063E1,7.344005E1,3.0686565E1,2.5005411E1,2.4907462E2,1.3131707E3,2.6400564E1,3.703258E1,2.3571268E1,3.0717852E1,3.5730743E1,3.7709305E1,1.7892418E2,7.015042E1,1.315827E2,1.181588E3],"tree_param":{"num_deleted":"0","num_feature":"23","num_nodes":"37","size_leaf_vector":"1"}},{"base_weights":[-3.7295036E-3,4.619215E-2,-2.8271986E-2,-1.6623048E-2,2.660332E-1,-1.6682787E-1,6.9752065E-3,2.59013E-2,-4.5680282E-1,-0E0,6.0559547E-1,-4.8695322E-2,-5.062151E-1,-4.1308588E-1,3.499902E-2,-2.862549E-2,3.5098415E-2,-6.0994774E-2,-2.1934283E-3,2.7373761E-2,-3.3882648E-2,1.6026193E-2,5.9413113E-2,2.9488193E-2,-1.4074221E-1,-0E0,-5.702543E-2,-0E0,-6.291603E-2,3.6068687E-1,6.4749904E-3,7.21933E-3,-1.7301168E-2,-4.8942484E-2,1.1756347E-3,-0E0,5.9614565E-2,-3.8152162E-2,3.6166224E-3],"categories":[],"categories_nodes":[],"categories_segments":[],"categories_sizes":[],"default_left":[0,0,0,0,0,0,0,0,0,0,0,0,0,0,0,0,0,0,0,0,0,0,0,0,0,0,0,0,0,0,0,0,0,0,0,0,0,0,0],"id":40,"left_children":[1,3,5,7,9,11,13,15,17,19,21,23,25,27,29,31,-1,-1,-1,-1,-1,-1,-1,-1,33,-1,-1,-1,-1,35,37,-1,-1,-1,-1,-1,-1,-1,-1],"loss_changes":[2.459475E0,9.506814E0,7.3355336E0,1.0338846E1,1.4801878E1,1.0533696E1,1.2026978E1,1.1151309E1,4.2731295E0,1.2605777E1,1.1646538E0,8.384423E0,5.9337635E0,1.0221597E1,8.705872E0,9.075508E0,0E0,0E0,0E0,0E0,0E0,0E0,0E0,0E0,1.6225697E1,0E0,0E0,0E0,0E0,1.0452597E1,1.732526E1,0E0,0E0,0E0,0E0,0E0,0E0,0E0,0E0],"parents":[2147483647,0,0,1,1,2,2,3,3,4,4,5,5,6,6,7,7,8,8,9,9,10,10,11,11,12,12,13,13,14,14,15,15,24,24,29,29,30,30],"right_children":[2,4,6,8,10,12,14,16,18,20,22,24,26,28,30,32,-1,-1,-1,-1,-1,-1,-1,-1,34,-1,-1,-1,-1,36,38,-1,-1,-1,-1,-1,-1,-1,-1],"split_conditions":[-3.0702723E-3,-5.5833585E-3,-1.870928E-5,-6.612376E-3,9.431561E-1,-8.225392E-4,-2.3249786E-2,-7.470275E-3,9.913825E-1,6.304593E-4,-4.093114E-3,9.8491836E-1,1.0105039E0,-1.3212015E-2,9.853222E-1,-1.1648865E-2,3.5098415E-2,-6.0994774E-2,-2.1934283E-3,2.7373761E-2,-3.3882648E-2,1.6026193E-2,5.9413113E-2,2.9488193E-2,1.0023243E0,-0E0,-5.702543E-2,-0E0,-6.291603E-2,-7.188995E-3,9.936905E-1,7.21933E-3,-1.7301168E-2,-4.8942484E-2,1.1756347E-3,-0E0,5.9614565E-2,-3.8152162E-2,3.6166224E-3],"split_indices":[20,20,20,20,9,20,21,20,2,10,12,22,22,10,22,20,0,0,0,0,0,0,0,0,22,0,0,0,0,21,22,0,0,0,0,0,0,0,0],"split_type":[0,0,0,0,0,0,0,0,0,0,0,0,0,0,0,0,0,0,0,0,0,0,0,0,0,0,0,0,0,0,0,0,0,0,0,0,0,0,0],"sum_hessian":[2.045476E3,6.363342E2,1.4091417E3,4.859999E2,1.5033432E2,3.0082263E2,1.1083191E3,4.3853616E2,4.746374E1,8.2023674E1,6.8310646E1,2.3035916E2,7.046347E1,6.1963215E1,1.0463558E3,3.82895E2,5.5641193E1,2.3136694E1,2.4327047E1,4.314922E1,3.8874454E1,2.3775684E1,4.4534958E1,3.5238808E1,1.9512035E2,2.4625053E1,4.5838417E1,2.9807993E1,3.215522E1,7.51563E1,9.711995E2,2.26065E2,1.5682999E2,5.153674E1,1.4358362E2,4.02878E1,3.4868504E1,6.573711E1,9.054624E2],"tree_param":{"num_deleted":"0","num_feature":"23","num_nodes":"39","size_leaf_vector":"1"}},{"base_weights":[2.2016051E-3,4.9838915E-2,-2.4449605E-2,2.4469034E-1,-0E0,-2.3486827E-1,5.0291233E-3,-0E0,3.8272238E-1,-3.144928E-2,3.9442173E-1,-5.8166962E-2,-4.7458127E-2,1.4307666E-1,-4.7226157E-2,-1.7766735E-2,1.1057108E-2,-0E0,4.8480025E-1,-6.415661E-2,2.2488892E-2,8.13632E-3,4.4792492E-2,-3.237424E-2,6.622165E-2,4.373752E-2,3.5050347E-1,-3.1048808E-1,-0E0,4.990146E-2,3.6482813E-3,1.4288644E-2,-8.145496E-3,-2.5412448E-2,2.3386983E-2,1.9381067E-2,-3.058578E-2,7.048527E-2,-0E0,5.8736196E-3,-3.4522325E-2,2.6406262E-2,-2.4598853E-3],"categories":[],"categories_nodes":[],"categories_segments":[],"categories_sizes":[],"default_left":[0,0,0,0,0,0,0,0,0,0,0,0,0,0,0,0,0,0,0,0,0,0,0,0,0,0,0,0,0,0,0,0,0,0,0,0,0,0,0,0,0,0,0],"id":41,"left_children":[1,3,5,7,9,11,13,15,17,19,21,23,-1,25,27,-1,-1,-1,29,31,-1,-1,-1,-1,33,35,37,39,41,-1,-1,-1,-1,-1,-1,-1,-1,-1,-1,-1,-1,-1,-1],"loss_changes":[2.6592247E0,7.024139E0,8.519508E0,5.6902723E0,8.377136E0,8.87886E0,8.236628E0,1.7644424E0,2.6897984E0,5.302147E0,5.535927E-1,6.1805983E0,0E0,5.4329724E0,9.894075E0,0E0,0E0,0E0,2.7283058E0,4.757841E0,0E0,0E0,0E0,0E0,7.4027753E0,1.9123806E1,1.600049E1,6.825391E0,6.9988184E0,0E0,0E0,0E0,0E0,0E0,0E0,0E0,0E0,0E0,0E0,0E0,0E0,0E0,0E0],"parents":[2147483647,0,0,1,1,2,2,3,3,4,4,5,5,6,6,7,7,8,8,9,9,10,10,11,11,13,13,14,14,18,18,19,19,24,24,25,25,26,26,27,27,28,28],"right_children":[2,4,6,8,10,12,14,16,18,20,22,24,-1,26,28,-1,-1,-1,30,32,-1,-1,-1,-1,34,36,38,40,42,-1,-1,-1,-1,-1,-1,-1,-1,-1,-1,-1,-1,-1,-1],"split_conditions":[-4.2870957E-3,-1.627868E-2,9.801694E-1,-4.2801313E-3,3.934595E-1,9.732973E-1,1.1565721E-3,-1.9957528E-2,-1.1759175E-1,-5.6776456E-3,2.4776887E-2,-2.2373157E-2,-4.7458127E-2,1.1034323E-3,6.2852656E-3,-1.7766735E-2,1.1057108E-2,-0E0,-3.648091E-2,1.0465482E-1,2.2488892E-2,8.13632E-3,4.4792492E-2,-3.237424E-2,-1.7092345E-2,-3.0132926E-3,4.2204508E-3,9.8944896E-1,8.3363475E-3,4.990146E-2,3.6482813E-3,1.4288644E-2,-8.145496E-3,-2.5412448E-2,2.3386983E-2,1.9381067E-2,-3.058578E-2,7.048527E-2,-0E0,5.8736196E-3,-3.4522325E-2,2.6406262E-2,-2.4598853E-3],"split_indices":[12,10,22,20,16,22,21,12,18,12,18,10,0,20,21,0,0,0,5,7,0,0,0,0,20,20,20,2,21,0,0,0,0,0,0,0,0,0,0,0,0,0,0],"split_type":[0,0,0,0,0,0,0,0,0,0,0,0,0,0,0,0,0,0,0,0,0,0,0,0,0,0,0,0,0,0,0,0,0,0,0,0,0,0,0,0,0,0,0],"sum_hessian":[2.0362103E3,7.676223E2,1.268588E3,1.4790268E2,6.197196E2,1.6638356E2,1.1022045E3,4.937559E1,9.85271E1,5.708227E2,4.8896946E1,1.18091896E2,4.8291664E1,3.1668042E2,7.8552405E2,2.331629E1,2.60593E1,2.6173647E1,7.235345E1,5.260577E2,4.476501E1,2.479399E1,2.4102957E1,3.6087425E1,8.200447E1,2.2429672E2,9.238371E1,1.1952225E2,6.6600183E2,4.9287113E1,2.3066338E1,6.1039288E1,4.650184E2,2.5732765E1,5.62717E1,1.5770084E2,6.659588E1,3.3589516E1,5.8794193E1,2.3858831E1,9.5663414E1,5.665162E1,6.093502E2],"tree_param":{"num_deleted":"0","num_feature":"23","num_nodes":"43","size_leaf_vector":"1"}},{"base_weights":[-6.3842917E-3,-2.23867E-2,1.2187178E-1,-7.1640275E-2,1.881591E-2,2.5131536E-1,-1.1266975E-1,2.959146E-2,-9.351722E-2,-1.9267471E-1,4.1495066E-2,3.4184703E-1,-0E0,8.749191E-3,-3.7103217E-2,-3.788431E-2,-2.4024425E-1,-0E0,-3.3864878E-2,2.9128045E-1,1.1199785E-2,1.170975E-1,5.014715E-2,-1.0447585E-2,5.5451435E-3,-0E0,-2.4898706E-2,8.153376E-3,-1.5520946E-2,-0E0,4.292592E-2,-6.073926E-2,3.1829372E-3,2.4337703E-2,-7.0771514E-3],"categories":[],"categories_nodes":[],"categories_segments":[],"categories_sizes":[],"default_left":[0,0,0,0,0,0,0,0,0,0,0,0,0,0,0,0,0,0,0,0,0,0,0,0,0,0,0,0,0,0,0,0,0,0,0],"id":42,"left_children":[1,3,5,7,9,11,13,-1,15,17,19,21,-1,-1,-1,23,25,27,-1,29,31,33,-1,-1,-1,-1,-1,-1,-1,-1,-1,-1,-1,-1,-1],"loss_changes":[3.907155E0,3.8660383E0,6.703724E0,7.67993E0,4.2295437E0,3.4437675E0,6.3444834E0,0E0,6.002398E0,2.766427E0,5.8629313E0,4.710204E0,0E0,0E0,0E0,6.427944E0,4.2740374E0,1.2606797E0,0E0,6.074907E0,1.6009914E1,3.24668E0,0E0,0E0,0E0,0E0,0E0,0E0,0E0,0E0,0E0,0E0,0E0,0E0,0E0],"parents":[2147483647,0,0,1,1,2,2,3,3,4,4,5,5,6,6,8,8,9,9,10,10,11,11,15,15,16,16,17,17,19,19,20,20,21,21],"right_children":[2,4,6,8,10,12,14,-1,16,18,20,22,-1,-1,-1,24,26,28,-1,30,32,34,-1,-1,-1,-1,-1,-1,-1,-1,-1,-1,-1,-1,-1],"split_conditions":[4.0819943E-1,9.097549E-1,1.0195484E0,9.6536833E-1,-3.4717344E-2,1.1583112E-2,3.957672E-3,2.959146E-2,3.7972506E-2,9.780498E-1,-2.3478968E-2,5.7560795E1,-0E0,8.749191E-3,-3.7103217E-2,1.7203682E-3,-6.612376E-3,9.5145714E-1,-3.3864878E-2,-1.0315686E-2,-2.053179E-2,-1.2554212E-2,5.014715E-2,-1.0447585E-2,5.5451435E-3,-0E0,-2.4898706E-2,8.153376E-3,-1.5520946E-2,-0E0,4.292592E-2,-6.073926E-2,3.1829372E-3,2.4337703E-2,-7.0771514E-3],"split_indices":[15,9,22,22,21,10,20,0,8,2,21,6,0,0,0,20,20,22,0,20,21,1,0,0,0,0,0,0,0,0,0,0,0,0,0],"split_type":[0,0,0,0,0,0,0,0,0,0,0,0,0,0,0,0,0,0,0,0,0,0,0,0,0,0,0,0,0,0,0,0,0,0,0],"sum_hessian":[2.0358005E3,1.8302662E3,2.0553427E2,8.6406775E2,9.6619855E2,1.4004091E2,6.549336E1,3.357383E1,8.304939E2,8.0713425E1,8.854851E2,1.0455386E2,3.548704E1,3.5947754E1,2.9545614E1,6.1715295E2,2.1334097E2,5.008658E1,3.0626848E1,8.459893E1,8.0088617E2,6.53439E1,3.9209965E1,3.437384E2,2.7341452E2,4.5236256E1,1.681047E2,2.5934824E1,2.4151756E1,4.019848E1,4.440045E1,2.4073845E1,7.768123E2,4.077197E1,2.457193E1],"tree_param":{"num_deleted":"0","num_feature":"23","num_nodes":"35","size_leaf_vector":"1"}},{"base_weights":[-2.3657205E-3,6.6929525E-3,-1.4526036E-1,-5.260792E-3,1.9743052E-1,-2.6914465E-1,1.4156916E-2,1.147174E-2,-1.9457161E-1,3.6120105E-1,-0E0,-4.561654E-2,-1.0433137E-1,-1.0427985E-1,4.1474003E-2,2.0248088E-1,-4.3241274E-1,3.1286657E-3,3.727067E-2,1.0949843E-2,-1.8264515E-2,9.486947E-4,-2.7554283E-2,8.9282054E-4,-2.317691E-2,3.566797E-2,2.0423871E-3,4.4556353E-2,-4.042803E-3,-5.9558067E-2,-1.1540578E-2],"categories":[],"categories_nodes":[],"categories_segments":[],"categories_sizes":[],"default_left":[0,0,0,0,0,0,0,0,0,0,0,0,0,0,0,0,0,0,0,0,0,0,0,0,0,0,0,0,0,0,0],"id":43,"left_children":[1,3,5,7,9,11,-1,13,15,17,19,-1,21,23,25,27,29,-1,-1,-1,-1,-1,-1,-1,-1,-1,-1,-1,-1,-1,-1],"loss_changes":[3.0378869E0,4.8880687E0,5.94699E0,6.16213E0,4.5384874E0,3.4813013E0,0E0,5.4777346E0,1.5716692E1,1.0832424E0,1.9062077E0,0E0,3.1386333E0,7.63663E0,7.0826983E0,6.53757E0,6.835264E0,0E0,0E0,0E0,0E0,0E0,0E0,0E0,0E0,0E0,0E0,0E0,0E0,0E0,0E0],"parents":[2147483647,0,0,1,1,2,2,3,3,4,4,5,5,7,7,8,8,9,9,10,10,12,12,13,13,14,14,15,15,16,16],"right_children":[2,4,6,8,10,12,-1,14,16,18,20,-1,22,24,26,28,30,-1,-1,-1,-1,-1,-1,-1,-1,-1,-1,-1,-1,-1,-1],"split_conditions":[7.190153E1,1.0642682E0,2.7484117E-2,2.7488753E-2,8.6428365E-3,3.8143254E-3,1.4156916E-2,-7.3041553E-3,-3.221226E-3,2.5757973E-4,1.9415094E-1,-4.561654E-2,1.04197115E-1,-1.1648865E-2,-6.612376E-3,-6.115693E-3,-2.646934E-3,3.1286657E-3,3.727067E-2,1.0949843E-2,-1.8264515E-2,9.486947E-4,-2.7554283E-2,8.9282054E-4,-2.317691E-2,3.566797E-2,2.0423871E-3,4.4556353E-2,-4.042803E-3,-5.9558067E-2,-1.1540578E-2],"split_indices":[13,3,11,12,11,10,0,20,20,12,16,0,14,20,20,10,10,0,0,0,0,0,0,0,0,0,0,0,0,0,0],"split_type":[0,0,0,0,0,0,0,0,0,0,0,0,0,0,0,0,0,0,0,0,0,0,0,0,0,0,0,0,0,0,0],"sum_hessian":[2.0460721E3,1.9069226E3,1.3914957E2,1.7819066E3,1.25015976E2,1.0701632E2,3.2133247E1,1.6248008E3,1.5710594E2,7.121566E1,5.3800316E1,3.0432617E1,7.65837E1,3.146508E2,1.3101499E3,5.453543E1,1.025705E2,2.486188E1,4.635378E1,3.0550041E1,2.3250277E1,4.4856796E1,3.1726902E1,1.8631963E2,1.2833115E2,4.0786926E1,1.269363E3,2.6470087E1,2.8065342E1,4.3064037E1,5.950647E1],"tree_param":{"num_deleted":"0","num_feature":"23","num_nodes":"31","size_leaf_vector":"1"}},{"base_weights":[1.3270484E-3,-2.826862E-3,2.2372381E-1,5.813599E-3,-3.9471138E-1,-0E0,3.7192367E-2,-1.3770136E-2,7.906961E-2,-0E0,-5.598409E-2,-0E0,-3.2182044E-1,-2.2008836E-2,1.8431292E-1,7.687466E-4,-3.1193106E-2,-3.971779E-2,-0E0,2.1295517E-3,-3.9177656E-2,4.3454813E-3,2.8867403E-2],"categories":[],"categories_nodes":[],"categories_segments":[],"categories_sizes":[],"default_left":[0,0,0,0,0,0,0,0,0,0,0,0,0,0,0,0,0,0,0,0,0,0,0],"id":44,"left_children":[1,3,5,7,9,-1,-1,11,13,-1,-1,15,17,19,21,-1,-1,-1,-1,-1,-1,-1,-1],"loss_changes":[2.4999716E0,7.8259826E0,2.9611025E0,2.9688115E0,4.804853E0,0E0,0E0,6.9535117E0,5.136099E0,0E0,0E0,4.774137E0,4.275068E0,6.1989946E0,4.12989E0,0E0,0E0,0E0,0E0,0E0,0E0,0E0,0E0],"parents":[2147483647,0,0,1,1,2,2,3,3,4,4,7,7,8,8,11,11,12,12,13,13,14,14],"right_children":[2,4,6,8,10,-1,-1,12,14,-1,-1,16,18,20,22,-1,-1,-1,-1,-1,-1,-1,-1],"split_conditions":[3.1915026E0,2.3203392E0,1.0850898E0,1.5493862E-1,9.4597805E-1,-0E0,3.7192367E-2,1.2593006E-1,1.4676956E-2,-0E0,-5.598409E-2,7.6385025E1,7.446525E-3,2.436892E-2,8.8284546E-1,7.687466E-4,-3.1193106E-2,-3.971779E-2,-0E0,